svm_type c_svc
kernel_type rbf
gamma 0.5
nr_class 7
total_sv 396
rho 0.7826771328362 0.56645751725886939 -0.40556817786561478 0.42783236807631508 -0.16578011802050918 0.98829462095310516 0.092549659762094144 -0.78667352599327456 -0.16996377562984735 -1.5008218374078572 -0.28645922603357438 -0.70408140589869772 -0.14431565737993163 -0.70508629272136847 -0.18837742623421475 0.66412990804271088 0.0016719604169732223 0.68260417508486049 -0.70776893359068849 -0.12195387216626047 0.59073899416891562
label 1 0 2 3 5 4 6
nr_sv 118 24 31 18 60 14 131
SV
0 0 0 0 0 1 1:0.717334 2:-0.938355 3:0.267045 4:-0.92589 5:0.725149 6:-0.938316 7:-0.236576 8:-0.982617 9:-0.925576 10:-0.977524 11:-0.0875983 12:-0.774 13:-0.276321 14:-0.89865 15:-0.227933 16:-0.891863 17:-0.351513 18:-0.965906 
0 0 0 0 0 0.95846818854638627 1:0.674991 2:-0.910873 3:0.300639 4:-0.960221 5:0.695376 6:-0.951365 7:-0.849674 8:-0.995216 9:-0.493606 10:-0.918514 11:-0.175708 12:-0.884828 13:-0.370571 14:-0.903558 15:-0.063377 16:-0.951199 17:-0.388594 18:-0.968439 
0 0 0 1 0 1 1:0.675555 2:-0.905785 3:0.259118 4:-0.948284 5:0.737069 6:-0.919241 7:-0.844407 8:-0.991351 9:-0.494072 10:-0.856709 11:-0.191624 12:-0.827749 13:0.0933654 14:-0.876372 15:-0.210092 16:-0.92888 17:-0.0520244 18:-0.945108 
0 0 0 0 0 0.35070566820768451 1:0.736004 2:-0.916215 3:0.252558 4:-0.928992 5:0.758949 6:-0.928823 7:-0.266445 8:-0.967822 9:-0.92267 10:-0.969892 11:-0.148298 12:-0.779028 13:0.129051 14:-0.849541 15:-0.137685 16:-0.832554 17:0.0169065 18:-0.931933 
0 0 0 0 0 1 1:0.722731 2:-0.915689 3:0.247519 4:-0.959286 5:0.73137 6:-0.927647 7:-0.235472 8:-0.971637 9:-0.932399 10:-0.974741 11:-0.138091 12:-0.792596 13:0.130239 14:-0.861214 15:-0.0745604 16:-0.813052 17:-0.0485371 18:-0.94381 
0 0 0 0 0 1 1:0.612776 2:-0.919988 3:0.344346 4:-0.953742 5:0.785705 6:-0.949948 7:-0.832866 8:-0.992686 9:-0.520573 10:-0.894015 11:-0.240139 12:-0.833767 13:-0.0932163 14:-0.913777 15:-0.00982363 16:-0.930337 17:-0.239651 18:-0.961896 
0 0 0 1 0 0 1:0.614939 2:-0.904758 3:0.324687 4:-0.948198 5:0.809174 6:-0.943427 7:-0.833762 8:-0.991029 9:-0.519302 10:-0.875295 11:-0.250179 12:-0.838449 13:-0.106683 14:-0.886361 15:-0.102212 16:-0.935815 17:-0.236792 18:-0.946284 
0 0 0 1 0 1 1:0.693307 2:-0.885255 3:0.22165 4:-0.941873 5:0.734586 6:-0.940703 7:-0.856645 8:-0.993016 9:-0.471529 10:-0.876326 11:-0.154244 12:-0.845553 13:0.0503162 14:-0.908943 15:-0.176441 16:-0.92184 17:-0.116521 18:-0.93762 
0 0 0 0 0 1 1:0.739805 2:-0.878609 3:0.238017 4:-0.945134 5:0.652717 6:-0.944388 7:-0.858526 8:-0.994377 9:-0.468388 10:-0.899575 11:-0.13955 12:-0.85801 13:-0.179204 14:-0.927646 15:-0.11306 16:-0.921509 17:-0.247049 18:-0.9599 
0 0 0 0 0 1 1:0.673115 2:-0.906862 3:0.315958 4:-0.949067 5:0.809347 6:-0.906829 7:-0.839873 8:-0.994958 9:-0.514203 10:-0.925695 11:-0.206747 12:-0.892059 13:-0.351617 14:-0.883768 15:0.013622 16:-0.914421 17:-0.399474 18:-0.96477 
0 0.52471265653339194 0 1 0 0 1:0.68507 2:-0.899412 3:0.273085 4:-0.94612 5:0.842696 6:-0.956077 7:-0.84054 8:-0.988293 9:-0.512755 10:-0.872101 11:-0.281649 12:-0.854229 13:0.117201 14:-0.756103 15:-0.258733 16:-0.919919 17:-0.054756 18:-0.944821 
0 0 0 0.86493890481702318 0 0 1:0.678935 2:-0.898 3:0.278631 4:-0.959716 5:0.774479 6:-0.938376 7:-0.851993 8:-0.991159 9:-0.489204 10:-0.867074 11:-0.206808 12:-0.866013 13:0.0758735 14:-0.875667 15:-0.282082 16:-0.923878 17:-0.12172 18:-0.945066 
0 0 0 0 0 1 1:0.697604 2:-0.911225 3:0.28246 4:-0.955361 5:0.788986 6:-0.939639 7:-0.85289 8:-0.993063 9:-0.488795 10:-0.898067 11:-0.197514 12:-0.866571 13:-0.0125286 14:-0.873025 15:-0.262171 16:-0.9384 17:-0.0674031 18:-0.9537 
0 0 0 1 0 1 1:0.692501 2:-0.89132 3:0.302243 4:-0.942102 5:0.755669 6:-0.94063 7:-0.838378 8:-0.99346 9:-0.50043 10:-0.896103 11:-0.143852 12:-0.861807 13:-0.227467 14:-0.933023 15:-0.124634 16:-0.933738 17:-0.314095 18:-0.965619 
0 0 0 0 0 1 1:0.681237 2:-0.894475 3:0.293229 4:-0.946797 5:0.815381 6:-0.936238 7:-0.850931 8:-0.990619 9:-0.494982 10:-0.880059 11:-0.220427 12:-0.882172 13:0.092947 14:-0.854333 15:-0.21094 16:-0.94173 17:-0.119476 18:-0.945628 
0 0 0 0 0 1 1:0.721488 2:-0.864957 3:0.269344 4:-0.935484 5:0.785932 6:-0.931402 7:-0.857597 8:-0.99314 9:-0.482475 10:-0.906696 11:-0.18978 12:-0.883603 13:-0.081741 14:-0.907595 15:-0.123219 16:-0.907735 17:-0.233555 18:-0.94881 
0 0 0 0 0 1 1:0.568354 2:-0.916 3:0.196765 4:-0.960149 5:0.521905 6:-0.938358 7:-0.10565 8:-0.976688 9:-0.946379 10:-0.957216 11:-0.061642 12:-0.702096 13:0.0243886 14:-0.87548 15:0.0322147 16:-0.863928 17:-0.0962575 18:-0.954252 
0.13039145338292391 0 0 0 0 0 1:0.722443 2:-0.894405 3:0.192932 4:-0.944252 5:0.715341 6:-0.942524 7:-0.862779 8:-0.988703 9:-0.465102 10:-0.862525 11:-0.166576 12:-0.873253 13:-0.00656006 14:-0.884934 15:-0.223458 16:-0.905678 17:0.111651 18:-0.853275 
0 0 0 0 0 1 1:0.747166 2:-0.944587 3:0.28201 4:-0.936484 5:0.749131 6:-0.948557 7:-0.215405 8:-0.9778 9:-0.933285 10:-0.976819 11:-0.0964825 12:-0.79194 13:-0.233406 14:-0.903637 15:-0.178141 16:-0.898172 17:-0.299577 18:-0.972109 
0 0 0 0 0 1 1:0.689156 2:-0.860221 3:0.271947 4:-0.951639 5:0.733632 6:-0.949733 7:-0.844845 8:-0.992335 9:-0.498516 10:-0.886388 11:-0.180305 12:-0.878602 13:0.0311266 14:-0.906465 15:-0.162008 16:-0.919812 17:-0.169035 18:-0.938838 
0 0 1 0 0 0 1:0.654418 2:-0.925929 3:0.24521 4:-0.939985 5:0.804286 6:-0.924595 7:-0.203279 8:-0.977418 9:-0.951823 10:-0.982672 11:-0.240989 12:-0.79535 13:-0.297776 14:-0.886519 15:-0.0847866 16:-0.914652 17:-0.272898 18:-0.959726 
0 0 0 1 0 0.044313222099295682 1:0.699378 2:-0.908577 3:0.248616 4:-0.957681 5:0.707429 6:-0.941212 7:-0.850144 8:-0.992513 9:-0.487492 10:-0.873579 11:-0.18949 12:-0.840251 13:0.100969 14:-0.895386 15:-0.227484 16:-0.911603 17:-0.118729 18:-0.947331 
0 0 0 0 0 0.34323297350058402 1:0.753867 2:-0.879745 3:0.224574 4:-0.948823 5:0.645525 6:-0.946048 7:-0.862973 8:-0.994461 9:-0.46506 10:-0.897257 11:-0.153476 12:-0.867101 13:-0.120644 14:-0.942197 15:-0.0949667 16:-0.91887 17:-0.217598 18:-0.953416 
0 0 0 0 0 1 1:0.401507 2:-0.95044 3:0.141411 4:-0.966367 5:0.0787302 6:-0.943485 7:-0.0336597 8:-0.971996 9:-0.908255 10:-0.922445 11:0.157528 12:-0.788583 13:-0.079923 14:-0.87291 15:0.00290458 16:-0.913777 17:-0.185898 18:-0.955481 
0.24253818797933321 0 0 0 0.85589768972219793 0 1:0.764749 2:-0.895476 3:0.187227 4:-0.942344 5:0.819546 6:-0.940226 7:-0.88023 8:-0.993597 9:-0.448435 10:-0.90359 11:-0.206161 12:-0.887431 13:-0.126743 14:-0.923289 15:-0.148789 16:-0.934956 17:-0.189977 18:-0.958804 
0 0 0 0 0 1 1:0.712596 2:-0.907144 3:0.280358 4:-0.94512 5:0.807498 6:-0.941882 7:-0.855065 8:-0.993063 9:-0.486141 10:-0.908806 11:-0.199021 12:-0.864749 13:-0.0373692 14:-0.892129 15:-0.283913 16:-0.9267 17:-0.0951467 18:-0.948717 
0.98042242981791494 0.84289940807344432 0 1 0.14410231027780199 1 1:0.473133 2:-0.933658 3:0.106324 4:-0.96666 5:-0.000249588 6:-0.949854 7:-0.0384792 8:-0.974963 9:-0.878351 10:-0.912371 11:0.243384 12:-0.778272 13:0.187356 14:-0.875848 15:-0.149536 16:-0.954211 17:-0.105021 18:-0.955829 
0 0 0 1 0 1 1:0.671988 2:-0.897863 3:0.262086 4:-0.952994 5:0.739714 6:-0.92079 7:-0.847301 8:-0.991507 9:-0.49056 10:-0.859557 11:-0.1963 12:-0.827089 13:0.0323386 14:-0.851317 15:-0.181407 16:-0.912627 17:-0.0680769 18:-0.945357 
0 0 0 0 0 1 1:0.709813 2:-0.883355 3:0.275292 4:-0.938626 5:0.701803 6:-0.950027 7:-0.858407 8:-0.994384 9:-0.475894 10:-0.907731 11:-0.155322 12:-0.891169 13:-0.276263 14:-0.914987 15:-0.104853 16:-0.95265 17:-0.324662 18:-0.96768 
0.53379454935950044 0.49105388768275859 0 0.66746550200980703 0 0 1:0.664172 2:-0.887399 3:0.312587 4:-0.953019 5:0.809803 6:-0.943863 7:-0.845372 8:-0.992685 9:-0.50626 10:-0.911514 11:-0.229496 12:-0.876468 13:-0.474123 14:-0.910758 15:0.0140208 16:-0.934734 17:-0.404123 18:-0.961741 
0 0 0 0 0 1 1:0.731427 2:-0.908395 3:0.190092 4:-0.936537 5:0.692447 6:-0.898313 7:-0.225736 8:-0.958503 9:-0.924112 10:-0.945421 11:-0.11403 12:-0.698268 13:0.119125 14:-0.798428 15:0.0105449 16:-0.806543 17:0.0438853 18:-0.920344 
0 0 0 0 0 1 1:0.763223 2:-0.92951 3:0.228041 4:-0.935517 5:0.712361 6:-0.883312 7:-0.241152 8:-0.967323 9:-0.929277 10:-0.969718 11:-0.141497 12:-0.772248 13:0.14094 14:-0.832779 15:0.015339 16:-0.725867 17:-0.0321614 18:-0.936588 
0 0 0.29933545829475816 0 0 0 1:0.561759 2:-0.95611 3:0.220989 4:-0.951133 5:0.181112 6:-0.94294 7:-0.0722259 8:-0.977484 9:-0.932693 10:-0.961704 11:0.0670015 12:-0.831644 13:-0.346207 14:-0.910677 15:-0.140099 16:-0.908527 17:-0.299909 18:-0.973118 
0 0 0 0 0 1 1:0.706394 2:-0.930967 3:0.282945 4:-0.933496 5:0.76909 6:-0.925489 7:-0.257269 8:-0.977227 9:-0.927705 10:-0.977636 11:-0.139168 12:-0.809812 13:-0.221873 14:-0.883493 15:-0.190504 16:-0.886161 17:-0.336808 18:-0.960342 
0 0 0 0 0 1 1:0.696438 2:-0.875073 3:0.255385 4:-0.928067 5:0.785101 6:-0.927063 7:-0.86032 8:-0.993836 9:-0.478727 10:-0.906402 11:-0.187039 12:-0.89212 13:-0.100373 14:-0.89229 15:-0.219084 16:-0.950123 17:-0.163682 18:-0.943601 
0 0 0 0 0 1 1:0.77384 2:-0.927857 3:0.242136 4:-0.95321 5:0.712496 6:-0.913597 7:-0.247309 8:-0.966909 9:-0.927096 10:-0.968665 11:-0.12265 12:-0.810937 13:0.174178 14:-0.842565 15:0.0190247 16:-0.791957 17:-0.0939266 18:-0.937898 
0 0 0 0 0 1 1:0.64456 2:-0.874427 3:0.287803 4:-0.930218 5:0.714019 6:-0.934037 7:-0.820433 8:-0.990687 9:-0.530328 10:-0.874227 11:-0.202077 12:-0.818242 13:0.0677215 14:-0.906034 15:-0.333902 16:-0.924164 17:-0.0180757 18:-0.948182 
0 0 0 0 0 1 1:0.718012 2:-0.943688 3:0.273361 4:-0.947831 5:0.770765 6:-0.932059 7:-0.250134 8:-0.984979 9:-0.927664 10:-0.978442 11:-0.12252 12:-0.788998 13:-0.311372 14:-0.892415 15:-0.0673021 16:-0.886416 17:-0.359079 18:-0.970434 
0 0 0.53437205341886729 0 0 0 1:0.759471 2:-0.947359 3:0.256503 4:-0.931073 5:0.728181 6:-0.921503 7:-0.225017 8:-0.97764 9:-0.946334 10:-0.984228 11:-0.206305 12:-0.845279 13:-0.354166 14:-0.87639 15:-0.260492 16:-0.891742 17:-0.342421 18:-0.975076 
0 0.35565201376899058 0 0 0 1 1:0.675488 2:-0.920985 3:0.275624 4:-0.9048 5:0.832936 6:-0.804463 7:-0.241344 8:-0.976089 9:-0.937678 10:-0.983414 11:-0.170933 12:-0.836548 13:-0.387005 14:-0.808407 15:-0.00456779 16:-0.794564 17:-0.400289 18:-0.953113 
0 0 0 0 0 1 1:0.687227 2:-0.900383 3:0.275291 4:-0.948137 5:0.751192 6:-0.941967 7:-0.846397 8:-0.991652 9:-0.494674 10:-0.880698 11:-0.187248 12:-0.856385 13:0.0472863 14:-0.893448 15:-0.313634 16:-0.924261 17:-0.132674 18:-0.948334 
0 0 0 0 0 1 1:0.766576 2:-0.932873 3:0.295039 4:-0.936323 5:0.770581 6:-0.936211 7:-0.267335 8:-0.979414 9:-0.922424 10:-0.975094 11:-0.118284 12:-0.817628 13:-0.167767 14:-0.874346 15:-0.13549 16:-0.881468 17:-0.298962 18:-0.96491 
0.59165977018057403 0 0 0 0 0 1:0.787979 2:-0.87056 3:0.214577 4:-0.948072 5:0.784084 6:-0.959129 7:-0.873656 8:-0.994029 9:-0.467238 10:-0.917024 11:-0.249761 12:-0.897643 13:-0.261849 14:-0.947528 15:-0.119567 16:-0.916369 17:-0.333489 18:-0.960354 
0.57807827599994532 0 0 0 0 1 1:0.673884 2:-0.897654 3:0.312709 4:-0.945967 5:0.78846 6:-0.943664 7:-0.856952 8:-0.993209 9:-0.487144 10:-0.898693 11:-0.200453 12:-0.907858 13:-0.278706 14:-0.906442 15:0.0591027 16:-0.921091 17:-0.419497 18:-0.961394 
0 0 0 0 0 1 1:0.701898 2:-0.934043 3:0.253506 4:-0.900451 5:0.705736 6:-0.887627 7:-0.225839 8:-0.975252 9:-0.936709 10:-0.978126 11:-0.143984 12:-0.797157 13:-0.408354 14:-0.832152 15:-0.203022 16:-0.805624 17:-0.246949 18:-0.951804 
0 0 0 0 0 1 1:0.777197 2:-0.927866 3:0.266324 4:-0.897609 5:0.73841 6:-0.888854 7:-0.26413 8:-0.973833 9:-0.925095 10:-0.974304 11:-0.133833 12:-0.823888 13:-0.197355 14:-0.858298 15:-0.229537 16:-0.833874 17:-0.354713 18:-0.954252 
0 0 0 0 0 1 1:0.73278 2:-0.892031 3:0.258875 4:-0.9335 5:0.726288 6:-0.946 7:-0.858319 8:-0.994773 9:-0.474242 10:-0.912023 11:-0.152686 12:-0.875407 13:-0.219199 14:-0.928073 15:-0.0787919 16:-0.932759 17:-0.295757 18:-0.965929 
0 0 0 0 0 1 1:0.685669 2:-0.898158 3:0.269748 4:-0.946049 5:0.639995 6:-0.943823 7:-0.851677 8:-0.995084 9:-0.484971 10:-0.912276 11:-0.154696 12:-0.873361 13:-0.271704 14:-0.921909 15:-0.00755673 16:-0.937122 17:-0.361492 18:-0.96416 
0 0 0 0.85211534681891277 0 1 1:0.554999 2:-0.943714 3:0.123757 4:-0.952166 5:0.0923781 6:-0.951165 7:-0.0740487 8:-0.981721 9:-0.882249 10:-0.928775 11:0.226446 12:-0.795772 13:-0.116205 14:-0.884594 15:-0.260996 16:-0.951524 17:-0.234379 18:-0.977803 
0.07885983413577384 0 0 0 0 0 1:0.795099 2:-0.881369 3:0.234343 4:-0.943614 5:0.809084 6:-0.959376 7:-0.874354 8:-0.993941 9:-0.459533 10:-0.909213 11:-0.201663 12:-0.901235 13:-0.253615 14:-0.929641 15:-0.18791 16:-0.940509 17:-0.284002 18:-0.96426 
0 0 1 0 0 0 1:0.723142 2:-0.934958 3:0.294725 4:-0.94999 5:0.709982 6:-0.942301 7:-0.210953 8:-0.9809 9:-0.951002 10:-0.985396 11:-0.21931 12:-0.834061 13:-0.371446 14:-0.913126 15:-0.153201 16:-0.834137 17:-0.345467 18:-0.976582 
0 0 0 0 0 0.62422433210448602 1:0.668688 2:-0.933977 3:0.269604 4:-0.936284 5:0.813448 6:-0.907855 7:-0.233866 8:-0.980882 9:-0.939683 10:-0.9834 11:-0.177395 12:-0.810353 13:-0.456694 14:-0.860345 15:-0.176604 16:-0.878974 17:-0.349287 18:-0.966936 
0 0 0 0 0 1 1:0.607175 2:-0.915802 3:0.302355 4:-0.941936 5:0.812913 6:-0.92609 7:-0.843123 8:-0.991618 9:-0.509525 10:-0.891618 11:-0.25539 12:-0.862005 13:0.0309294 14:-0.863589 15:0.0223453 16:-0.924934 17:-0.16181 18:-0.948331 
0 0 0 0 0 1 1:0.659488 2:-0.908014 3:0.318904 4:-0.955737 5:0.757774 6:-0.946048 7:-0.840441 8:-0.994342 9:-0.510282 10:-0.915744 11:-0.187635 12:-0.897444 13:-0.338603 14:-0.923756 15:0.0336085 16:-0.944464 17:-0.407883 18:-0.96287 
0 0 0 0 0 1 1:0.562096 2:-0.95153 3:0.210907 4:-0.928619 5:0.310212 6:-0.935733 7:-0.105926 8:-0.981366 9:-0.92674 10:-0.964928 11:0.0689209 12:-0.817547 13:-0.31042 14:-0.894216 15:-0.187083 16:-0.912539 17:-0.30336 18:-0.978208 
0 0 0.32134313399499442 0 0 0 1:0.774909 2:-0.931058 3:0.269955 4:-0.94178 5:0.727393 6:-0.935779 7:-0.219676 8:-0.972074 9:-0.941195 10:-0.979812 11:-0.192681 12:-0.761603 13:0.167556 14:-0.869558 15:-0.246761 16:-0.884228 17:-0.0707857 18:-0.960336 
0 0 0 0 0 1 1:0.693988 2:-0.903256 3:0.253745 4:-0.950961 5:0.72966 6:-0.939627 7:-0.855596 8:-0.992588 9:-0.476478 10:-0.875605 11:-0.166069 12:-0.855809 13:0.00428039 14:-0.891752 15:-0.245669 16:-0.92621 17:-0.0701119 18:-0.945524 
0 0 0 0 0 1 1:0.735657 2:-0.925343 3:0.258161 4:-0.918798 5:0.702667 6:-0.899867 7:-0.245334 8:-0.972734 9:-0.924546 10:-0.97337 11:-0.0907982 12:-0.819219 13:-0.0987519 14:-0.854721 15:-0.209311 16:-0.726419 17:-0.3001 18:-0.948473 
0 0 0 1 0 0 1:0.691586 2:-0.919014 3:0.265477 4:-0.949651 5:0.68222 6:-0.930616 7:-0.84829 8:-0.993706 9:-0.493402 10:-0.895556 11:-0.188223 12:-0.857131 13:-0.227356 14:-0.909901 15:0.0388223 16:-0.925341 17:-0.355255 18:-0.964541 
0 0 0 0 0 1 1:0.702972 2:-0.933873 3:0.252099 4:-0.930399 5:0.485419 6:-0.93847 7:-0.140343 8:-0.977647 9:-0.925206 10:-0.962611 11:0.0362565 12:-0.778615 13:-0.128306 14:-0.881188 15:-0.240397 16:-0.914084 17:-0.32427 18:-0.968296 
0 0 0 0 0 0.62409103085736883 1:0.514424 2:-0.940587 3:0.215855 4:-0.964617 5:0.452069 6:-0.942753 7:-0.0999981 8:-0.977581 9:-0.950051 10:-0.962321 11:-0.0559901 12:-0.764034 13:-0.121808 14:-0.882219 15:-0.0558375 16:-0.857798 17:-0.179424 18:-0.96479 
0 0 0 0 0 1 1:0.697894 2:-0.886796 3:0.305595 4:-0.949296 5:0.727517 6:-0.95254 7:-0.847625 8:-0.994111 9:-0.495928 10:-0.911565 11:-0.177306 12:-0.880745 13:-0.191401 14:-0.921336 15:-0.0425719 16:-0.941997 17:-0.381364 18:-0.965952 
0 0 0 0 0 1 1:0.722809 2:-0.928162 3:0.273555 4:-0.943409 5:0.690279 6:-0.937172 7:-0.227553 8:-0.973161 9:-0.932029 10:-0.976234 11:-0.106522 12:-0.815451 13:-0.246175 14:-0.892481 15:-0.160308 16:-0.848259 17:-0.357991 18:-0.961636 
0 0 0 0 0 1 1:0.685918 2:-0.907938 3:0.28612 4:-0.943519 5:0.701689 6:-0.933226 7:-0.855211 8:-0.99525 9:-0.482796 10:-0.921911 11:-0.161193 12:-0.887232 13:-0.267548 14:-0.897624 15:-0.0337352 16:-0.940422 17:-0.335406 18:-0.967324 
0 0 0.093053118853217626 0 0 0 1:0.692595 2:-0.921322 3:0.214152 4:-0.939948 5:0.854471 6:-0.914204 7:-0.217857 8:-0.966881 9:-0.947108 10:-0.981384 11:-0.260498 12:-0.785106 13:0.0589876 14:-0.832928 15:0.0278741 16:-0.874812 17:-0.0287105 18:-0.94996 
0 0 0 0 0 0.95996057753347286 1:0.674475 2:-0.938192 3:0.237811 4:-0.954447 5:0.732311 6:-0.881162 7:-0.21102 8:-0.972277 9:-0.947041 10:-0.980242 11:-0.200878 12:-0.811701 13:-0.194306 14:-0.827203 15:0.0914396 16:-0.733286 17:-0.0790396 18:-0.946145 
0 0 0 0 0 0.54345709978508439 1:0.593964 2:-0.956185 3:0.229104 4:-0.932096 5:0.349329 6:-0.938893 7:-0.102717 8:-0.984478 9:-0.936562 10:-0.968268 11:0.0286505 12:-0.806138 13:-0.358918 14:-0.89217 15:-0.325548 16:-0.877714 17:-0.276181 18:-0.97644 
0 0 0 0 0 1 1:0.744928 2:-0.886635 3:0.254511 4:-0.941951 5:0.739444 6:-0.920799 7:-0.868069 8:-0.993057 9:-0.462312 10:-0.894363 11:-0.172464 12:-0.888912 13:-0.160813 14:-0.927093 15:-0.13549 16:-0.921897 17:-0.240051 18:-0.957986 
0 0 0 0 0 1 1:0.676185 2:-0.939363 3:0.250474 4:-0.95026 5:0.770336 6:-0.899059 7:-0.211337 8:-0.976145 9:-0.944689 10:-0.978245 11:-0.199536 12:-0.764651 13:-0.244641 14:-0.842825 15:0.0297715 16:-0.747432 17:-0.104001 18:-0.951848 
0 0 1 0 0 0 1:0.643674 2:-0.922001 3:0.231817 4:-0.945095 5:0.821406 6:-0.933194 7:-0.179779 8:-0.974205 9:-0.96 10:-0.985768 11:-0.279374 12:-0.809963 13:-0.0596225 14:-0.863132 15:-0.0363799 16:-0.866602 17:-0.104402 18:-0.952256 
0 0 0 0 0 1 1:0.718798 2:-0.936516 3:0.283936 4:-0.907238 5:0.756062 6:-0.916007 7:-0.255784 8:-0.973767 9:-0.921526 10:-0.973214 11:-0.101487 12:-0.792248 13:-0.164829 14:-0.86067 15:-0.0916965 16:-0.783187 17:-0.302194 18:-0.955477 
0 0 0 0.10045934907646553 0 1 1:0.717474 2:-0.860749 3:0.275972 4:-0.949279 5:0.811255 6:-0.944852 7:-0.856782 8:-0.991038 9:-0.480316 10:-0.888787 11:-0.203787 12:-0.843064 13:-0.177049 14:-0.931141 15:-0.146106 16:-0.932424 17:-0.269748 18:-0.956175 
0 0 0 0 0 1 1:0.649898 2:-0.926945 3:0.239084 4:-0.946047 5:0.415214 6:-0.938913 7:-0.122888 8:-0.979074 9:-0.918258 10:-0.957836 11:0.072154 12:-0.74541 13:-0.00843092 14:-0.874181 15:-0.214755 16:-0.871461 17:-0.156438 18:-0.965125 
0 0 0 0 0 1 1:0.748678 2:-0.904626 3:0.208827 4:-0.921846 5:0.795246 6:-0.870612 7:-0.298816 8:-0.961164 9:-0.908779 10:-0.962378 11:-0.122219 12:-0.807266 13:0.0509463 14:-0.803075 15:-0.0842409 16:-0.804255 17:-0.0601007 18:-0.925507 
0 0 0 0 0 1 1:0.702593 2:-0.898735 3:0.245379 4:-0.950532 5:0.765382 6:-0.930476 7:-0.865946 8:-0.992184 9:-0.465966 10:-0.88386 11:-0.192379 12:-0.864463 13:0.0132211 14:-0.887241 15:-0.227114 16:-0.92259 17:-0.0439117 18:-0.947934 
0 0 1 0 0 0 1:0.752501 2:-0.935196 3:0.260194 4:-0.939376 5:0.770992 6:-0.948013 7:-0.212747 8:-0.982057 9:-0.948918 10:-0.985408 11:-0.206647 12:-0.819858 13:-0.418579 14:-0.902882 15:-0.215352 16:-0.895576 17:-0.310152 18:-0.974599 
0 0 0 0 0 0.73938768167336533 1:0.733991 2:-0.916572 3:0.246999 4:-0.951911 5:0.815739 6:-0.934009 7:-0.26193 8:-0.970445 9:-0.925427 10:-0.970087 11:-0.178256 12:-0.737902 13:0.178285 14:-0.838801 15:0.00277865 16:-0.898462 17:-0.0889141 18:-0.934972 
0 0 0 1 0 0 1:0.704499 2:-0.880365 3:0.27456 4:-0.945943 5:0.677257 6:-0.957074 7:-0.852182 8:-0.993336 9:-0.485818 10:-0.88944 11:-0.168586 12:-0.880525 13:-0.283718 14:-0.92642 15:-0.0538309 16:-0.956454 17:-0.397863 18:-0.959054 
0 0 0 0 0 1 1:0.752338 2:-0.864115 3:0.2744 4:-0.956631 5:0.722838 6:-0.958389 7:-0.856006 8:-0.993495 9:-0.48167 10:-0.906013 11:-0.177312 12:-0.87195 13:-0.198918 14:-0.94029 15:-0.145036 16:-0.920465 17:-0.284758 18:-0.970555 
0 0 0 0 0 1 1:0.732498 2:-0.932801 3:0.231486 4:-0.936244 5:0.716673 6:-0.900744 7:-0.238466 8:-0.968115 9:-0.93228 10:-0.970333 11:-0.169786 12:-0.752401 13:0.13426 14:-0.836565 15:-0.152466 16:-0.695469 17:0.0288662 18:-0.9399 
0 0 0 0 0 1 1:0.742713 2:-0.873341 3:0.268904 4:-0.94216 5:0.685708 6:-0.949149 7:-0.855278 8:-0.994787 9:-0.479602 10:-0.909727 11:-0.150197 12:-0.887385 13:-0.235729 14:-0.914257 15:-0.0989631 16:-0.944506 17:-0.350671 18:-0.968413 
0 0 0 0 1 0 1:0.781081 2:-0.900531 3:0.240527 4:-0.943066 5:0.829164 6:-0.940845 7:-0.870999 8:-0.993731 9:-0.463706 10:-0.910442 11:-0.191013 12:-0.904737 13:-0.232194 14:-0.924333 15:-0.181789 16:-0.949199 17:-0.293763 18:-0.96608 
0 0 0 0 0 1 1:0.719383 2:-0.902266 3:0.24973 4:-0.947306 5:0.724823 6:-0.946681 7:-0.855017 8:-0.992456 9:-0.47899 10:-0.877792 11:-0.170415 12:-0.862339 13:-0.0283468 14:-0.881062 15:-0.260454 16:-0.933531 17:-0.031565 18:-0.950541 
0.65355711382865489 0 0 0 0.45357986531388039 0 1:0.766848 2:-0.924179 3:0.195796 4:-0.952231 5:0.776085 6:-0.940964 7:-0.871125 8:-0.993501 9:-0.455735 10:-0.888109 11:-0.188382 12:-0.849231 13:0.017843 14:-0.883457 15:-0.243314 16:-0.920325 17:-0.100742 18:-0.949591 
0 0 1 0 0 0 1:0.706775 2:-0.931667 3:0.223851 4:-0.957746 5:0.847025 6:-0.924821 7:-0.210147 8:-0.971797 9:-0.950537 10:-0.980914 11:-0.259838 12:-0.799531 13:-0.0992521 14:-0.859245 15:-0.113706 16:-0.915264 17:-0.10295 18:-0.958406 
0 0 0 0 0 1 1:0.686578 2:-0.899012 3:0.275663 4:-0.949364 5:0.725545 6:-0.94308 7:-0.849019 8:-0.992904 9:-0.48758 10:-0.890912 11:-0.160844 12:-0.864248 13:-0.0429578 14:-0.89829 15:-0.246517 16:-0.916586 17:-0.109761 18:-0.940289 
0 0 0 0 0 1 1:0.671684 2:-0.887883 3:0.317399 4:-0.940394 5:0.68912 6:-0.960871 7:-0.840222 8:-0.993478 9:-0.506909 10:-0.907255 11:-0.176369 12:-0.885805 13:-0.3243 14:-0.942082 15:-0.0244745 16:-0.957732 17:-0.404264 18:-0.963647 
0 0 0 0 0 1 1:0.709957 2:-0.921089 3:0.226077 4:-0.947998 5:0.77281 6:-0.891219 7:-0.218268 8:-0.974692 9:-0.938812 10:-0.972198 11:-0.17048 12:-0.748796 13:0.0229025 14:-0.811074 15:-0.152911 16:-0.755087 17:0.000772115 18:-0.94854 
1 0 0 0 0 0 1:0.697282 2:-0.911736 3:0.264836 4:-0.954419 5:0.836654 6:-0.96136 7:-0.850937 8:-0.988161 9:-0.49602 10:-0.853001 11:-0.28016 12:-0.854267 13:0.0997331 14:-0.920396 15:-0.256949 16:-0.913589 17:-0.0544282 18:-0.947421 
0 0 0 0 0 1 1:0.804429 2:-0.907346 3:0.248645 4:-0.864054 5:0.675836 6:-0.81645 7:-0.295863 8:-0.964877 9:-0.908015 10:-0.957105 11:-0.10517 12:-0.812013 13:-0.203107 14:-0.826218 15:-0.333784 16:-0.77126 17:-0.298311 18:-0.920092 
0 0 0 0 0 1 1:0.7619 2:-0.906658 3:0.270236 4:-0.909288 5:0.661155 6:-0.907578 7:-0.29278 8:-0.965798 9:-0.909019 10:-0.968003 11:-0.0853636 12:-0.854416 13:-0.171365 14:-0.863218 15:-0.414948 16:-0.813962 17:-0.289247 18:-0.951424 
0 0 0 1 0 0 1:0.689792 2:-0.871715 3:0.301692 4:-0.95642 5:0.693257 6:-0.944519 7:-0.847169 8:-0.99401 9:-0.497762 10:-0.900792 11:-0.18637 12:-0.883463 13:-0.326156 14:-0.914804 15:-0.0211623 16:-0.915223 17:-0.434835 18:-0.955133 
0 0 0 0 0 1 1:0.708022 2:-0.912188 3:0.273633 4:-0.95153 5:0.791939 6:-0.949124 7:-0.856715 8:-0.99194 9:-0.481605 10:-0.894164 11:-0.19633 12:-0.861008 13:0.0561597 14:-0.901989 15:-0.303782 16:-0.934004 17:-0.110421 18:-0.94764 
0 0 0 0 1 1 1:0.698976 2:-0.900241 3:0.228938 4:-0.9471 5:0.721683 6:-0.942585 7:-0.859956 8:-0.993423 9:-0.470075 10:-0.890282 11:-0.154118 12:-0.873829 13:-0.00626668 14:-0.896701 15:-0.22054 16:-0.931727 17:-0.115979 18:-0.95129 
0 0 0 0 0 1 1:0.761719 2:-0.916128 3:0.242132 4:-0.94348 5:0.724179 6:-0.92608 7:-0.228255 8:-0.976408 9:-0.922941 10:-0.96572 11:-0.0924011 12:-0.692139 13:0.144581 14:-0.834084 15:-0.117459 16:-0.859684 17:-0.0333405 18:-0.948959 
0 0 0.51735407107268583 0 0 0.35145470627724812 1:0.491168 2:-0.949006 3:0.155117 4:-0.954073 5:0.200158 6:-0.944016 7:-0.0434737 8:-0.987335 9:-0.926044 10:-0.942397 11:0.0950773 12:-0.762296 13:0.087243 14:-0.869131 15:-0.0310947 16:-0.924731 17:-0.077783 18:-0.968528 
1 0 0 0 0 0 1:0.729295 2:-0.907181 3:0.239461 4:-0.946367 5:0.80766 6:-0.939207 7:-0.870503 8:-0.994541 9:-0.468717 10:-0.920326 11:-0.222849 12:-0.890252 13:-0.285454 14:-0.921372 15:0.0355437 16:-0.944477 17:-0.338333 18:-0.968698 
0 0 0 0 0.3313219394270619 1 1:0.700624 2:-0.908975 3:0.288801 4:-0.942731 5:0.754714 6:-0.954388 7:-0.861116 8:-0.993649 9:-0.472855 10:-0.900975 11:-0.174164 12:-0.873242 13:-0.244742 14:-0.946682 15:-0.0969439 16:-0.950612 17:-0.300678 18:-0.967155 
0 0 0 0 0 1 1:0.696491 2:-0.91012 3:0.298394 4:-0.945703 5:0.764913 6:-0.9419 7:-0.851541 8:-0.994594 9:-0.491928 10:-0.925098 11:-0.182521 12:-0.882018 13:-0.224432 14:-0.903571 15:-0.0335379 16:-0.940025 17:-0.32229 18:-0.972305 
0 0 1 0 0 0 1:0.697708 2:-0.909887 3:0.24857 4:-0.944244 5:0.838571 6:-0.927542 7:-0.229868 8:-0.965733 9:-0.942623 10:-0.978805 11:-0.244831 12:-0.784053 13:0.157446 14:-0.856351 15:-0.28194 16:-0.89633 17:-0.0386261 18:-0.947082 
0 0 0 1 1 1 1:0.725782 2:-0.897217 3:0.262722 4:-0.949335 5:0.66232 6:-0.942539 7:-0.857811 8:-0.994306 9:-0.472545 10:-0.899983 11:-0.145372 12:-0.874661 13:-0.198759 14:-0.928041 15:-0.0666094 16:-0.943128 17:-0.343318 18:-0.967408 
0 0 0 1 0 0 1:0.639313 2:-0.927828 3:0.332064 4:-0.95865 5:0.876013 6:-0.956917 7:-0.833729 8:-0.991407 9:-0.528947 10:-0.909729 11:-0.309647 12:-0.877213 13:-0.248801 14:-0.754334 15:-0.0937157 16:-0.933136 17:-0.318365 18:-0.968565 
0.97760200156123989 0 0 0 0 0 1:0.696456 2:-0.910097 3:0.245046 4:-0.953373 5:0.7365 6:-0.949773 7:-0.862108 8:-0.99137 9:-0.469947 10:-0.868221 11:-0.198451 12:-0.844542 13:0.058675 14:-0.901632 15:-0.307883 16:-0.937301 17:-0.0275132 18:-0.949227 
0 0 0 0 0 0.67571413441043204 1:0.685373 2:-0.909486 3:0.283283 4:-0.948573 5:0.764677 6:-0.942493 7:-0.840755 8:-0.991428 9:-0.505314 10:-0.890756 11:-0.202929 12:-0.848108 13:0.0197812 14:-0.9133 15:-0.291011 16:-0.933974 17:-0.081894 18:-0.954609 
0 0 0 0 0 1 1:0.713917 2:-0.897682 3:0.228594 4:-0.948271 5:0.708037 6:-0.94798 7:-0.856292 8:-0.993817 9:-0.474188 10:-0.887571 11:-0.152623 12:-0.860645 13:-0.0306505 14:-0.900551 15:-0.19704 16:-0.939559 17:-0.161483 18:-0.94437 
0 0 0 0 0 1 1:0.753859 2:-0.924382 3:0.272184 4:-0.922521 5:0.776694 6:-0.923393 7:-0.252553 8:-0.972546 9:-0.928793 10:-0.977562 11:-0.145009 12:-0.80122 13:-0.1388 14:-0.86634 15:-0.38845 16:-0.84449 17:-0.307425 18:-0.960308 
0 0 0 1 0 0 1:0.678081 2:-0.891079 3:0.26612 4:-0.941914 5:0.822311 6:-0.934535 7:-0.857831 8:-0.989928 9:-0.480576 10:-0.856685 11:-0.229775 12:-0.848565 13:0.111242 14:-0.879094 15:-0.260601 16:-0.933885 17:-0.12432 18:-0.935267 
0 0 0 0 1 0 1:0.747501 2:-0.904925 3:0.227585 4:-0.947525 5:0.709473 6:-0.93337 7:-0.867495 8:-0.994967 9:-0.461491 10:-0.905074 11:-0.156774 12:-0.891239 13:-0.256121 14:-0.906394 15:-0.0803158 16:-0.926773 17:-0.345517 18:-0.965155 
1 0 0 1 0 0 1:0.691433 2:-0.905556 3:0.273583 4:-0.949849 5:0.768023 6:-0.943622 7:-0.859723 8:-0.994122 9:-0.480426 10:-0.903441 11:-0.198015 12:-0.882837 13:-0.392478 14:-0.902481 15:0.0168586 16:-0.932531 17:-0.410032 18:-0.956391 
0.0038788064791064809 0.49522105587926868 0 1 0 0 1:0.761346 2:-0.888433 3:0.209938 4:-0.924006 5:0.654065 6:-0.925217 7:-0.659251 8:-0.831785 9:-0.653296 10:-0.349256 11:-0.153623 12:-0.861664 13:-0.323698 14:-0.886434 15:-0.100424 16:-0.884085 17:0.134956 18:-0.853465 
0.08912591900984268 0.26967123655450215 0 0.22612713985812799 0 0 1:0.516035 2:-0.95571 3:0.140476 4:-0.949923 5:0.0169996 6:-0.945337 7:-0.0712072 8:-0.979358 9:-0.891547 10:-0.934838 11:0.206963 12:-0.833619 13:-0.361996 14:-0.900027 15:-0.218819 16:-0.917005 17:-0.33058 18:-0.976085 
0 0 0 0 0 1 1:0.712267 2:-0.938433 3:0.261364 4:-0.919284 5:0.573616 6:-0.920536 7:-0.209591 8:-0.976981 9:-0.924651 10:-0.969284 11:-0.0325355 12:-0.806544 13:-0.247628 14:-0.892463 15:-0.140187 16:-0.844045 17:-0.298534 18:-0.959098 
0 0 0 0 0 1 1:0.726587 2:-0.895547 3:0.267725 4:-0.943243 5:0.793411 6:-0.951138 7:-0.863656 8:-0.993101 9:-0.472825 10:-0.899346 11:-0.208782 12:-0.858127 13:0.0011206 14:-0.90059 15:-0.253452 16:-0.92567 17:-0.111349 18:-0.94866 
0 0 0 0 0 1 1:0.682336 2:-0.872142 3:0.319999 4:-0.938977 5:0.822452 6:-0.933165 7:-0.849007 8:-0.994846 9:-0.503391 10:-0.934378 11:-0.228023 12:-0.885615 13:-0.304076 14:-0.90331 15:0.0207039 16:-0.954523 17:-0.395582 18:-0.964729 
0 0 0 1 0 1 1:0.742133 2:-0.89451 3:0.244778 4:-0.953025 5:0.703046 6:-0.933689 7:-0.860822 8:-0.993328 9:-0.467148 10:-0.886229 11:-0.15187 12:-0.866285 13:-0.243371 14:-0.926286 15:-0.187175 16:-0.917331 17:-0.286984 18:-0.962425 
0 0 0 0 0 1 1:0.722988 2:-0.895833 3:0.294256 4:-0.957773 5:0.758609 6:-0.954369 7:-0.849759 8:-0.992457 9:-0.491975 10:-0.898629 11:-0.177717 12:-0.884608 13:-0.161375 14:-0.944569 15:-0.133294 16:-0.920561 17:-0.310571 18:-0.967754 
0 0 0 1 0 1 1:0.653009 2:-0.90256 3:0.3143 4:-0.958154 5:0.747405 6:-0.925951 7:-0.833557 8:-0.990882 9:-0.514697 10:-0.87754 11:-0.193884 12:-0.859894 13:0.164285 14:-0.850086 15:-0.229259 16:-0.927178 17:-0.125421 18:-0.949229 
0 0 0 0 0 1 1:0.819939 2:-0.9022 3:0.214134 4:-0.941927 5:0.740371 6:-0.898525 7:-0.320984 8:-0.970278 9:-0.900777 10:-0.960922 11:-0.110464 12:-0.819677 13:0.0400192 14:-0.818153 15:-0.0764663 16:-0.745637 17:-0.185252 18:-0.929622 
-0 0 0 0.33680365143393926 0 0 1:0.728269 2:-0.980987 3:0.304861 4:-0.98436 5:0.775834 6:-0.985501 7:-0.523023 8:-0.929136 9:0.279235 10:-0.283441 11:0.731776 12:-0.772201 13:-0.424832 14:-0.961658 15:-0.115445 16:-0.921736 17:-0.404347 18:-0.920185 
-0.073264218538274625 0.23066326317143174 0 1 0 0.17685985529159987 1:0.731053 2:-0.988485 3:0.322788 4:-0.996404 5:0.748235 6:-0.97973 7:-0.937041 8:-0.995331 9:0.097488 10:-0.752394 11:-0.690669 12:0.00153582 13:-0.541147 14:-0.97131 15:-0.836981 16:-0.969157 17:-0.334659 18:-0.948177 
-0.81569560308788136 0 0 0.91042406270935883 1 1 1:0.727262 2:-0.998391 3:0.329848 4:-0.999166 5:0.738274 6:-0.997261 7:-1 8:-0.998756 9:0.0247596 10:-0.985438 11:-0.667295 12:-0.880096 13:-0.0162712 14:-0.998623 15:0.0372808 16:-0.982465 17:-0.32026 18:-0.998198 
-0.74615972568569311 0 0 0 0.52509481798658286 0 1:0.717363 2:-0.99997 3:0.302968 4:-0.999978 5:0.775567 6:-0.999931 7:-0.990829 8:-0.999975 9:0.0193967 10:-0.999978 11:-0.743363 12:-0.999306 13:-0.103394 14:-0.999986 15:-0.153298 16:-0.999798 17:-0.262146 18:-0.999989 
-0.33532587762583982 0 0 0.32293859645334455 1 1 1:0.786557 2:-0.923308 3:0.31018 4:-0.951011 5:0.777895 6:-0.973431 7:-0.44078 8:-0.833492 9:0.0390919 10:-0.916538 11:0.850555 12:-0.904743 13:-0.0420488 14:-0.966907 15:-0.451322 16:-0.929822 17:-0.298097 18:-0.951196 
-1 0 0.10015138283857161 1 1 1 1:0.73987 2:-0.97031 3:0.364784 4:-0.964632 5:0.705247 6:-0.964705 7:-0.951565 8:-0.990696 9:-0.04022 10:-0.604411 11:0.0609093 12:-0.710692 13:-0.473888 14:-0.966023 15:-0.0431857 16:-0.836247 17:-0.346706 18:-0.924671 
-0 0.037870967087638818 0 1 0.54325039436518674 0.6059799406481593 1:0.730022 2:-0.987166 3:0.321451 4:-0.994707 5:0.754204 6:-0.993383 7:-0.690923 8:-0.769073 9:0.100821 10:-0.776096 11:0.541478 12:-0.404033 13:-0.461268 14:-0.981582 15:0.409934 16:-0.9506 17:-0.250532 18:-0.971252 
-0 0.1594332493652113 0 0 0 0 1:0.772478 2:-0.988924 3:0.319646 4:-0.993414 5:0.74953 6:-0.998635 7:0.0779993 8:-0.537095 9:0.131275 10:-0.808212 11:0.967139 12:-0.967053 13:0.123126 14:-0.991322 15:-0.655511 16:-0.963797 17:-0.345244 18:-0.990393 
-0.14543971052473703 0.82473043033796356 0.17160962690969359 1 0 0.53443018047034141 1:0.757373 2:-0.981014 3:0.296092 4:-0.994033 5:0.778009 6:-0.975783 7:-0.805846 8:-0.901655 9:0.00614882 10:-0.395655 11:0.136079 12:1 13:-0.571658 14:-0.969894 15:-1 16:-0.966118 17:-0.430273 18:-0.945361 
-0.11019123840769647 0.56234336991143308 0.10040559357910854 0.58611810139446618 0 0.41063533002959807 1:0.740488 2:-0.998047 3:0.300385 4:-0.999773 5:0.80232 6:-0.999591 7:0.730905 8:-0.765384 9:0.585109 10:0.596527 11:0.39897 12:-0.904188 13:0.342112 14:-0.992957 15:-0.0280058 16:-0.999352 17:-0.935379 18:-0.973886 
-0.34787982303288972 0.43446046787670561 0.8509201092946207 0.21226500933170991 0 0.54985031986946631 1:0.799601 2:-0.996715 3:0.361016 4:-0.996093 5:0.750401 6:-0.99819 7:0.984864 8:-0.995741 9:-0.0484071 10:-0.996989 11:0.461075 12:-0.979781 13:-0.027406 14:-0.997869 15:-0.198731 16:-0.996954 17:-0.185698 18:-0.997883 
-1 0.39556981147571346 0.28762644384918135 1 1 1 1:0.752348 2:-0.993902 3:0.314219 4:-0.992581 5:0.768409 6:-0.999156 7:-0.619374 8:-0.99549 9:-0.0535475 10:-0.835634 11:0.722935 12:-0.992324 13:-0.0241385 14:-0.997106 15:-0.254434 16:-0.995014 17:-0.00369399 18:-0.987741 
-0.10050989825455693 0.058556270776198856 0 0.39271292413498254 0 0.22047322740619932 1:0.753778 2:-0.999142 3:0.29465 4:-0.999688 5:0.796569 6:-0.99946 7:0.881511 8:-0.962099 9:-0.0861066 10:-0.996949 11:0.592368 12:-0.906992 13:-0.0773375 14:-0.998979 15:-0.434006 16:-0.998338 17:-0.191384 18:-0.999463 
-0 0.56260779036723019 0.10679921169189407 0.44644794775761687 0 0.27931986317536311 1:0.749481 2:-0.972158 3:0.286782 4:-0.977857 5:0.770778 6:-0.979452 7:-0.0983265 8:0.0685016 9:0.592747 10:0.1538 11:0.562461 12:-0.831078 13:-0.44696 14:-0.913436 15:0.155638 16:-0.867035 17:-0.962664 18:-0.88933 
-0 0.20489341968724506 0 0.020463038346285021 0 0.041137132929197635 1:0.775332 2:-0.987033 3:0.295876 4:-0.99178 5:0.753026 6:-0.989319 7:0.613634 8:-0.624688 9:0.632698 10:-0.34804 11:0.512577 12:-0.920763 13:0.15227 14:-0.93892 15:0.634071 16:-0.916961 17:-1 18:-0.931863 
-0 0 0 0 0.48759898229719789 0 1:0.747054 2:-0.999787 3:0.303058 4:-0.999702 5:0.770826 6:-0.999845 7:-0.24927 8:-0.999861 9:0.045946 10:-0.999723 11:0.991166 12:-0.99997 13:-0.104196 14:-0.99989 15:-0.145761 16:-0.999938 17:-0.274333 18:-0.999949 
-0 0.20036931827718302 0 0 0 0 1:0.749089 2:-0.99779 3:0.310705 4:-0.999429 5:0.788756 6:-0.998361 7:0.407055 8:-0.991429 9:1 10:-0.973908 11:0.233524 12:-0.957715 13:-0.218696 14:-0.991665 15:-0.084099 16:-0.99958 17:-0.131234 18:-0.995135 
-0 0.24109676638659269 0 0.16788307083303422 0 0 1:0.737958 2:-0.996493 3:0.289465 4:-0.998932 5:0.812969 6:-0.995441 7:0.705291 8:-0.935249 9:0.520262 10:-0.00462113 11:0.575506 12:-0.877411 13:-0.486595 14:-0.956098 15:-0.214068 16:-0.998141 17:0.126255 18:-0.988625 
-1 0 0 1 1 1 1:0.722075 2:-0.999615 3:0.321664 4:-0.999867 5:0.762278 6:-0.999653 7:-0.995782 8:-0.999874 9:0.000368563 10:-0.994699 11:-0.714053 12:-0.994069 13:-0.124127 14:-0.99971 15:-0.124345 16:-0.999043 17:-0.231735 18:-0.999803 
-0 0 0.63787926303038522 0 0 0 1:0.71448 2:-0.999476 3:0.298103 4:-0.999194 5:0.764074 6:-0.999466 7:-0.905924 8:-0.996716 9:-0.00576223 10:-0.994306 11:-0.993691 12:-0.976292 13:-0.0918466 14:-0.99938 15:-0.164683 16:-0.995963 17:-0.190807 18:-0.999247 
-0 0.73023822080076173 0 0 0 0 1:0.717874 2:-0.999998 3:0.303065 4:-0.999998 5:0.769023 6:-0.999996 7:-0.906691 8:-1 9:0.00935929 10:-0.999998 11:-0.999742 12:-0.999997 13:-0.106275 14:-0.999999 15:-0.140445 16:-0.999996 17:-0.262881 18:-1 
-0.18544224657724059 0.55011655669778725 0.10719052861163242 1 0 0.71845445118305962 1:0.745797 2:-0.995599 3:0.328902 4:-0.996515 5:0.75563 6:-0.98612 7:-0.952026 8:-0.975444 9:0.0108888 10:-0.973064 11:-0.164674 12:0.259362 13:-0.0618165 14:-0.994417 15:0.426109 16:-0.957679 17:-0.248069 18:-0.99063 
-1 0 0 0.16505650872468533 1 0.62151825542278138 1:0.717276 2:-0.999948 3:0.306751 4:-0.99995 5:0.772296 6:-0.999901 7:-0.991309 8:-0.999966 9:0.0173477 10:-0.999904 11:-0.740775 12:-0.999107 13:-0.105077 14:-0.999969 15:-0.143853 16:-0.999797 17:-0.262369 18:-0.999972 
-1 0 0.0086286930805008124 1 1 1 1:0.762366 2:-0.978087 3:0.366784 4:-0.966218 5:0.710732 6:-0.956196 7:-0.933968 8:-0.97693 9:-0.0674588 10:-0.775989 11:0.083886 12:-0.502188 13:-0.0949727 14:-0.977471 15:0.0803058 16:-0.822989 17:-0.167425 18:-0.929199 
-0 -0.1093595023175304 0 0 0 0 1:0.361308 2:0.471783 3:0.521199 4:-0.0605623 5:0.702628 6:-0.50841 7:-0.616892 8:-0.942694 9:-0.728378 10:-0.812815 11:-0.167387 12:-0.813647 13:-0.0948467 14:-0.098671 15:-0.454921 16:-0.173637 17:-0.46988 18:-0.383836 
-0.071282261229520513 -0.13761842917884243 0.044053753658734283 0.13357093975568129 0.046964424103472492 0.13599054349982084 1:-0.0977107 2:0.224203 3:0.31308 4:0.40226 5:-0.344988 6:0.0767729 7:-0.399258 8:-0.903512 9:-0.739734 10:-0.580502 11:0.229174 12:-0.668803 13:-0.330456 14:0.503136 15:-0.162138 16:0.400676 17:0.79175 18:1 
-0.10913221070075055 -0.21150636701831976 0.072672467475639282 0.19894862544800485 0.072213082698046466 0.19664454457488939 1:0.650398 2:0.30897 3:-0.76956 4:0.594072 5:-0.587618 6:-0.183121 7:-0.725172 8:-0.882031 9:-0.25008 10:-0.626373 11:0.416313 12:-0.52033 13:-0.334452 14:0.0822887 15:0.210011 16:0.91488 17:-0.4273 18:0.0539453 
-0.70218383124669381 -0.53996241314781424 0.27092662307078602 0.83324296087580818 0.32578236869188609 1 1:0.264997 2:-0.149187 3:0.132731 4:-0.176975 5:0.508441 6:-0.526349 7:-0.63391 8:-0.980917 9:-0.640694 10:-0.872874 11:0.117018 12:-0.667813 13:-0.10512 14:-0.180289 15:-0.451793 16:-0.360541 17:0.0727761 18:-0.745173 
-0.11739867633897123 -0.22772165113636281 0.07786449220441892 0.22316367496994124 0.079169937169012994 0.21521986982806945 1:0.819145 2:0.569269 3:-0.661989 4:0.661663 5:0.152818 6:-0.365149 7:-0.841482 8:-0.934533 9:-0.342918 10:-0.287202 11:-0.0630137 12:-0.231477 13:-0.442448 14:0.359673 15:0.226404 16:0.834011 17:0.503366 18:0.936737 
-0.059753474331337028 -0.15911208215601838 0.048485240035444584 0.14602126115069824 0.044253172993224656 0.13471726550972851 1:-0.15425 2:0.265468 3:0.522412 4:0.409648 5:-0.210008 6:-0.427377 7:-0.393879 8:-0.936868 9:-0.78493 10:-0.757033 11:0.171381 12:-0.781128 13:0.106861 14:0.0123432 15:0.775812 16:0.712032 17:-0.254715 18:0.242968 
-0 -0.0273196040923019 0 0 0 0 1:-0.0845193 2:0.222811 3:0.205199 4:0.432902 5:-0.190991 6:-0.0305157 7:-0.433717 8:-0.811676 9:-0.621218 10:-0.687024 11:0.374533 12:-0.501863 13:-0.275797 14:0.547924 15:-0.523024 16:0.167568 17:-0.273932 18:-0.17887 
-0.28738551620627034 -0.59047124387978245 0.1924337127888878 0.55867928731065364 0.19353544282788601 0.53408628933713753 1:0.422851 2:1 3:-0.680419 4:0.967262 5:0.035411 6:1 7:-0.772503 8:-0.921227 9:-0.306074 10:-0.357398 11:0.23463 12:-0.304231 13:0.324131 14:0.998378 15:0.210343 16:0.469675 17:0.466617 18:0.307599 
-0.093799631771934552 -0.20352842351274195 0.062018955048384561 0.19766156499398974 0.063191058543699663 0.18381669260195743 1:0.427689 2:0.41815 3:-0.816766 4:0.330918 5:-0.660888 6:-0.375013 7:-0.716605 8:-0.913461 9:-0.217453 10:-0.356557 11:0.449952 12:-0.597883 13:-0.480798 14:0.246868 15:0.0548418 16:0.443512 17:0.784849 18:0.491112 
-0.0054793100041116132 -0 0 0 0 0 1:0.620602 2:0.581131 3:-0.423781 4:0.923359 5:0.174221 6:0.00790039 7:-0.816945 8:-0.945241 9:-0.382296 10:-0.346302 11:-0.0257217 12:-0.226339 13:0.288667 14:0.480459 15:0.744584 16:0.591112 17:-0.0457282 18:0.579801 
-0.16372850491725346 -0.38210780123780641 0.12446861701980429 0.37042760812739833 0.12154530768375758 0.33954846784475784 1:0.828543 2:0.147828 3:-0.507286 4:0.330528 5:0.059021 6:-0.221565 7:-0.796344 8:-0.882433 9:-0.293496 10:-0.825628 11:0.186657 12:-0.0813757 13:0.267091 14:-0.203505 15:0.85305 16:0.792671 17:-0.227104 18:-0.366146 
-0.003980862871941741 -0 0.0012001968787115427 0 0.00094958882757268997 0 1:0.273179 2:0.48165 3:-0.367401 4:0.826318 5:-0.341839 6:0.344539 7:-0.608539 8:-0.820305 9:-0.361611 10:-0.601043 11:0.471287 12:-0.448481 13:-0.0999783 14:0.563786 15:0.564382 16:0.105832 17:-0.180367 18:-0.296318 
-0.041348500568462919 -0.12718887718522978 0.039973526168550148 0.1072840312115802 0.035853903209019947 0.084706769168777368 1:-0.14042 2:0.213823 3:0.255012 4:0.294604 5:-0.496263 6:-0.326905 7:-0.394506 8:-0.923168 9:-0.734615 10:-0.627086 11:0.269913 12:-0.740376 13:-0.265235 14:0.362436 15:-0.337353 16:0.492576 17:0.811554 18:0.713852 
-0.089216345364641389 -0.2056682644993017 0.065488494723522167 0.20103736343673698 0.062188569292127481 0.1910223418395815 1:-0.473073 2:0.147644 3:0.429054 4:0.251023 5:-0.210513 6:-0.481751 7:-0.397402 8:-0.949672 9:-0.783705 10:-0.728248 11:0.164613 12:-0.741271 13:0.360019 14:-0.152108 15:0.292732 16:0.420369 17:0.429969 18:0.665783 
-0 -0.040294177681299878 0 0 0 0 1:0.847272 2:0.139149 3:-0.446595 4:0.29188 5:0.261945 6:-0.1814 7:-0.856495 8:-0.963726 9:-0.31239 10:-0.68532 11:0.0549097 12:-0.360415 13:-0.840616 14:0.272695 15:0.123319 16:-0.0478546 17:0.0804882 18:-0.149456 
-0.1292570141122534 -0.22871301980989397 0.077115548549419322 0.22588122813864842 0.080974372861664132 0.21966274415553425 1:-0.552529 2:0.418169 3:0.371873 4:0.59613 5:-0.332314 6:-0.0247202 7:-0.377753 8:-0.92876 9:-0.741352 10:-0.567298 11:0.260841 12:-0.672983 13:0.188352 14:0.479252 15:0.198614 16:0.297163 17:0.333007 18:0.990928 
-0.019986682170208679 -0.049494957589527946 0.016376657945615592 0.037744585102741451 0.02062645244842869 0.034800501913903582 1:-0.39463 2:0.463153 3:0.517216 4:0.452423 5:-0.185382 6:-0.127749 7:-0.371076 8:-0.960395 9:-0.774036 10:-0.829399 11:0.224601 12:-0.647668 13:0.126978 14:-0.202252 15:0.742451 16:0.19069 17:-0.245633 18:-0.119801 
-0.039083918600997025 -0.075998447731340957 0.024737386132659838 0.071356566765667151 0.025312086365041717 0.071653661711472597 1:0.810843 2:0.57186 3:-0.33075 4:0.505073 5:0.441468 6:-0.242705 7:-0.846632 8:-0.951896 9:-0.375356 10:-0.401278 11:-0.135674 12:-0.261169 13:0.159384 14:0.209668 15:-0.132706 16:0.883591 17:0.418073 18:0.753599 
-0.60737080078872152 -0.55299514936575789 0.2761141440281773 0.66147350500149127 0.31384293106822142 0.72079228828052733 1:0.61676 2:0.037619 3:0.407492 4:-0.190086 5:0.422334 6:-0.75904 7:-0.707943 8:-0.96089 9:-0.624436 10:-0.720806 11:-0.0842577 12:-0.752241 13:-0.194176 14:-0.429036 15:0.319536 16:-0.290199 17:-0.590274 18:-0.571972 
-0 -0 0 0.00056714337065462764 0 0 1:0.763738 2:0.499224 3:-0.645332 4:0.429595 5:0.195845 6:0.0605465 7:-0.885924 8:-0.978454 9:-0.264612 10:-0.640653 11:0.0548094 12:-0.509183 13:-0.818266 14:0.171505 15:0.134876 16:-0.0640798 17:0.104667 18:-0.00256146 
-0.0038430409473771323 -0.0018962543985708248 0.0037671653262564982 0 0 0 1:0.368656 2:0.130497 3:-0.604709 4:0.350735 5:-0.662162 6:-0.43438 7:-0.650961 8:-0.881636 9:-0.292022 10:-0.612414 11:0.503314 12:-0.584957 13:-0.428241 14:-0.38126 15:0.269269 16:0.752653 17:0.299591 18:-0.0781339 
-0.033997693426340958 -0.063307135110041463 0.023758043970875112 0.062249756674760681 0.024986535471077372 0.059243635749025407 1:-0.486369 2:0.492624 3:0.39967 4:0.440284 5:-0.0838031 6:0.314008 7:-0.395638 8:-0.92358 9:-0.765129 10:-0.608763 11:0.173918 12:-0.630137 13:0.281553 14:0.464968 15:0.2616 16:0.436295 17:0.313413 18:0.791745 
-0 -0.024903239610335304 0.0067601920675665868 0.01029202673022598 0 0 1:-0.147896 2:0.542501 3:0.0784425 4:0.712635 5:0.0905679 6:-0.189961 7:-0.610666 8:-0.901496 9:-0.679448 10:-0.593508 11:-0.00956756 12:-0.723117 13:0.21818 14:-0.0830652 15:0.365852 16:-0.265071 17:-0.0479635 18:0.671973 
-0.065874314063960646 -0.20719187911616752 0.061547412917158061 0.18856904140609609 0.059162229067296186 0.15952942365138553 1:0.631266 2:0.379592 3:-0.582517 4:0.414661 5:0.457982 6:-0.115803 7:-0.906376 8:-0.981765 9:-0.268864 10:-0.484206 11:-0.0766054 12:-0.487651 13:0.496511 14:0.151349 15:0.437494 16:-0.166682 17:0.324066 18:0.425501 
-0.055388799590757654 -0.32024528263751484 0.089455734300483855 0.30731189133428743 0.056999004742815149 0.28302814197845305 1:-0.315572 2:0.36585 3:0.516974 4:0.249081 5:-0.0734016 6:-0.17654 7:-0.345277 8:-0.947238 9:-0.770747 10:-0.898882 11:0.247947 12:-0.541703 13:-0.763583 14:-0.234368 15:0.143171 16:-0.244592 17:-0.386286 18:-0.730866 
-0.020518594924299992 -0.035530626945645453 0.014009195444321157 0.033757455629511858 0.013342046192925495 0.037726929381034245 1:0.278858 2:0.51271 3:-0.597157 4:0.727789 5:-0.68711 6:0.0513211 7:-0.644797 8:-0.907668 9:-0.33743 10:-0.349444 11:0.459963 12:-0.546241 13:-0.0271588 14:0.4785 15:-0.0226778 16:0.00208414 17:0.861437 18:0.423705 
-0.013154323548035357 -0.064629176854475001 0.022205831940639888 0.06309196400418482 0.01806782213113519 0.047857225803156621 1:0.613982 2:0.448777 3:-0.225713 4:0.322495 5:0.457259 6:0.391747 7:-0.786957 8:-0.935166 9:-0.419223 10:-0.633805 11:0.0391731 12:-0.189873 13:0.0270579 14:0.631926 15:-0.0477732 16:0.961664 17:0.197599 18:-0.0357745 
-0.12212925530388666 -0.24902155068676557 0.082174651908956564 0.23633852018820919 0.081235188913393763 0.2243025665428757 1:0.84864 2:0.487938 3:-0.444361 4:0.554699 5:0.212004 6:0.348804 7:-0.827938 8:-0.937241 9:-0.358538 10:-0.343278 11:0.0313648 12:-0.434594 13:-0.465519 14:0.821999 15:-0.1201 16:0.602361 17:0.933222 18:0.797322 
-0 -0.034323346546438781 0 0 0 0 1:0.768575 2:0.205852 3:-0.0951585 4:0.342772 5:0.300756 6:-0.293323 7:-0.80121 8:-0.967847 9:-0.43254 10:-0.747709 11:0.012134 12:-0.263756 13:0.171394 14:-0.325853 15:1 16:0.745339 17:-0.197089 18:-0.192137 
-0.017845660111596384 -0.12964916424911613 0.012956657471676762 0.17176378055190292 0.026251293876522988 0.1376511610664683 1:0.282262 2:0.180263 3:-0.313733 4:0.500707 5:-0.606513 6:-0.381771 7:-0.593562 8:-0.907562 9:-0.33699 10:-0.78841 11:0.566706 12:-0.651658 13:-0.34916 14:-0.573208 15:0.264715 16:-0.159229 17:-0.20934 18:-0.521237 
-0.1060710353520318 -0.19319183452415281 0.07681052548135725 0.1697254033664424 0.074392107722833362 0.1537550623957088 1:0.140921 2:0.399146 3:-0.485754 4:0.510725 5:-0.755543 6:-0.139157 7:-0.58369 8:-0.87602 9:-0.324838 10:-0.636048 11:0.568825 12:-0.64105 13:-0.804478 14:0.0841546 15:0.0853819 16:0.0388075 17:-0.0486509 18:-0.343819 
-0.7654578356345233 -0 -0 0 0 0 1:0.741703 2:-0.999966 3:0.274539 4:-0.999995 5:0.780782 6:-0.999978 7:0.19962 8:-0.999973 9:-0.998262 10:-0.999998 11:-0.39054 12:-0.999848 13:-0.100705 14:-0.999985 15:-0.136174 16:-0.999991 17:-0.259022 18:-0.999998 
-1 -0 -0 1 1 0 1:0.726585 2:-0.999123 3:0.272203 4:-0.999901 5:0.770316 6:-0.999654 7:0.173347 8:-0.999862 9:-1 10:-0.999996 11:-0.411719 12:-0.999825 13:-0.114017 14:-0.999921 15:-0.149129 16:-0.999459 17:-0.272607 18:-0.999884 
-0 -0 -0 0 0 1 1:0.741511 2:-0.999961 3:0.275343 4:-0.999992 5:0.780878 6:-0.999957 7:0.211024 8:-0.99998 9:-0.997385 10:-0.999999 11:-0.372934 12:-0.999922 13:-0.105601 14:-0.999993 15:-0.132316 16:-0.999987 17:-0.258799 18:-0.999997 
-0 -0 -0 0 0 1 1:0.74409 2:-0.999929 3:0.275741 4:-0.999987 5:0.780578 6:-0.999882 7:0.223747 8:-0.999977 9:-0.995818 10:-0.999998 11:-0.376465 12:-0.999781 13:-0.106567 14:-0.999968 15:-0.128958 16:-0.999952 17:-0.267604 18:-0.999994 
-0 -0 -0 0 0 1 1:0.741418 2:-0.999913 3:0.276069 4:-0.999992 5:0.780572 6:-0.999824 7:0.214713 8:-0.999968 9:-0.996937 10:-0.999998 11:-0.37425 12:-0.999817 13:-0.102609 14:-0.999969 15:-0.130263 16:-0.999964 17:-0.257215 18:-0.999994 
-1 -0.32746222102642064 -0.055605567974454984 0.46730599939785944 0.21916392976405849 0 1:0.740957 2:-0.999716 3:0.274633 4:-0.999974 5:0.781504 6:-0.999821 7:0.179113 8:-0.999525 9:-0.999467 10:-0.999988 11:-0.412319 12:-0.99991 13:-0.101421 14:-0.999968 15:-0.194609 16:-0.999781 17:-0.243375 18:-0.999947 
-1 -0.3786388339966581 -0 0 0.14452563833178991 1 1:0.741389 2:-0.99997 3:0.275635 4:-0.999992 5:0.781785 6:-0.99995 7:0.195563 8:-0.999989 9:-0.998967 10:-1 11:-0.376118 12:-0.999831 13:-0.104797 14:-0.99998 15:-0.134138 16:-0.999986 17:-0.263302 18:-0.999998 
-1 -0 -0 0 0 1 1:0.741718 2:-0.999978 3:0.274944 4:-0.999995 5:0.781892 6:-0.999958 7:0.196747 8:-0.999966 9:-0.998638 10:-0.999997 11:-0.386225 12:-0.999572 13:-0.0931923 14:-0.999993 15:-0.128764 16:-0.999987 17:-0.258726 18:-0.999998 
-0 -0.16625517122646385 -0.5130040054995666 0 0 0 1:0.767438 2:-0.998966 3:0.27725 4:-0.99975 5:0.787346 6:-0.999082 7:0.234265 8:-0.999188 9:-0.992778 10:-0.999948 11:-0.427497 12:-0.999558 13:-0.0943513 14:-0.999474 15:-0.216401 16:-0.999238 17:-0.281849 18:-0.999745 
-1 -0 -0 0 0 1 1:0.742246 2:-0.999969 3:0.275094 4:-0.999994 5:0.778134 6:-0.999955 7:0.197832 8:-0.999992 9:-0.998616 10:-0.999999 11:-0.382047 12:-0.999494 13:-0.12063 14:-0.999989 15:-0.141148 16:-0.999991 17:-0.266666 18:-0.999998 
-0 -0 -0 0 0 1 1:0.742853 2:-0.999953 3:0.275598 4:-0.999992 5:0.781111 6:-0.99995 7:0.213551 8:-0.999982 9:-0.997091 10:-0.999999 11:-0.373318 12:-0.999897 13:-0.106841 14:-0.999989 15:-0.131661 16:-0.99998 17:-0.259969 18:-0.999997 
-1 -0 -0 0 0 0 1:0.742624 2:-0.99997 3:0.274273 4:-0.999996 5:0.779624 6:-0.999967 7:0.199383 8:-0.999971 9:-0.998282 10:-0.999999 11:-0.390977 12:-0.999973 13:-0.109842 14:-0.999995 15:-0.137975 16:-0.999991 17:-0.264007 18:-0.999997 
-0 -0.24004201662246644 -0.68409029249690634 0 0 0 1:0.695818 2:-0.998862 3:0.270553 4:-0.99976 5:0.714689 6:-0.999473 7:0.225167 8:-0.999161 9:-0.99424 10:-0.999913 11:-0.417181 12:-0.996772 13:-0.130398 14:-0.999727 15:-0.0199743 16:-0.998484 17:-0.29695 18:-0.999802 
-1 -1 -0.53467536058711951 0 0 1 1:0.672158 2:-0.989379 3:0.268178 4:-0.99797 5:0.697591 6:-0.995166 7:0.256566 8:-0.992668 9:-0.990386 10:-0.999352 11:-0.345075 12:-0.995312 13:-0.123405 14:-0.996552 15:-0.14834 16:-0.994001 17:-0.201295 18:-0.998749 
-0 -0 -0 0 0 0.434620304187744 1:0.743381 2:-0.999967 3:0.275325 4:-0.999994 5:0.778528 6:-0.99997 7:0.21086 8:-0.999951 9:-0.99723 10:-0.999996 11:-0.382267 12:-0.999767 13:-0.119312 14:-0.999996 15:-0.147156 16:-0.999988 17:-0.265924 18:-0.999997 
-0 -0 -0 0 0 1 1:0.741405 2:-0.999971 3:0.275584 4:-0.999994 5:0.779697 6:-0.999961 7:0.208884 8:-0.99998 9:-0.997612 10:-0.999999 11:-0.373619 12:-0.999897 13:-0.112757 14:-0.999993 15:-0.142152 16:-0.999984 17:-0.261895 18:-0.999996 
-0 -0 -0 0.93723436820229022 0 0 1:0.720968 2:-0.999305 3:0.272475 4:-0.999903 5:0.760484 6:-0.999593 7:0.193914 8:-0.99873 9:-0.998051 10:-0.999945 11:-0.411218 12:-0.999737 13:-0.112146 14:-0.999915 15:-0.0678185 16:-0.99961 17:-0.294856 18:-0.999886 
-0 -0.25881261001357925 -0 0 0 0 1:0.744022 2:-0.999419 3:0.277442 4:-0.999935 5:0.786314 6:-0.99989 7:0.280945 8:-0.999804 9:-0.986918 10:-0.999954 11:-0.387757 12:-0.997571 13:-0.08265 14:-0.999911 15:-0.140263 16:-0.999688 17:-0.258744 18:-0.999971 
-0 -0.89745845086918863 -0.33814670561570898 -0 0 1 1:0.60363 2:-0.948129 3:0.385046 4:-0.968147 5:0.74395 6:-0.90592 7:-0.571686 8:-0.67156 9:-0.578304 10:-0.959505 11:0.142583 12:0.00951627 13:0.0499315 14:-0.854387 15:0.372745 16:-0.871728 17:-0.102267 18:-0.975456 
-0 -0.33344165770576706 -0 -0 0 0 1:0.698005 2:-0.948997 3:0.313381 4:-0.989231 5:0.87568 6:-0.968742 7:-0.870811 8:-0.992502 9:-0.386548 10:-0.510525 11:-0.135702 12:-0.568688 13:-0.410773 14:-0.856809 15:-0.218529 16:-0.967906 17:-0.322513 18:-0.958514 
-0 -0.37056679604840109 -0 -0 0.40921288116803484 0 1:0.73686 2:-0.954422 3:-0.237552 4:-0.970577 5:0.199219 6:-0.971388 7:-0.864843 8:-0.996753 9:-0.16402 10:-0.244845 11:0.244887 12:-0.857481 13:-0.169359 14:-0.839388 15:-0.195122 16:-0.971603 17:-0.315479 18:-0.97372 
-0.059901962709441682 -0 -0 -0 0 1 1:0.650609 2:-0.925878 3:0.35323 4:-0.962478 5:0.693984 6:-0.892889 7:-0.762554 8:-0.99621 9:-0.524048 10:-0.762835 11:0.0105991 12:-0.532819 13:-0.645011 14:-0.745295 15:-0.284265 16:-0.950464 17:-0.36177 18:-0.97615 
-0 -0.18619028725967499 -0 -0 0.055356880473563214 0 1:0.39875 2:-0.960882 3:-0.733158 4:-0.969869 5:-0.31726 6:-0.965816 7:-0.671015 8:-0.949139 9:0.082651 10:-0.206713 11:0.624839 12:-0.901699 13:-0.0271829 14:-0.858151 15:-0.155317 16:-0.953938 17:-0.343063 18:-0.984338 
-0 -0 -0 -0 0 1 1:0.42937 2:-0.93368 3:0.416614 4:-0.971143 5:0.498806 6:-0.931094 7:-0.594467 8:-0.929267 9:-0.552343 10:-0.776629 11:0.266999 12:-0.188226 13:-0.154551 14:-0.862333 15:-0.161219 16:-0.909874 17:-0.242961 18:-0.979887 
-0 -0.22002041830710448 -0.16849995527920811 -0.052126872107861287 0.049469523370203397 0.9535324390129738 1:-0.928979 2:-0.940309 3:0.674156 4:-0.948084 5:-0.204652 6:-0.919236 7:-0.00789224 8:-0.949851 9:-0.662785 10:-0.212644 11:0.563352 12:-0.503497 13:-0.0569869 14:-0.818307 15:0.0314423 16:-0.876423 17:-0.249061 18:-0.985144 
-0 -1 -0.17144156822466447 -0 0 0 1:0.697804 2:-0.960262 3:0.312186 4:-0.989524 5:0.848601 6:-0.952967 7:-0.656707 8:-0.88198 9:-0.523877 10:-0.901336 11:0.10942 12:0.254149 13:-0.162025 14:-0.853448 15:-0.425241 16:-0.887822 17:-0.0791443 18:-0.991442 
-0 -0 -0 -0 0 1 1:0.663519 2:-0.921474 3:0.345148 4:-0.964 5:0.666114 6:-0.849893 7:-0.722162 8:-0.990546 9:-0.538165 10:-0.720269 11:0.0968952 12:-0.538791 13:0.16542 14:-0.713574 15:-0.533884 16:-0.923323 17:-0.262682 18:-0.976093 
-0 -0 -0 -0 0 1 1:0.590057 2:-0.903737 3:0.261254 4:-0.969934 5:0.646203 6:-0.919428 7:-0.788246 8:-0.998117 9:-0.489145 10:-0.639659 11:0.0103765 12:-0.60641 13:-0.263244 14:-0.773897 15:-0.00712014 16:-0.919529 17:-0.315333 18:-0.975418 
-0 -0 -0 -0.072335708852447042 0 0 1:0.247825 2:-0.941571 3:0.0253127 4:-0.94479 5:-0.243201 6:-0.89832 7:-0.352961 8:-0.763523 9:-0.591531 10:-0.222353 11:0.448116 12:-0.492915 13:0.419416 14:-0.732521 15:-0.336119 16:-0.905093 17:0.253483 18:-0.915735 
-0 -0 -0 -0 0 1 1:0.317527 2:-0.947941 3:-0.638793 4:-0.959486 5:-0.471186 6:-0.914268 7:-0.579423 8:-0.861272 9:-0.0141964 10:-0.405039 11:0.700908 12:-0.792628 13:-0.274854 14:-0.822719 15:-0.0479537 16:-0.895304 17:-0.179238 18:-0.982861 
-0 -0 -0 -0 0.049737327466833646 0 1:0.706603 2:-0.958707 3:0.291682 4:-0.98841 5:0.568251 6:-0.968252 7:-0.825009 8:-0.998271 9:-0.32687 10:-0.425645 11:0.182554 12:-0.690011 13:-4.8094e-05 14:-0.867008 15:-0.267008 16:-0.964002 17:-0.304612 18:-0.973122 
-0 -0 -0 -0 0 1 1:0.605074 2:-0.873542 3:0.0497757 4:-0.938229 5:0.264319 6:-0.836686 7:-0.781024 8:-0.994051 9:-0.427503 10:-0.638363 11:0.15977 12:-0.609976 13:0.23736 14:-0.650276 15:-0.373694 16:-0.858377 17:-0.153001 18:-0.96629 
-0 -0.88747147122060077 -0 -0 0 0 1:0.674592 2:-0.979563 3:0.316245 4:-0.988275 5:0.703689 6:-0.985092 7:-0.847034 8:-0.995853 9:-0.348975 10:-0.294273 11:0.0129681 12:-0.475199 13:-0.508558 14:-0.933935 15:0.0650176 16:-0.983674 17:-0.373242 18:-0.972334 
-1 -0 -0 -0 0 1 1:0.722254 2:-0.941845 3:0.287339 4:-0.980609 5:0.777317 6:-0.916735 7:-0.857898 8:-0.995309 9:-0.424527 10:-0.62665 11:-0.0875028 12:-0.73395 13:-0.382619 14:-0.705795 15:-0.138357 16:-0.974086 17:-0.271952 18:-0.967355 
-1 -0 -0 -0 0 0 1:0.675833 2:-0.923266 3:0.330249 4:-0.98354 5:0.779478 6:-0.937096 7:-0.851958 8:-0.993399 9:-0.445566 10:-0.62105 11:-0.152996 12:-0.683824 13:-0.40114 14:-0.873367 15:-0.261739 16:-0.963169 17:-0.426886 18:-0.970362 
-0 -0 -0 -0 0 1 1:0.676038 2:-0.954401 3:0.334531 4:-0.983389 5:0.843096 6:-0.931593 7:-0.796516 8:-0.998959 9:-0.500341 10:-0.798461 11:-0.0952099 12:-0.400048 13:-0.11407 14:-0.909171 15:-0.0806138 16:-0.958556 17:-0.346227 18:-0.980663 
-1 -1 -0 -0 1 1 1:0.746878 2:-0.950575 3:0.278661 4:-0.990002 5:0.815198 6:-0.972255 7:-0.879828 8:-0.995157 9:-0.395507 10:-0.631881 11:-0.132838 12:-0.712306 13:-0.0833185 14:-0.792245 15:-0.184585 16:-0.965179 17:-0.227905 18:-0.972102 
-0 -0 -0 -0 0 1 1:0.576958 2:-0.963474 3:0.400805 4:-0.971529 5:0.722448 6:-0.915713 7:-0.513125 8:-0.706676 9:-0.588098 10:-0.954353 11:0.237133 12:0.0410856 13:-0.0577083 14:-0.899162 15:-0.23839 16:-0.789404 17:-0.131827 18:-0.973346 
-0.52661124153546657 -0 -0 -0 0 1 1:0.57807 2:-0.923494 3:0.310575 4:-0.978998 5:0.85169 6:-0.940628 7:-0.804212 8:-0.998075 9:-0.503751 10:-0.75689 11:-0.132905 12:-0.482585 13:-0.201799 14:-0.81507 15:-0.279753 16:-0.935466 17:-0.295798 18:-0.97925 
-1 -0 -0 -0 0 1 1:0.724226 2:-0.940253 3:0.335937 4:-0.98097 5:0.753536 6:-0.893557 7:-0.795898 8:-0.993318 9:-0.49408 10:-0.683771 11:-0.0286589 12:-0.611642 13:0.428395 14:-0.77112 15:-0.182309 16:-0.928186 17:-0.184264 18:-0.957323 
-0 -0 -0 -0 0 0.80823334451847317 1:0.723678 2:-0.873868 3:0.233078 4:-0.967561 5:0.583709 6:-0.79694 7:-0.803804 8:-0.996745 9:-0.423764 10:-0.608425 11:0.104502 12:-0.638611 13:0.38423 14:-0.697702 15:-0.28576 16:-0.914976 17:-0.0503081 18:-0.956518 
-0 -0 -0 -0 0 1 1:0.613812 2:-0.949479 3:0.358883 4:-0.973985 5:0.785144 6:-0.907048 7:-0.68145 8:-0.982537 9:-0.589522 10:-0.859298 11:0.0556677 12:-0.343226 13:-0.0784706 14:-0.862112 15:0.0142601 16:-0.914699 17:-0.243083 18:-0.985842 
-1 -0 -0 -0 0 1 1:0.703175 2:-0.951413 3:0.322641 4:-0.990735 5:0.810794 6:-0.92097 7:-0.825699 8:-0.998141 9:-0.479298 10:-0.776473 11:-0.131885 12:-0.545287 13:-0.197711 14:-0.870198 15:-0.129067 16:-0.945824 17:-0.254638 18:-0.971094 
-0 -0 -0 -0 0 0.25509610408348543 1:0.464676 2:-0.953412 3:0.398238 4:-0.980031 5:0.576091 6:-0.916287 7:-0.643723 8:-0.936918 9:-0.558742 10:-0.79435 11:0.155969 12:-0.147176 13:-0.0566935 14:-0.825686 15:0.0280881 16:-0.902808 17:-0.207068 18:-0.985176 
-0 -0.86229212530229038 -0.56592231989054231 -0.022811462902857176 0 0 1:0.400335 2:-0.907319 3:0.105434 4:-0.951952 5:0.567404 6:-0.854591 7:-0.685847 8:-0.921588 9:-0.344281 10:0.0543732 11:0.181719 12:0.649375 13:-0.49666 14:-0.912967 15:0.100297 16:-0.963342 17:-0.417712 18:-0.963022 
-1 -0 -0.22881641603291525 -0 0 0 1:0.678096 2:-0.945241 3:0.361943 4:-0.956507 5:0.806898 6:-0.939779 7:-0.811707 8:-0.969718 9:-0.491444 10:-0.443683 11:-0.0929053 12:-0.824918 13:0.0638211 14:-0.774385 15:0.0207165 16:-0.867653 17:-0.274068 18:-0.946694 
-0 -0 -0 -0 0 1 1:0.671462 2:-0.935743 3:0.312081 4:-0.984442 5:0.700997 6:-0.935592 7:-0.826631 8:-0.997238 9:-0.440803 10:-0.641486 11:-0.0120466 12:-0.625696 13:-0.17149 14:-0.796734 15:-0.11335 16:-0.958804 17:-0.286889 18:-0.970648 
-0 -0 -0.13922394507207175 -0 0 0 1:0.701914 2:-0.87958 3:0.23458 4:-0.951733 5:0.622009 6:-0.838673 7:-0.774771 8:-0.990754 9:-0.436562 10:-0.47101 11:0.100501 12:-0.413308 13:0.461282 14:-0.637421 15:-0.359778 16:-0.86284 17:0.024737 18:-0.943745 
-1 -0 -0 -0 0 1 1:0.628875 2:-0.941915 3:0.292972 4:-0.98536 5:0.661079 6:-0.95581 7:-0.831866 8:-0.998733 9:-0.4463 10:-0.645785 11:-0.0237451 12:-0.708917 13:-0.259844 14:-0.828687 15:-0.0842199 16:-0.972418 17:-0.47192 18:-0.98022 
-1 -0.38959443775504715 -0.38304491217916353 -0.045656457028193383 0.29434568394615201 1 1:0.648587 2:-0.901203 3:0.12595 4:-0.958935 5:-0.0188063 6:-0.934162 7:-0.754723 8:-0.994584 9:-0.419213 10:-0.738177 11:0.265836 12:-0.732338 13:0.330076 14:-0.836349 15:-0.517529 16:-0.924756 17:0.0193877 18:-0.977196 
-1 -0 -0 -0 0 1 1:0.685285 2:-0.940435 3:0.336545 4:-0.984362 5:0.779514 6:-0.908738 7:-0.815237 8:-0.997907 9:-0.481998 10:-0.761585 11:-0.0831157 12:-0.548693 13:-0.27774 14:-0.800029 15:-0.010256 16:-0.927415 17:-0.347898 18:-0.964478 
-0.67719673961647153 -0 -0 -0 0 1 1:0.642846 2:-0.949862 3:0.285861 4:-0.981981 5:0.721089 6:-0.962728 7:-0.83798 8:-0.997653 9:-0.441617 10:-0.716672 11:-0.0596893 12:-0.60124 13:-0.105678 14:-0.782185 15:-0.257508 16:-0.96182 17:-0.309474 18:-0.978321 
-1 -1 -0.07321094721066905 -1 1 1 1:0.649376 2:-0.93067 3:0.33602 4:-0.977549 5:0.742219 6:-0.942758 7:-0.807781 8:-0.998255 9:-0.528617 10:-0.915099 11:-0.12025 12:-0.729716 13:-0.120269 14:-0.81942 15:-0.0485078 16:-0.935314 17:-0.3346 18:-0.991095 
-0.18241378569741434 -0.42744915253459859 -0.61439291003852692 -0.17785585572345594 0.074814382365635604 1 1:-0.909685 2:-0.845626 3:0.674208 4:-0.93919 5:0.0831016 6:-0.916491 7:-0.0213028 8:-0.570298 9:-0.677162 10:-0.278855 11:0.390702 12:-0.0455927 13:-0.137352 14:-0.785221 15:0.176834 16:-0.886596 17:-0.0399373 18:-0.965947 
-1 -0.51455048600765585 -0 -0 0 0 1:0.673294 2:-0.935092 3:0.280898 4:-0.980574 5:0.889377 6:-0.953311 7:-0.875393 8:-0.992414 9:-0.412444 10:-0.600105 11:-0.19148 12:-0.697705 13:-0.340368 14:-0.7968 15:-0.170429 16:-0.969766 17:-0.337341 18:-0.964182 
-1 -0 -0 -0 0 1 1:0.676759 2:-0.947095 3:0.306573 4:-0.98413 5:0.730056 6:-0.936379 7:-0.838669 8:-0.997088 9:-0.461276 10:-0.749908 11:-0.123226 12:-0.605527 13:0.0556162 14:-0.774462 15:-0.0377401 16:-0.936165 17:-0.204983 18:-0.977371 
-0.093879504969760968 -0 -0 -0 0 1 1:0.653425 2:-0.953643 3:0.296534 4:-0.977551 5:0.771513 6:-0.944469 7:-0.780323 8:-0.992438 9:-0.516688 10:-0.876345 11:-0.069233 12:-0.376515 13:-0.0238163 14:-0.800748 15:0.0193858 16:-0.892837 17:-0.298143 18:-0.987224 
-0.11168227373978026 -0 -0 -0 0 0.0056557285553073986 1:0.691607 2:-0.912314 3:0.310462 4:-0.985031 5:0.757728 6:-0.915582 7:-0.866985 8:-0.992794 9:-0.399337 10:-0.565549 11:-0.066587 12:-0.760631 13:-0.0270867 14:-0.764042 15:-0.112124 16:-0.969729 17:-0.304694 18:-0.96191 
-0 -0.37398294258942849 -0 -0 0 0 1:0.568991 2:-0.931554 3:-0.51743 4:-0.960664 5:-0.140039 6:-0.894534 7:-0.649584 8:-0.756962 9:-0.0323453 10:-0.264108 11:0.543416 12:-0.343865 13:-0.0702513 14:-0.823512 15:0.258875 16:-0.852755 17:-0.158118 18:-0.976238 
-0 -0 -0 -0.4212675781442981 0 0 1:0.646711 2:-0.9548 3:0.334013 4:-0.97481 5:0.837531 6:-0.910635 7:-0.638397 8:-0.992606 9:-0.652961 10:-0.777716 11:-0.0468035 12:-0.247221 13:-0.066447 14:-0.82777 15:-0.0367913 16:-0.963675 17:-0.357622 18:-0.986341 
-1 -0 -0 -0 0 0 1:0.601875 2:-0.903709 3:0.250037 4:-0.968498 5:0.774886 6:-0.909564 7:-0.819325 8:-0.989853 9:-0.484317 10:-0.581887 11:-0.113283 12:-0.682498 13:0.0978718 14:-0.710688 15:-0.194563 16:-0.950298 17:-0.199114 18:-0.959146 
-0 -0 -0 -0 0 1 1:-0.486992 2:-0.90356 3:-0.320354 4:-0.93506 5:-0.827151 6:-0.869306 7:-0.159978 8:-0.591218 9:-0.2175 10:-0.46217 11:0.86361 12:-0.881646 13:0.306683 14:-0.789119 15:-0.126602 16:-0.780503 17:-0.166076 18:-0.985526 
-0.33256357335502301 -0.64634006885541517 -0.58864465233120455 -0.1812537512733251 0.17777863438910196 0.12623305652373495 1:-0.497138 2:-0.923475 3:-1 4:-0.92783 5:-0.866574 6:-0.89241 7:-0.234896 8:-0.897125 9:0.199282 10:0.376875 11:0.906927 12:-0.981142 13:0.0658074 14:-0.783311 15:-0.196965 16:-0.940313 17:-0.0595635 18:-0.956589 
-0 -0 -0 -0 0 0.01785332377007854 1:0.471503 2:-0.89284 3:-0.0466174 4:-0.927005 5:0.128954 6:-0.863241 7:-0.766367 8:-0.969485 9:-0.337787 10:-0.535529 11:0.283169 12:-0.532852 13:-0.1412 14:-0.802016 15:-0.0945679 16:-0.908937 17:-0.21452 18:-0.952721 
-0 -0 -0 -0.061169571947328034 0 0 1:0.431441 2:-0.939317 3:0.199396 4:-0.945587 5:0.461754 6:-0.895702 7:-0.492292 8:-0.761803 9:-0.658056 10:-0.787982 11:0.102386 12:0.134731 13:-0.665543 14:-0.768081 15:-0.189047 16:-0.960649 17:-0.192686 18:-0.990871 
-0 -0 -0 -0 0 0.22218764937023494 1:0.161119 2:-0.936511 3:0.376534 4:-0.981107 5:-0.152353 6:-0.915783 7:-0.580815 8:-0.992498 9:-0.434002 10:-0.231891 11:0.472361 12:-0.58538 13:-0.213683 14:-0.848022 15:-0.0138285 16:-0.97157 17:-0.310699 18:-0.971231 
-1 -0 -0 -0 0 1 1:0.60815 2:-0.899057 3:0.112164 4:-0.942887 5:0.230357 6:-0.885741 7:-0.789412 8:-0.991205 9:-0.418484 10:-0.726893 11:0.170724 12:-0.66225 13:-0.235508 14:-0.744411 15:-0.096415 16:-0.921471 17:-0.212608 18:-0.965556 
-0.31517384672758797 -0.15330153485859763 -0.10582106239251264 -0.064167290157458118 0 1 1:-0.747414 2:-0.937984 3:0.496979 4:-0.963767 5:-0.390799 6:-0.93366 7:-0.0944125 8:-0.89761 9:-0.572874 10:-0.468813 11:0.675843 12:-0.698398 13:0.23015 14:-0.821997 15:-0.228777 16:-0.906663 17:-0.303378 18:-0.986861 
-1 -0 -0 -0 0.46586152554398885 1 1:0.671489 2:-0.953097 3:0.339716 4:-0.985639 5:0.815424 6:-0.941243 7:-0.830403 8:-0.996111 9:-0.484673 10:-0.795351 11:-0.142318 12:-0.639778 13:-0.045829 14:-0.853226 15:-0.079006 16:-0.970007 17:-0.295652 18:-0.978933 
-0 -0 -0.24536767829678485 -0.052473293856851566 0 0 1:0.314019 2:-0.942185 3:-0.887891 4:-0.959493 5:-0.473532 6:-0.924589 7:-0.648998 8:-0.955732 9:0.147845 10:0.128892 11:0.633462 12:-0.958797 13:-0.0588866 14:-0.790276 15:-0.119168 16:-0.933861 17:-0.286005 18:-0.975823 
-0.053965353884458792 -0.45504722969708905 -0.52596215986979056 -0.14899826910839534 0 0 1:0.123242 2:-0.938307 3:-0.188883 4:-0.960129 5:-0.38023 6:-0.910965 7:-0.438724 8:-0.872733 9:-0.293821 10:1 11:0.640762 12:-0.740989 13:0.0543465 14:-0.794548 15:0.0736864 16:-0.92168 17:0.0654327 18:-0.883954 
-0 -0 -0.12433860142273181 -0 0 0.086159500489541491 1:0.201084 2:-0.883734 3:0.121907 4:-0.962623 5:-0.0330657 6:-0.779362 7:-0.48959 8:-0.937916 9:-0.513699 10:-0.519692 11:0.435935 12:-0.0720497 13:0.712497 14:-0.886739 15:-0.204811 16:-0.949886 17:-0.413496 18:-0.975521 
-0 -0.59126395201112825 -0 -0 0.45558308682495008 0 1:0.739497 2:-0.952129 3:0.278517 4:-0.987866 5:0.780008 6:-0.960428 7:-0.873086 8:-0.996487 9:-0.385276 10:-0.630528 11:-0.0745108 12:-0.668022 13:-0.202337 14:-0.798569 15:-0.259682 16:-0.96892 17:-0.333498 18:-0.970447 
-1 -0 -0 -0 0 1 1:0.667038 2:-0.944719 3:0.325184 4:-0.980813 5:0.749685 6:-0.960774 7:-0.813546 8:-0.998325 9:-0.496074 10:-0.851264 11:-0.103936 12:-0.553354 13:0.0897487 14:-0.889419 15:-0.249389 16:-0.943096 17:-0.214571 18:-0.987129 
-0.35771796034493142 -0.4077011739192889 -0.43226534950503948 -0.10442425649767843 0.11239326620889525 1 1:-0.530988 2:-0.894085 3:-0.268775 4:-0.938095 5:-0.718197 6:-0.806987 7:-0.140812 8:-0.62535 9:-0.243673 10:-0.604367 11:0.87329 12:-0.908933 13:-0.15862 14:-0.855457 15:-0.162562 16:-0.797025 17:-0.334081 18:-0.984875 
-1 -0.84444072617814592 -0 -0 0.89712075915406553 1 1:0.713221 2:-0.921164 3:0.290648 4:-0.98053 5:0.802008 6:-0.945317 7:-0.876449 8:-0.991648 9:-0.394326 10:-0.583855 11:-0.111121 12:-0.737919 13:-0.20757 14:-0.822664 15:-0.185105 16:-0.973324 17:-0.26474 18:-0.962378 
-1 -0 -0 -0 0 0 1:0.710999 2:-0.934613 3:0.279322 4:-0.989118 5:0.742049 6:-0.903604 7:-0.871461 8:-0.991728 9:-0.402369 10:-0.529338 11:-0.101049 12:-0.785756 13:-0.0371047 14:-0.807799 15:-0.129835 16:-0.970031 17:-0.302263 18:-0.949528 
-0 -0 -0.50506100218378269 -0 0 0 1:0.69738 2:-0.914543 3:0.286047 4:-0.965513 5:0.688112 6:-0.899365 7:-0.815468 8:-0.99394 9:-0.468265 10:-0.629535 11:-0.0348456 12:-0.65487 13:-0.596138 14:-0.715253 15:-0.287817 16:-0.944701 17:-0.424377 18:-0.962116 
-0 -0 -0.14750284429247956 -0 -0 0 1:0.738593 2:-0.999998 3:0.304284 4:-0.999999 5:0.781311 6:-0.999998 7:-0.898432 8:-1 9:0.126052 10:-0.999999 11:0.328189 12:-0.999998 13:-0.106276 14:-1 15:-0.139095 16:-0.999999 17:-0.262709 18:-1 
-1 -1 -0.87550424640003133 -0.35747962677904632 -1 1 1:0.723607 2:-0.999996 3:0.303808 4:-0.999987 5:0.785595 6:-0.999987 7:-0.981084 8:-0.999997 9:0.0258925 10:-0.999878 11:0.0912491 12:-0.999947 13:-0.108495 14:-0.999995 15:-0.137877 16:-0.999951 17:-0.260112 18:-0.999975 
-0 -0 -0 -0 -0 1 1:0.724882 2:-0.999998 3:0.304033 4:-0.999997 5:0.786046 6:-0.999996 7:-0.976181 8:-1 9:0.0291186 10:-0.999898 11:0.110021 12:-0.999994 13:-0.104051 14:-0.999999 15:-0.142196 16:-0.999992 17:-0.258878 18:-0.999992 
-1 -1 -0 -0 -1 0 1:0.722327 2:-0.999991 3:0.305719 4:-0.999939 5:0.781601 6:-0.999943 7:-0.981853 8:-0.999963 9:0.0305817 10:-0.999835 11:0.0889796 12:-0.999262 13:-0.128358 14:-0.999881 15:-0.14707 16:-0.999707 17:-0.257726 18:-0.999915 
-0 -1 -0 -0 -0 0 1:0.721358 2:-0.999929 3:0.307223 4:-0.99967 5:0.770538 6:-0.999693 7:-0.974076 8:-0.99927 9:0.0808942 10:-0.989749 11:0.116909 12:-0.986892 13:-0.0978757 14:-0.99955 15:-0.0710534 16:-0.997154 17:-0.321654 18:-0.999783 
-1 -1 -0 -0 -1 1 1:0.723334 2:-0.999996 3:0.303655 4:-0.999991 5:0.786058 6:-0.999983 7:-0.98139 8:-0.999996 9:0.0274732 10:-0.999944 11:0.0903771 12:-0.999922 13:-0.105595 14:-0.999998 15:-0.147221 16:-0.99994 17:-0.26893 18:-0.99998 
-1 -1 -0 -0.97152489576402645 -1 1 1:0.723912 2:-0.999996 3:0.302997 4:-0.999988 5:0.786849 6:-0.999989 7:-0.980904 8:-0.999999 9:0.0257619 10:-0.999972 11:0.0919254 12:-0.999974 13:-0.107788 14:-0.999997 15:-0.144111 16:-0.999979 17:-0.267073 18:-0.999989 
-0 -0 -0 -0 -0 1 1:0.725108 2:-0.999999 3:0.304054 4:-0.999998 5:0.785743 6:-0.999995 7:-0.97499 8:-0.999994 9:0.0273407 10:-0.999959 11:0.114 12:-0.999878 13:-0.104416 14:-0.999999 15:-0.137188 16:-0.999983 17:-0.260995 18:-0.999992 
-0 -1 -0 -0 -0 0 1:0.723783 2:-0.999996 3:0.303767 4:-0.999988 5:0.78556 6:-0.999985 7:-0.980847 8:-0.999997 9:0.029404 10:-0.999698 11:0.092744 12:-0.999918 13:-0.109096 14:-0.999993 15:-0.131017 16:-0.999964 17:-0.266759 18:-0.999977 
-1 -0 -0 -0 -1 1 1:0.724075 2:-0.999992 3:0.303409 4:-0.999984 5:0.786892 6:-0.999972 7:-0.979483 8:-0.99998 9:0.0254044 10:-0.999982 11:0.0971221 12:-0.999591 13:-0.105619 14:-0.999986 15:-0.149874 16:-0.999873 17:-0.262935 18:-0.999977 
-0 -1 -0.8178318362085506 -0.034685045552775601 -0.041673950911424194 0 1:0.645025 2:-0.99737 3:0.196974 4:-0.995868 5:0.62582 6:-0.994847 7:-0.916984 8:-0.99455 9:0.155077 10:-0.942595 11:0.26745 12:-0.971792 13:-0.106156 14:-0.999919 15:-0.172733 16:-0.999498 17:-0.280914 18:-0.999932 
-0 -0 -0 -0 -0 1 1:0.724953 2:-0.999999 3:0.303728 4:-0.999998 5:0.786081 6:-0.999995 7:-0.975052 8:-0.999993 9:0.0281914 10:-0.999988 11:0.113924 12:-0.999867 13:-0.106302 14:-0.999999 15:-0.1404 16:-0.99998 17:-0.265015 18:-0.999996 
-0.78490180474094207 -1 -0 -0 -0 0.35704448907941255 1:0.723643 2:-0.999996 3:0.304482 4:-0.999989 5:0.7862 6:-0.999986 7:-0.981271 8:-0.999997 9:0.0287698 10:-0.999807 11:0.0910421 12:-0.999928 13:-0.102507 14:-0.999995 15:-0.143645 16:-0.99994 17:-0.254549 18:-0.999977 
-0 -0.55594419464896738 -0 -0 -0 0 1:0.724131 2:-0.999995 3:0.303284 4:-0.999988 5:0.787004 6:-0.999986 7:-0.980693 8:-0.999996 9:0.0321852 10:-0.999886 11:0.0938127 12:-0.999916 13:-0.105047 14:-0.999992 15:-0.14108 16:-0.999958 17:-0.26629 18:-0.999972 
-0 -0 -0 -0 -0 -0.9012605136021643 1:0.656021 2:-0.926269 3:0.325064 4:-0.971914 5:0.741686 6:-0.960383 7:-0.817017 8:-0.99399 9:-0.448205 10:-0.948758 11:0.099481 12:-0.830771 13:-0.0385283 14:-0.904642 15:-0.125196 16:-0.972102 17:-0.200854 18:-0.993381 
-1 -0 -0 -0 -0 -0 1:0.667248 2:-0.872573 3:0.263101 4:-0.943549 5:0.79651 6:-0.934799 7:-0.806103 8:-0.996295 9:-0.499937 10:-0.953792 11:0.00209295 12:-0.757021 13:-0.0106817 14:-0.87699 15:-0.265698 16:-0.934483 17:-0.176165 18:-0.982642 
-0 -0 -0 -0 -1 -0 1:-0.633827 2:-0.903104 3:0.1798 4:-0.96175 5:-0.743949 6:-0.945956 7:-0.202191 8:-0.874606 9:-0.458506 10:-0.893861 11:0.776192 12:-0.837561 13:-0.0515138 14:-0.922713 15:-0.20565 16:-0.928485 17:-0.229599 18:-0.98926 
-1 -0 -0 -0 -0 -0 1:0.692877 2:-0.827224 3:0.30892 4:-0.936061 5:0.767635 6:-0.926329 7:-0.8196 8:-0.997478 9:-0.508091 10:-0.979629 11:-0.0598164 12:-0.814559 13:-0.140507 14:-0.895255 15:-0.110466 16:-0.917472 17:-0.25065 18:-0.987525 
-1 -0 -0 -0 -1 -0 1:0.630971 2:-0.908409 3:0.36156 4:-0.951298 5:0.769202 6:-0.934155 7:-0.805046 8:-0.996035 9:-0.530936 10:-0.955083 11:-0.131058 12:-0.669664 13:-0.0510617 14:-0.891105 15:-0.0375805 16:-0.892487 17:-0.200294 18:-0.975527 
-0.5699047298960086 -0 -0.16953626414374634 -0 -0 -0 1:0.788453 2:-0.936303 3:0.223445 4:-0.848613 5:0.875731 6:-0.779324 7:0.0152097 8:-0.986142 9:-0.971871 10:-0.992086 11:-0.0899174 12:-0.794875 13:-0.342705 14:-0.780868 15:-0.0558921 16:-0.591131 17:-0.26316 18:-0.958962 
-0 -0 -0 -0.53887365512728624 -0 -0 1:0.0325987 2:-0.972042 3:0.189424 4:-0.917316 5:0.727821 6:-0.962777 7:0.396673 8:-0.953633 9:-0.899582 10:-0.952036 11:0.071997 12:-0.960031 13:-0.0195695 14:-0.955418 15:-0.21753 16:-0.871667 17:-0.23437 18:-0.980183 
-1 -0 -0 -0 -0 -0 1:0.739566 2:-0.932581 3:0.31892 4:-0.849132 5:0.828228 6:-0.885676 7:0.00418297 8:-0.980071 9:-0.973698 10:-0.992244 11:-0.0752965 12:-0.897127 13:-0.211047 14:-0.84569 15:-0.338117 16:-0.680913 17:-0.102053 18:-0.962694 
-1 -0 -0 -0.7296680698076452 -0 -0 1:0.754541 2:-0.942897 3:0.36284 4:-0.885248 5:0.831064 6:-0.894201 7:-0.00825755 8:-0.990227 9:-0.97921 10:-0.997405 11:-0.0960075 12:-0.933891 13:-0.0347 14:-0.860453 15:-0.200273 16:-0.708559 17:-0.292702 18:-0.965582 
-0 -1 -0 -0 -0 -0 1:0.685986 2:-0.899644 3:0.250862 4:-0.964913 5:0.717658 6:-0.952551 7:-0.830748 8:-0.990043 9:-0.44477 10:-0.964771 11:0.0446429 12:-0.760945 13:-0.159 14:-0.943895 15:-0.0453426 16:-0.928193 17:-0.205552 18:-0.988422 
-1 -0 -0 -0 -0 -0 1:0.66761 2:-0.853119 3:0.334215 4:-0.935705 5:0.75172 6:-0.9303 7:-0.807057 8:-0.996072 9:-0.516733 10:-0.978544 11:-0.024926 12:-0.835349 13:-0.101994 14:-0.880766 15:-0.186784 16:-0.882817 17:-0.231675 18:-0.983828 
-1 -0 -0 -0 -0 -0 1:0.802942 2:-0.876151 3:0.378454 4:-0.927805 5:0.772537 6:-0.931925 7:-0.825877 8:-0.996206 9:-0.505499 10:-0.982695 11:-0.0847656 12:-0.810389 13:-0.121428 14:-0.848022 15:-0.154704 16:-0.892547 17:-0.291974 18:-0.990628 
-0 -0 -0 -0.76944365803782011 -0 -0 1:0.70864 2:-0.958745 3:0.370012 4:-0.920443 5:0.885168 6:-0.876216 7:0.0371689 8:-0.96755 9:-0.964629 10:-0.986274 11:-0.0206108 12:-0.900687 13:-0.250687 14:-0.895796 15:-0.514137 16:-0.805909 17:-0.165025 18:-0.972524 
-0 -0 -0.48866806064699142 -0 -1 -0 1:0.649408 2:-0.772474 3:0.249124 4:-0.902244 5:0.796546 6:-0.861547 7:-0.818565 8:-0.9945 9:-0.495564 10:-0.953338 11:-0.0634171 12:-0.682166 13:-0.265322 14:-0.691284 15:-0.165862 16:-0.880838 17:-0.190774 18:-0.980193 
-0 -0 -0 -0 -0.79503121527332077 -0 1:0.554472 2:-0.769694 3:0.256794 4:-0.920081 5:0.805983 6:-0.853771 7:-0.812357 8:-0.995355 9:-0.49284 10:-0.945094 11:-0.0191942 12:-0.70829 13:-0.157879 14:-0.692717 15:-0.390982 16:-0.865534 17:-0.085568 18:-0.973602 
-0 -1 -0 -0 -0 -1 1:0.688798 2:-0.907607 3:0.314511 4:-0.954954 5:0.675742 6:-0.955057 7:-0.838245 8:-0.992465 9:-0.420958 10:-0.96208 11:0.083477 12:-0.82436 13:-0.144509 14:-0.928304 15:-0.178695 16:-0.943717 17:-0.245528 18:-0.980906 
-1 -0 -0 -0 -0 -0 1:0.573745 2:-0.84145 3:0.285987 4:-0.920488 5:0.676342 6:-0.933272 7:-0.81622 8:-0.997736 9:-0.515278 10:-0.951764 11:-0.0743064 12:-0.812932 13:-0.110574 14:-0.783146 15:0.0562019 16:-0.88059 17:-0.303191 18:-0.984632 
-0 -0.70701894312360236 -0.85229585453177326 -0.08189637201702854 -0.57824070832537822 -0.23679123933842675 1:-0.407723 2:-0.876649 3:0.0244912 4:-0.941221 5:-0.854749 6:-0.90694 7:-0.299213 8:-0.896362 9:-0.348937 10:-0.924466 11:0.825267 12:-0.964645 13:-0.112343 14:-0.820858 15:-0.175605 16:-0.902196 17:-0.24704 18:-0.986052 
-1 -0 -0 -0 -0 -0 1:0.683576 2:-0.894198 3:0.371109 4:-0.94605 5:0.762616 6:-0.958617 7:-0.808786 8:-0.997903 9:-0.531607 10:-0.981682 11:-0.110831 12:-0.759881 13:-0.131894 14:-0.912713 15:-0.170862 16:-0.930887 17:-0.252412 18:-0.991184 
-1 -0 -0 -0 -0 -0 1:0.769205 2:-0.819064 3:0.293097 4:-0.916953 5:0.665967 6:-0.922702 7:-0.818804 8:-0.993973 9:-0.483056 10:-0.954054 11:-0.00621888 12:-0.749668 13:-0.0273127 14:-0.850025 15:-0.225116 16:-0.877441 17:-0.136862 18:-0.976983 
-1 -0 -0 -0 -0 -0 1:0.672361 2:-0.87665 3:0.384186 4:-0.94257 5:0.762298 6:-0.959683 7:-0.83771 8:-0.994442 9:-0.483116 10:-0.991195 11:-0.0583531 12:-0.838246 13:-0.0860214 14:-0.935301 15:-0.123949 16:-0.90852 17:-0.254087 18:-0.984273 
-1 -0 -0 -0 -0 -0 1:0.604618 2:-0.79184 3:0.319345 4:-0.913495 5:0.759118 6:-0.926386 7:-0.805497 8:-0.993229 9:-0.536454 10:-0.986428 11:-0.10776 12:-0.779712 13:-0.2361 14:-0.837075 15:-0.289362 16:-0.856821 17:-0.219241 18:-0.97828 
-0 -0 -0 -0 -0 -0.39631342144250259 1:0.666115 2:-0.914011 3:0.281334 4:-0.965979 5:0.509191 6:-0.962732 7:-0.810737 8:-0.996973 9:-0.451492 10:-0.986967 11:0.141704 12:-0.947147 13:-0.142383 14:-0.932464 15:-0.321144 16:-0.968501 17:-0.251401 18:-0.988701 
-0 -0 -0 -0 -1 -0 1:0.598551 2:-0.923152 3:0.323241 4:-0.96965 5:0.619718 6:-0.906237 7:-0.77645 8:-0.993997 9:-0.472966 10:-0.882491 11:0.152148 12:-0.780536 13:-0.164069 14:-0.887653 15:-0.144645 16:-0.962863 17:-0.309993 18:-0.9836 
-1 -0 -0 -0 -0 -0 1:0.616009 2:-0.727269 3:0.258595 4:-0.919318 5:0.677092 6:-0.946016 7:-0.79107 8:-0.994348 9:-0.531081 10:-0.973439 11:-0.0140726 12:-0.799767 13:-0.176342 14:-0.882298 15:-0.543653 16:-0.866073 17:-0.0493202 18:-0.97752 
-1 -0 -0 -0 -0 -0 1:0.672318 2:-0.920818 3:0.322628 4:-0.957341 5:0.784719 6:-0.947864 7:-0.814398 8:-0.998631 9:-0.529064 10:-0.971326 11:-0.137514 12:-0.757377 13:0.057463 14:-0.914688 15:-0.0984846 16:-0.943871 17:-0.188334 18:-0.991567 
-1 -0 -0 -0 -0 -0 1:0.643472 2:-0.862834 3:0.264357 4:-0.939183 5:0.748787 6:-0.927619 7:-0.782673 8:-0.996381 9:-0.520271 10:-0.957396 11:0.0595593 12:-0.856383 13:-0.120164 14:-0.900161 15:-0.286977 16:-0.940168 17:-0.241932 18:-0.977348 
-1 -0 -0 -0 -0 -0 1:0.595125 2:-0.835822 3:0.285139 4:-0.896192 5:0.714436 6:-0.906132 7:-0.810361 8:-0.996985 9:-0.524862 10:-0.939966 11:-0.105404 12:-0.752013 13:-0.185447 14:-0.786251 15:-0.0485372 16:-0.871869 17:-0.287235 18:-0.968583 
-0 -0 -0 -0 -0.017101320655112551 -0 1:-0.519642 2:-0.952506 3:-0.131762 4:-0.825905 5:0.474225 6:-0.893712 7:0.568442 8:-0.982611 9:-0.802669 10:-0.946077 11:0.168633 12:-0.917099 13:-0.175414 14:-0.847766 15:-0.144927 16:-0.824512 17:-0.317937 18:-0.957354 
-1 -0 -0 -0 -0 -0 1:0.547804 2:-0.826176 3:0.272108 4:-0.935083 5:0.624829 6:-0.921173 7:-0.802496 8:-0.997826 9:-0.522778 10:-0.946188 11:-0.0542124 12:-0.752811 13:-0.0832704 14:-0.886009 15:0.010591 16:-0.899678 17:-0.294979 18:-0.981786 
-0 -0.16781231366020496 -0 -0 -0 -0 1:-0.200444 2:-0.934705 3:-0.014843 4:-0.96455 5:-0.680724 6:-0.96818 7:-0.349941 8:-0.924616 9:-0.334252 10:-0.92343 11:0.811468 12:-0.961944 13:-0.272872 14:-0.938895 15:-0.163137 16:-0.95506 17:-0.195591 18:-0.993975 
-0 -0 -0 -0 -1 -0 1:0.738685 2:-0.935473 3:0.410924 4:-0.961327 5:0.719073 6:-0.960414 7:-0.79856 8:-0.983141 9:-0.497015 10:-0.970838 11:0.0169467 12:-0.692477 13:-0.229063 14:-0.926362 15:-0.254078 16:-0.930953 17:-0.163754 18:-0.989221 
-1 -0 -0 -0 -0 -0 1:0.538698 2:-0.903824 3:0.400276 4:-0.971177 5:0.505106 6:-0.957499 7:-0.769239 8:-0.996897 9:-0.54903 10:-0.945345 11:0.00151801 12:-0.75214 13:0.0717566 14:-0.930565 15:-0.0695354 16:-0.938292 17:-0.171967 18:-0.990024 
-1 -0 -0 -0 -0.33786533843305577 -0 1:0.688383 2:-0.849153 3:0.358311 4:-0.939105 5:0.694729 6:-0.934747 7:-0.817927 8:-0.995222 9:-0.515842 10:-0.954853 11:-0.130287 12:-0.703207 13:0.0987568 14:-0.887755 15:-0.182691 16:-0.890204 17:-0.160135 18:-0.977739 
-1 -0 -0 -0.010806833342606976 -0 -0 1:0.657348 2:-0.956602 3:0.286409 4:-0.845364 5:0.755886 6:-0.928045 7:0.0333884 8:-0.97465 9:-0.96686 10:-0.990774 11:-0.0221969 12:-0.920366 13:-0.0827798 14:-0.908856 15:-0.19754 16:-0.811594 17:-0.263607 18:-0.971627 
-0 -0.20985012444434892 -0 -0 -0 -0 1:0.701315 2:-0.902143 3:0.235324 4:-0.946866 5:0.572305 6:-0.938136 7:-0.809853 8:-0.990573 9:-0.433227 10:-0.950426 11:0.142745 12:-0.807967 13:-0.302239 14:-0.900402 15:-0.161857 16:-0.940666 17:-0.187706 18:-0.986355 
-0 -0 -0 -0 -0 -1 1:0.727137 2:-0.946062 3:0.311916 4:-0.976591 5:0.710861 6:-0.960353 7:-0.825339 8:-0.992773 9:-0.451296 10:-0.968503 11:0.0704424 12:-0.842231 13:0.022133 14:-0.903423 15:-0.0661267 16:-0.969366 17:-0.276768 18:-0.995246 
-0.85095701656996603 -1 -0 -0 -0 -0 1:0.68235 2:-0.908332 3:0.283788 4:-0.957855 5:0.709456 6:-0.961109 7:-0.844446 8:-0.990207 9:-0.442989 10:-0.970702 11:-0.00954952 12:-0.740157 13:-0.0469785 14:-0.94888 15:-0.257193 16:-0.9308 17:-0.229986 18:-0.987731 
-0 -0.36253310544770706 -0.48036664651779887 -0 -1 -0 1:0.0408099 2:-0.799132 3:0.284465 4:-0.964463 5:0.00174918 6:-0.839755 7:-0.499757 8:-0.6585 9:-0.528059 10:-0.907039 11:0.357123 12:-0.110065 13:0.0315017 14:-0.889472 15:0.460944 16:-0.916062 17:-0.26988 18:-0.991478 
-1 -0.1055790112550965 -0 -0 -1 -0 1:0.696371 2:-0.937619 3:0.318195 4:-0.968644 5:0.668641 6:-0.963223 7:-0.847448 8:-0.997204 9:-0.459278 10:-0.964943 11:-0.0588776 12:-0.763309 13:0.0746471 14:-0.922473 15:-0.275412 16:-0.952777 17:-0.169928 18:-0.992791 
-1 -0 -0 -0 -0 -0 1:0.730965 2:-0.934042 3:0.257326 4:-0.972133 5:0.672068 6:-0.968121 7:-0.786316 8:-0.996671 9:-0.49557 10:-0.93494 11:0.101338 12:-0.854066 13:-0.131192 14:-0.92871 15:-0.152924 16:-0.968193 17:-0.213874 18:-0.991772 
-1 -0 -0 -0 -0 -0 1:0.609181 2:-0.93907 3:0.211798 4:-0.833549 5:0.719665 6:-0.87504 7:0.0539871 8:-0.985348 9:-0.96417 10:-0.992243 11:0.00623132 12:-0.933948 13:-0.176828 14:-0.863945 15:-0.144045 16:-0.787562 17:-0.223635 18:-0.970332 
-0 -0 -0.33913602480882749 -0 -1 -0 1:0.689213 2:-0.766326 3:0.256058 4:-0.903199 5:0.575075 6:-0.903437 7:-0.815421 8:-0.995 9:-0.47234 10:-0.929424 11:0.0323609 12:-0.75338 13:0.00266923 14:-0.747209 15:-0.506871 16:-0.875273 17:-0.243197 18:-0.95878 
-1 -0 -0 -0 -0 -0 1:0.684406 2:-0.821696 3:0.322495 4:-0.944537 5:0.775568 6:-0.926299 7:-0.802107 8:-0.991638 9:-0.51786 10:-0.978199 11:-0.0258537 12:-0.781711 13:-0.19584 14:-0.838757 15:-0.240329 16:-0.868506 17:-0.189436 18:-0.979232 
-1 -0 -0 -0 -1 -0 1:0.589895 2:-0.921615 3:0.290798 4:-0.973514 5:0.55353 6:-0.952323 7:-0.814732 8:-0.99652 9:-0.489277 10:-0.952528 11:-0.0166978 12:-0.709027 13:0.128479 14:-0.92677 15:-0.114517 16:-0.941199 17:-0.299886 18:-0.989165 
-0 -0 -0.22603184859876113 -0 -0 -0 1:-0.58958 2:-0.898998 3:0.982951 4:-0.944883 5:0.321863 6:-0.957255 7:-0.234845 8:-0.973614 9:-0.889563 10:-0.990054 11:0.119668 12:-0.943199 13:-0.0584922 14:-0.922394 15:-0.119924 16:-0.923852 17:-0.102613 18:-0.985793 
-0 -0 -0 -0 -1 -0 1:-0.435631 2:-0.829353 3:-0.00219409 4:-0.939621 5:-0.756235 6:-0.850813 7:-0.270007 8:-0.844341 9:-0.355394 10:-0.870387 11:0.813692 12:-0.84683 13:-0.219401 14:-0.789092 15:-0.113811 16:-0.904386 17:-0.260766 18:-0.984653 
-1 -0 -0 -0 -0 -0 1:0.71185 2:-0.843726 3:0.332907 4:-0.949852 5:0.738585 6:-0.94688 7:-0.818806 8:-0.990106 9:-0.491315 10:-0.986229 11:-0.00671405 12:-0.820056 13:-0.171932 14:-0.839266 15:-0.184732 16:-0.87903 17:-0.321976 18:-0.98007 
-1 -0 -0 -0 -0 -0 1:0.681843 2:-0.884325 3:0.329624 4:-0.941772 5:0.674138 6:-0.944968 7:-0.831334 8:-0.99626 9:-0.469988 10:-0.961197 11:0.00857102 12:-0.854544 13:-0.193127 14:-0.87941 15:-0.177054 16:-0.962515 17:-0.175113 18:-0.989763 
-1 -0 -0 -0 -0 -0 1:0.657959 2:-0.874451 3:0.35029 4:-0.935672 5:0.719606 6:-0.942665 7:-0.819545 8:-0.992605 9:-0.50075 10:-0.978194 11:-0.054351 12:-0.76672 13:-0.0582662 14:-0.907647 15:-0.0898913 16:-0.922638 17:-0.207355 18:-0.987306 
-1 -0 -0 -0 -0 -0 1:0.678335 2:-0.83124 3:0.257606 4:-0.918894 5:0.780074 6:-0.919253 7:-0.832833 8:-0.994969 9:-0.463693 10:-0.954562 11:0.010249 12:-0.829788 13:-0.417982 14:-0.820948 15:-0.11154 16:-0.920792 17:-0.307362 18:-0.976798 
-1 -0 -0 -0 -0 -0 1:0.719988 2:-0.916733 3:0.273429 4:-0.97055 5:0.672154 6:-0.939586 7:-0.817241 8:-0.998137 9:-0.478072 10:-0.949225 11:0.0534658 12:-0.904678 13:-0.0323482 14:-0.915554 15:-0.0895387 16:-0.973567 17:-0.212831 18:-0.990089 
-1 -0 -0 -0 -1 -0 1:0.678974 2:-0.94651 3:0.322396 4:-0.965397 5:0.755175 6:-0.957329 7:-0.799289 8:-0.995925 9:-0.529439 10:-0.952723 11:-0.109023 12:-0.623606 13:-0.222224 14:-0.92199 15:-0.0473324 16:-0.955255 17:-0.21396 18:-0.990611 
-0 -0 -0 -0 -1 -0 1:0.593963 2:-0.935067 3:0.326226 4:-0.972132 5:0.6223 6:-0.948036 7:-0.785183 8:-0.989275 9:-0.49489 10:-0.934247 11:0.0353036 12:-0.557565 13:-0.235657 14:-0.919138 15:0.00610763 16:-0.945692 17:-0.205083 18:-0.990793 
-1 -0 -0 -0 -0 -0 1:0.697714 2:-0.782547 3:0.307513 4:-0.9203 5:0.777467 6:-0.919569 7:-0.833003 8:-0.995622 9:-0.478645 10:-0.953056 11:-0.0572211 12:-0.746309 13:-0.138199 14:-0.814592 15:-0.100655 16:-0.926051 17:-0.133056 18:-0.973127 
-1 -0 -0 -0 -0 -0 1:0.650882 2:-0.83891 3:0.213431 4:-0.948545 5:0.666483 6:-0.938686 7:-0.840729 8:-0.997202 9:-0.480659 10:-0.94753 11:-0.0978907 12:-0.767801 13:-0.034878 14:-0.819325 15:-0.0195923 16:-0.863749 17:-0.19545 18:-0.979007 
-0 -0.59907005545879422 -0 -0 -1 -0 1:0.711447 2:-0.874805 3:0.309638 4:-0.937556 5:0.76502 6:-0.895391 7:-0.821088 8:-0.992347 9:-0.456087 10:-0.95683 11:0.0559767 12:-0.768802 13:-0.375135 14:-0.787456 15:-0.260837 16:-0.923068 17:-0.236796 18:-0.985182 
-0 -0 -0 -0 -0 -0.64320019523100436 1:0.665427 2:-0.933722 3:0.320514 4:-0.968994 5:0.710416 6:-0.967156 7:-0.826945 8:-0.997775 9:-0.469648 10:-0.969238 11:0.0429936 12:-0.912428 13:0.180176 14:-0.93429 15:-0.178792 16:-0.974547 17:-0.210901 18:-0.994043 
-1 -0 -0 -0 -0 -0 1:0.723165 2:-0.900825 3:0.355873 4:-0.952916 5:0.727869 6:-0.940774 7:-0.814717 8:-0.995358 9:-0.512125 10:-0.985649 11:-0.0586697 12:-0.788536 13:-0.0792064 14:-0.913176 15:-0.20578 16:-0.893147 17:-0.202734 18:-0.9879 
-1 -0 -0 -0 -0 -0 1:0.732169 2:-0.808391 3:0.338117 4:-0.94318 5:0.834392 6:-0.888575 7:-0.800251 8:-0.996363 9:-0.524356 10:-0.960158 11:-0.0319705 12:-0.803187 13:-0.144865 14:-0.800846 15:0.00490701 16:-0.913075 17:-0.194038 18:-0.9822 
-1 -0 -0 -0 -0 -0 1:0.311752 2:-0.977973 3:0.258818 4:-0.901722 5:0.518469 6:-0.935373 7:0.18652 8:-0.980323 9:-0.959531 10:-0.981933 11:-0.0191354 12:-0.860489 13:-0.150626 14:-0.884344 15:-0.0167503 16:-0.774733 17:-0.27039 18:-0.985991 
-0 -0.50428040106463345 -0.31831759670917026 -0 -0.036050123059321634 -0 1:-0.598092 2:-0.933344 3:-0.0963231 4:-0.832097 5:0.567739 6:-0.903266 7:0.608479 8:-0.961172 9:-0.79077 10:-0.954656 11:0.127875 12:-0.899599 13:-0.142801 14:-0.869753 15:0.00442004 16:-0.798137 17:-0.272634 18:-0.960402 
-1 -0 -0 -0 -0 -0 1:0.680059 2:-0.911884 3:0.329169 4:-0.9542 5:0.720278 6:-0.89878 7:-0.811585 8:-0.998065 9:-0.496148 10:-0.950101 11:-0.00785588 12:-0.761215 13:-0.246796 14:-0.750004 15:-0.0355529 16:-0.912607 17:-0.222651 18:-0.987437 
-1 -0 -0 -0 -0 -0 1:0.476885 2:-0.951848 3:0.276953 4:-0.878654 5:0.665479 6:-0.932688 7:0.0878595 8:-0.973238 9:-0.962283 10:-0.994986 11:0.020548 12:-0.974251 13:-0.181969 14:-0.915297 15:-0.0620043 16:-0.831806 17:-0.184341 18:-0.977652 
-0.4651912287010993 -0 -0 -0 -0 -0 1:0.705031 2:-0.956289 3:0.294546 4:-0.81971 5:0.854297 6:-0.925166 7:0.0127742 8:-0.983322 9:-0.971993 10:-0.990467 11:-0.0571665 12:-0.90231 13:-0.103735 14:-0.918402 15:-0.146421 16:-0.753106 17:-0.254538 18:-0.978207 
-1 -0 -0 -0 -0 -0 1:0.612792 2:-0.874774 3:0.274646 4:-0.933839 5:0.791862 6:-0.930949 7:-0.807048 8:-0.997552 9:-0.515446 10:-0.959663 11:-0.034755 12:-0.796751 13:-0.191583 14:-0.876475 15:-0.0240715 16:-0.930002 17:-0.272384 18:-0.981437 
-0 -0.072462588080764376 -0 -0 -0 -0.0039484716486950407 1:-0.642295 2:-0.927749 3:-0.058118 4:-0.835047 5:0.591859 6:-0.906705 7:0.579533 8:-0.506036 9:-0.730919 10:-0.890101 11:0.139211 12:-0.911348 13:-0.151026 14:-0.874897 15:-0.336161 16:-0.80989 17:-0.239501 18:-0.966749 
-1 -0 -0 -1 -0 -0 1:0.681022 2:-0.963304 3:0.276189 4:-0.724256 5:0.775288 6:-0.953818 7:0.0607225 8:-0.976527 9:-0.974488 10:-0.992358 11:-0.107175 12:-0.787954 13:-0.099786 14:-0.94064 15:-0.0537049 16:-0.813283 17:-0.201222 18:-0.978817 
-0.47518154057675499 -0.32369490547301455 -0.27427724974281348 -0 -0.91037768731078306 -0 1:0.252005 2:-0.696544 3:0.355426 4:-0.937472 5:0.83163 6:-0.883088 7:-0.458299 8:0.318131 9:-0.586195 10:-0.3895 11:-0.0400809 12:-0.833143 13:0.243703 14:-0.672091 15:-0.0568702 16:-0.892106 17:-0.2883 18:-0.982423 
-0 -0 -0 -0.86427520102903943 -0 -0 1:0.41637 2:-0.962783 3:0.313995 4:-0.924977 5:0.639458 6:-0.953867 7:0.178736 8:-0.9413 9:-0.944376 10:-0.981134 11:0.0603697 12:-0.969952 13:-0.130768 14:-0.953329 15:0.13224 16:-0.844944 17:-0.285286 18:-0.9803 
-1 -0 -0 -0 -0 -0 1:0.59203 2:-0.955365 3:0.245627 4:-0.92474 5:0.690882 6:-0.857932 7:0.101356 8:-0.961448 9:-0.965389 10:-0.982816 11:-0.0642033 12:-0.777658 13:-0.18636 14:-0.805959 15:0.123487 16:-0.672291 17:-0.336876 18:-0.977568 
-0 -0.30556353964725064 -0.32999414265846932 -0 -0.55604145490934731 -0.062897860307990494 1:-1 2:-0.918745 3:0.450565 4:-0.917791 5:0.599062 6:-0.925492 7:0.282735 8:-0.944773 9:-0.898667 10:-0.975224 11:0.160184 12:-0.893881 13:-0.000971506 14:-0.865735 15:-0.0467489 16:-0.890637 17:-0.0575012 18:-0.936386 
-1 -0 -0.47181945299399813 -0 -0 -0 1:0.765257 2:-0.925036 3:0.162441 4:-0.777091 5:0.763464 6:-0.819023 7:0.00832344 8:-0.981148 9:-0.972844 10:-0.991395 11:-0.071949 12:-0.883697 13:-0.0287652 14:-0.81368 15:-0.504377 16:-0.517112 17:-0.0759483 18:-0.954843 
-1 -0 -0 -1 -0 -0 1:0.556657 2:-0.9802 3:0.315074 4:-0.973239 5:0.637405 6:-0.873393 7:0.0696623 8:-0.984279 9:-0.970725 10:-0.990838 11:-0.0695692 12:-0.80109 13:-0.204564 14:-0.831379 15:-0.311766 16:-0.809572 17:-0.201277 18:-0.991932 
-0 -0.9199296537237146 -0.81099800338933137 -0.17468352528364303 -0.29018509273933157 -0.27720485600025047 1:0.0506914 2:-0.781915 3:0.104887 4:-0.871661 5:0.776372 6:-0.948902 7:-0.123002 8:1 9:-0.607901 10:-0.792739 11:0.0742062 12:-0.795647 13:-0.0334928 14:-0.894359 15:-0.629271 16:-0.90897 17:-0.11862 18:-0.944389 
-0 -0 -0 -1 -0 -0 1:0.746876 2:-0.934973 3:0.310615 4:-0.868514 5:0.895512 6:-0.909846 7:0.040786 8:-0.982339 9:-0.974151 10:-0.988945 11:-0.0731866 12:-0.872795 13:-0.112666 14:-0.912843 15:0.0976442 16:-0.78878 17:-0.276472 18:-0.975866 
-0 -0 -0 -0 -1 -0 1:0.621301 2:-0.852017 3:0.259626 4:-0.953588 5:0.769747 6:-0.93475 7:-0.827125 8:-0.995317 9:-0.458486 10:-0.922739 11:-0.0222053 12:-0.594912 13:-0.209806 14:-0.857276 15:-0.18288 16:-0.895885 17:-0.162516 18:-0.97913 
-0.26443710512984592 -0 -0 -0 -0.80039191120994035 -0 1:-0.377927 2:-0.915507 3:0.0138471 4:-0.96254 5:-0.753138 6:-0.971898 7:-0.315025 8:-0.870935 9:-0.380045 10:-0.881347 11:0.791894 12:-0.986883 13:0.0874161 14:-0.936464 15:0.0680108 16:-0.951824 17:-0.204878 18:-0.991146 
-1 -0 -0 -0.49007771928389871 -0 -0 1:0.710214 2:-0.955759 3:0.321819 4:-0.812808 5:0.850097 6:-0.88039 7:0.034405 8:-0.986056 9:-0.977241 10:-0.991719 11:-0.0890545 12:-0.880436 13:-0.112699 14:-0.819291 15:-0.196448 16:-0.820702 17:-0.228797 18:-0.97742 
-0 -0 -0 -0 -1 -0 1:0.660529 2:-0.905402 3:0.358173 4:-0.936346 5:0.748373 6:-0.911215 7:-0.816077 8:-0.993512 9:-0.473691 10:-0.943305 11:0.0247744 12:-0.741094 13:-0.386442 14:-0.832539 15:-0.156908 16:-0.925859 17:-0.254105 18:-0.989083 
-1 -0 -0 -0 -0 -0 1:0.640313 2:-0.940105 3:0.332044 4:-0.960934 5:0.638465 6:-0.96752 7:-0.841824 8:-0.993111 9:-0.460285 10:-0.966893 11:-0.0390691 12:-0.757228 13:-0.0508789 14:-0.939321 15:-0.314109 16:-0.961664 17:-0.176902 18:-0.993793 
-1 -0 -0 -0 -1 -0 1:0.70281 2:-0.944324 3:0.317666 4:-0.96789 5:0.678828 6:-0.962841 7:-0.822572 8:-0.996561 9:-0.487722 10:-0.957879 11:-0.0547993 12:-0.681558 13:0.00392931 14:-0.929663 15:0.00470971 16:-0.911398 17:-0.192786 18:-0.990735 
-0 -0.18526405470896548 -0.21000359172104724 -0 -0.88818731256677708 -0 1:-0.701077 2:-0.772494 3:0.310735 4:-0.930292 5:0.695321 6:-0.909297 7:0.151702 8:-0.0330613 9:-0.790992 10:-0.325191 11:0.0516627 12:-0.819142 13:-0.066851 14:-0.790157 15:-0.00839212 16:-0.888067 17:-0.178159 18:-0.976221 
-1 -0 -0 -0 -0 -0 1:0.655252 2:-0.953639 3:0.250889 4:-0.812107 5:0.760688 6:-0.870024 7:0.0223025 8:-0.990748 9:-0.974766 10:-0.995557 11:-0.0672666 12:-0.893378 13:0.315715 14:-0.842689 15:-0.534523 16:-0.775158 17:-0.141292 18:-0.9743 
-1 -1 -0 -0 -0 -0 1:0.730481 2:-0.913401 3:0.332308 4:-0.958635 5:0.886173 6:-0.952203 7:-0.82633 8:-0.997423 9:-0.482467 10:-0.948543 11:-0.0223679 12:-0.795292 13:-0.191891 14:-0.917245 15:-0.051841 16:-0.906977 17:-0.304639 18:-0.984811 
-1 -0 -0 -0 -0 -0.51773101799712262 1:0.766644 2:-0.839279 3:0.366015 4:-0.938598 5:0.878331 6:-0.9525 7:-0.823186 8:-0.99696 9:-0.499421 10:-0.98931 11:-0.0221841 12:-0.896008 13:-0.234392 14:-0.898129 15:-0.0977583 16:-0.953204 17:-0.234215 18:-0.990086 
-0 -0 -0 -0 -1 -0 1:-0.0531592 2:-0.78912 3:0.587419 4:-0.91897 5:0.380622 6:-0.904278 7:-0.472348 8:-0.669459 9:-0.630345 10:-0.754276 11:0.276398 12:-0.547306 13:0.0878875 14:-0.848099 15:-0.353998 16:-0.934731 17:-0.176083 18:-0.984882 
-1 -0 -0 -0 -0 -0 1:0.641528 2:-0.825702 3:0.361217 4:-0.946598 5:0.746488 6:-0.944439 7:-0.795396 8:-0.99148 9:-0.539358 10:-0.983457 11:-0.0652263 12:-0.786753 13:-0.186731 14:-0.904433 15:-0.198912 16:-0.906939 17:-0.231188 18:-0.977962 
-0 -0 -0 -0 -0 -1 1:0.686667 2:-0.89526 3:0.283078 4:-0.944664 5:0.628147 6:-0.971662 7:-0.822389 8:-0.992858 9:-0.429512 10:-0.950946 11:0.120233 12:-0.841465 13:-0.0818709 14:-0.938032 15:-0.0475045 16:-0.955188 17:-0.293053 18:-0.979842 
-1 -0 -0 -0 -0 -0 1:0.63101 2:-0.912875 3:0.328836 4:-0.957393 5:0.667167 6:-0.963411 7:-0.829016 8:-0.992727 9:-0.472254 10:-0.959391 11:-0.0139908 12:-0.768501 13:-0.0102874 14:-0.930878 15:-0.0185932 16:-0.965056 17:-0.249075 18:-0.991586 
-0 -0 -0 -0 -1 -0 1:0.460691 2:-0.813633 3:0.184614 4:-0.879128 5:0.244787 6:-0.771823 7:-0.599221 8:-0.840913 9:-0.450548 10:-0.878003 11:0.430532 12:-0.54338 13:-0.00638211 14:-0.761556 15:-0.137114 16:-0.821637 17:-0.170861 18:-0.961712 
-0 -0 -0 -0 -1 -0 1:0.56871 2:-0.857764 3:0.40608 4:-0.911456 5:0.816825 6:-0.91844 7:-0.806681 8:-0.996816 9:-0.51219 10:-0.924909 11:-0.0677674 12:-0.676694 13:-0.0463629 14:-0.865619 15:-0.0265735 16:-0.900884 17:-0.28606 18:-0.975619 
-1 -0 -0 -1 -0 -0 1:0.662788 2:-0.973808 3:0.258516 4:-0.810125 5:0.890507 6:-0.934405 7:0.00817655 8:-0.991767 9:-0.977413 10:-0.995504 11:-0.0813286 12:-0.915645 13:0.0110328 14:-0.878607 15:-0.0710299 16:-0.831601 17:-0.245264 18:-0.981 
-0.58933799412173316 -0 -0 -0 -1 -0 1:0.648415 2:-0.858865 3:0.381781 4:-0.95762 5:0.680852 6:-0.916422 7:-0.794855 8:-0.998758 9:-0.532082 10:-0.947269 11:-0.0424145 12:-0.775733 13:0.284126 14:-0.799183 15:-0.155384 16:-0.925564 17:-0.262842 18:-0.989309 
-1 -0 -0 -0 -0 -0 1:0.686333 2:-0.941871 3:0.193431 4:-0.865199 5:0.677069 6:-0.875007 7:0.0325121 8:-0.961906 9:-0.957746 10:-0.985842 11:0.0103667 12:-0.902385 13:-0.146846 14:-0.867427 15:0.146504 16:-0.71882 17:-0.248296 18:-0.969807 
-1 -0.89948619984269418 -0 -0 -0 -0 1:0.745902 2:-0.946155 3:0.377356 4:-0.968501 5:0.76334 6:-0.94265 7:-0.803801 8:-0.992805 9:-0.519815 10:-0.980361 11:-0.0514731 12:-0.739592 13:-0.0764603 14:-0.893163 15:0.173896 16:-0.921316 17:-0.255225 18:-0.997849 
-0 -0.049471837187579068 -0.0025274848502697331 -0 -0.11028659132040931 -0 1:-0.686345 2:-0.888016 3:0.499333 4:-0.958493 5:-0.623598 6:-0.908279 7:-0.201146 8:-0.956043 9:-0.565422 10:-0.905751 11:0.70753 12:-0.964112 13:-0.0874979 14:-0.803443 15:-0.150367 16:-0.943099 17:-0.180399 18:-0.988532 
-0 -0 -0 -0 -0 -0.3176969135112559 1:0.677344 2:-0.898661 3:0.326744 4:-0.95366 5:0.685279 6:-0.946539 7:-0.841072 8:-0.99428 9:-0.438043 10:-0.965855 11:0.0365753 12:-0.812629 13:-0.198374 14:-0.890151 15:-0.206985 16:-0.955987 17:-0.253468 18:-0.988913 
-0 -0 -0 -0 -0.20238905059633078 -0 1:0.659424 2:-0.817415 3:0.271064 4:-0.947432 5:0.66179 6:-0.894371 7:-0.810384 8:-0.989799 9:-0.446698 10:-0.924315 11:0.10245 12:-0.756888 13:-0.0370807 14:-0.767622 15:-0.101448 16:-0.919266 17:-0.25609 18:-0.985004 
-1 -0 -0 -0 -0 -0 1:0.733455 2:-0.93243 3:0.236274 4:-0.826096 5:0.731137 6:-0.885292 7:0.013911 8:-0.990833 9:-0.974827 10:-0.995228 11:-0.055426 12:-0.939175 13:-0.0107154 14:-0.89634 15:0.166398 16:-0.699127 17:-0.222911 18:-0.968972 
-0 -0 -0 -0 -1 -0 1:0.5843 2:-0.815853 3:0.349083 4:-0.927573 5:0.763765 6:-0.93583 7:-0.802675 8:-0.995694 9:-0.510755 10:-0.930108 11:-0.0371176 12:-0.697747 13:0.0132211 14:-0.827488 15:-0.349938 16:-0.90133 17:-0.170092 18:-0.979627 
-1 -0 -0 -0 -0 -0 1:0.665323 2:-0.953103 3:0.317688 4:-0.868605 5:0.83297 6:-0.897617 7:0.0130947 8:-0.976514 9:-0.967722 10:-0.986349 11:-0.0365343 12:-0.906108 13:-0.180575 14:-0.892708 15:-0.0298311 16:-0.815316 17:-0.213979 18:-0.971221 
-0 -0 -0.10608996134822947 -0 -0 -0 1:0.745761 2:-0.824646 3:0.336051 4:-0.927215 5:0.690891 6:-0.88494 7:-0.808477 8:-0.995838 9:-0.483246 10:-0.959801 11:0.0602179 12:-0.853551 13:-0.435378 14:-0.744139 15:-0.191612 16:-0.908212 17:-0.178414 18:-0.982974 
-1 -0 -0 -0.52599744746446897 -0 -0 1:0.702628 2:-0.960887 3:0.287831 4:-0.874383 5:0.81586 6:-0.908509 7:0.027396 8:-0.987402 9:-0.97213 10:-0.988394 11:-0.0563976 12:-0.884217 13:-0.0902152 14:-0.915148 15:0.0691358 16:-0.786527 17:-0.21641 18:-0.979525 
-1 -0 -0 -0 -1 -0 1:0.674219 2:-0.900134 3:0.298207 4:-0.952538 5:0.63693 6:-0.95713 7:-0.83206 8:-0.99509 9:-0.476022 10:-0.943653 11:-0.0679181 12:-0.680879 13:0.0909895 14:-0.899147 15:0.0312534 16:-0.886805 17:-0.177635 18:-0.965517 
-0 -0.28087011943304002 -0 -0 -1 -0 1:0.223583 2:-0.770727 3:0.14787 4:-0.950175 5:-0.0374931 6:-0.77973 7:-0.580623 8:-0.745464 9:-0.426842 10:-0.786841 11:0.396046 12:-0.117471 13:0.0472045 14:-0.822224 15:-0.0255366 16:-0.931171 17:-0.231128 18:-0.980976 
-1 -0 -0 -0 -0 -0 1:0.636457 2:-0.826898 3:0.345217 4:-0.938134 5:0.610754 6:-0.91482 7:-0.830321 8:-0.996839 9:-0.481234 10:-0.979693 11:-0.0157042 12:-0.848728 13:-0.00743537 14:-0.804807 15:-0.320196 16:-0.869907 17:-0.216155 18:-0.975518 
-1 -0 -0 -0 -0 -0 1:0.807202 2:-0.939596 3:0.299875 4:-0.846421 5:0.90015 6:-0.845213 7:-0.014257 8:-0.98915 9:-0.977528 10:-0.994689 11:-0.100962 12:-0.902554 13:-0.128825 14:-0.848014 15:-0.179606 16:-0.665294 17:-0.274096 18:-0.963956 
-0 -0 -0 -0 -1 -0 1:0.643211 2:-0.88142 3:0.365586 4:-0.949783 5:0.652662 6:-0.934584 7:-0.83257 8:-0.997115 9:-0.45877 10:-0.90968 11:-0.00155965 12:-0.757267 13:-0.130374 14:-0.908248 15:0.0548334 16:-0.949313 17:-0.322513 18:-0.981034 
-1 -0 -0 -0 -1 -0 1:0.685087 2:-0.888959 3:0.340734 4:-0.928603 5:0.748637 6:-0.897402 7:-0.793959 8:-0.996465 9:-0.534166 10:-0.944468 11:-0.0944616 12:-0.638749 13:-0.125218 14:-0.839146 15:0.00569623 16:-0.882545 17:-0.208502 18:-0.973887 
-1 -0 -0.085693944173037634 -0 -0 -0 1:0.743999 2:-0.937527 3:0.238882 4:-0.81649 5:0.74258 6:-0.789713 7:-0.00762567 8:-0.992834 9:-0.978322 10:-0.995205 11:-0.0953288 12:-0.91335 13:-0.0255765 14:-0.810181 15:0.106128 16:-0.57826 17:-0.293139 18:-0.95839 
-1 -0 -0 -0 -0 -0 1:0.755304 2:-0.938802 3:0.242306 4:-0.821556 5:0.825199 6:-0.756562 7:0.00437819 8:-0.985881 9:-0.971428 10:-0.991125 11:-0.0669975 12:-0.865842 13:-0.187154 14:-0.824855 15:-0.13067 16:-0.701135 17:-0.231734 18:-0.966882 
-1 -0 -0 -0 -0 -0 1:0.687593 2:-0.890046 3:0.367713 4:-0.961368 5:0.5519 6:-0.956552 7:-0.815652 8:-0.996977 9:-0.48431 10:-0.933937 11:-0.0122644 12:-0.698863 13:-0.127431 14:-0.91856 15:-0.0914698 16:-0.909664 17:-0.206289 18:-0.973512 
-1 -0 -0 -0 -0 -0 1:0.602384 2:-0.938044 3:0.188272 4:-0.875407 5:0.741795 6:-0.885959 7:0.0222474 8:-0.971883 9:-0.962018 10:-0.988793 11:-0.00429403 12:-0.911242 13:-0.0512204 14:-0.879877 15:-0.393152 16:-0.753486 17:-0.253049 18:-0.962644 
-1 -0 -0 -0 -1 -0 1:0.680855 2:-0.902749 3:0.316728 4:-0.942819 5:0.814551 6:-0.948396 7:-0.772794 8:-0.989352 9:-0.54419 10:-0.915727 11:-0.0127943 12:-0.732639 13:-0.210278 14:-0.87934 15:0.0531794 16:-0.940208 17:-0.171981 18:-0.95403 
-1 -0 -0 -0 -0 -0 1:0.691669 2:-0.907323 3:0.364177 4:-0.954436 5:0.770204 6:-0.952004 7:-0.802384 8:-0.99461 9:-0.516424 10:-0.959059 11:-0.036369 12:-0.740264 13:-0.151824 14:-0.910937 15:-0.153012 16:-0.951674 17:-0.202351 18:-0.988691 
-1 -0 -0 -0 -0 -0 1:0.672397 2:-0.896158 3:0.339105 4:-0.941357 5:0.820782 6:-0.947178 7:-0.82518 8:-0.996514 9:-0.505621 10:-0.98571 11:-0.0513683 12:-0.897278 13:-0.0821402 14:-0.912678 15:-0.240905 16:-0.953894 17:-0.228866 18:-0.991044 
-1 -0 -0 -0.24889782279430658 -0 -0 1:0.809314 2:-0.933311 3:0.298493 4:-0.825395 5:0.744119 6:-0.918088 7:0.0137791 8:-0.983472 9:-0.968513 10:-0.990806 11:-0.0398983 12:-0.890209 13:-0.0431694 14:-0.91126 15:-0.198929 16:-0.757295 17:-0.290808 18:-0.968622 
-1 -0 -0 -0 -0.53784438772581844 -0 1:0.741975 2:-0.926293 3:0.186752 4:-0.823652 5:0.906894 6:-0.747113 7:0.0372692 8:-0.979965 9:-0.974176 10:-0.991926 11:-0.14395 12:-0.700701 13:-0.104528 14:-0.690562 15:-0.0940767 16:-0.6132 17:-0.138592 18:-0.94938 
-1 -0 -0 -0 -0 -0 1:0.724698 2:-0.888904 3:0.27197 4:-0.957 5:0.691775 6:-0.950315 7:-0.752182 8:-0.990178 9:-0.536264 10:-0.890376 11:0.0963956 12:-0.82028 13:0.0250379 14:-0.881978 15:-0.12944 16:-0.964593 17:-0.152432 18:-0.973889 
-0 -0 -0 -0 -0.41495895219890266 -0 1:0.550903 2:-0.88341 3:0.178818 4:-0.941293 5:0.218887 6:-0.917755 7:-0.735165 8:-0.979567 9:-0.401643 10:-0.900565 11:0.344065 12:-0.787599 13:-0.348486 14:-0.766537 15:-0.295667 16:-0.914029 17:-0.207468 18:-0.978646 
-1 -0 -0 -0 -0 -0 1:0.675708 2:-0.923919 3:0.331124 4:-0.954434 5:0.762945 6:-0.960946 7:-0.819088 8:-0.99172 9:-0.513157 10:-0.9913 11:-0.0809562 12:-0.804116 13:-0.178401 14:-0.921915 15:-0.336639 16:-0.909143 17:-0.228406 18:-0.99419 
-1 -0 -0 -0 -0 -0 1:0.696314 2:-0.869338 3:0.29205 4:-0.934222 5:0.568332 6:-0.945424 7:-0.810728 8:-0.986278 9:-0.486594 10:-0.97891 11:0.0229826 12:-0.777351 13:-0.126204 14:-0.8601 15:-0.189198 16:-0.88469 17:-0.17097 18:-0.965621 
-1 -0 -0 -0 -0 -0 1:0.685657 2:-0.840794 3:0.337906 4:-0.940631 5:0.709348 6:-0.940796 7:-0.833907 8:-0.991369 9:-0.471026 10:-0.96969 11:-0.033798 12:-0.759691 13:-0.35419 14:-0.891892 15:-0.210159 16:-0.920455 17:-0.163723 18:-0.986842 
