svm_type c_svc
kernel_type rbf
gamma 0.5
nr_class 7
total_sv 576
rho 0.035889015083852852 0.1312968501959216 -0.42224370038345771 0.057022071689290403 -0.21645077980799288 0.21305939263654725 0.10611643466402056 -0.50556683528646384 -0.0066865105717880974 -0.24631084733208558 0.11274483540754657 -0.52300844932973278 0.018831352435662911 -0.35397916735558954 0.11015227090676047 0.45709469781016587 0.24614675696163851 0.54991677124131444 -0.26352006782074794 0.13252142011889667 0.36319085441360049
label 1 0 2 3 5 4 6
nr_sv 96 33 161 30 107 28 121
SV
0 0 0 0.56489786550167442 0 0 1:0.53537083 2:0.43145253 3:0.56640905 4:-0.70753378 5:-0.53031733 6:-0.37928083 7:0.51386279 8:-0.91622087 9:-0.52603581 10:-0.75015686 11:-0.96758511 12:-0.0111164 13:-0.57295503 14:-0.49107462 15:-0.61213516 16:-0.04524844 17:-0.68075407 18:-0.75736322 
0 0 0 0 0 0.24069734899076561 1:0.54738284 2:0.36633923 3:0.85217391 4:0.092005919 5:-0.67085172 6:-0.57978543 7:-0.92366954 8:0.79943336 9:-0.64839367 10:-0.95000624 11:-0.73454762 12:-0.47655078 13:0.43690412 14:-0.59772865 15:0.090837913 16:-0.13499289 17:-0.92193167 18:-0.63585784 
0.48833942582127932 0.5070309048744388 0.1398777760886489 0.4765188857741679 0.22661601088635877 0.2123420230373628 1:0.43586119 2:0.097297056 3:0.21582082 4:-0.58775465 5:-0.60052531 6:-0.70559973 7:0.58353424 8:-0.84641612 9:0.004902803 10:-0.71686284 11:-0.91481684 12:0.15276664 13:0.74386512 14:-0.24632187 15:0.16798901 16:0.10479663 17:-0.78901555 18:-0.56992116 
0.47957020939220113 0.17376397290752899 0.207926110579637 0.48785442520446065 0.39225800794182347 0.62534990043823813 1:0.32957179 2:0.32436898 3:0.84639191 4:0.15937365 5:-0.53717891 6:-0.86447826 7:-0.90662699 8:0.74853355 9:-0.82777466 10:-0.91123705 11:-0.64157032 12:-0.4184663 13:0.66510023 14:-0.42187768 15:0.33410038 16:0.9553221 17:-0.67106738 18:-0.43467741 
0.0571886182199653 0.86612406014338494 0 0 0 0 1:0.388738 2:0.26836807 3:0.57777358 4:-0.3337427 5:-0.14201882 6:-0.67876527 7:0.49876531 8:-0.91100473 9:-0.46434651 10:-0.75097385 11:-0.97985441 12:-0.38456308 13:-0.71110508 14:-0.45725292 15:-0.72575246 16:-0.37474531 17:-0.65842545 18:-0.78180887 
0.38386315661500719 0.38498776585252276 0.2612779345521829 0.32673735876792087 0.28203411031554443 0.077224148077702656 1:0.48369518 2:0.010324996 3:0.6250111 4:0.88447204 5:-0.09763679 6:-0.48844316 7:-0.93367913 8:0.80743561 9:-0.72049501 10:-0.96613389 11:-0.74245166 12:-0.59608243 13:-0.3446506 14:0.63961346 15:-0.62749188 16:-0.60285225 17:-0.55776873 18:-0.73811559 
0.02518940141906114 0.22293038500919252 0.045313613322210636 0.022014987302504018 0.30747329307774429 0 1:0.035009663 2:0.97240975 3:0.87948358 4:-0.55607803 5:-0.90632017 6:-0.80893257 7:-0.89925674 8:0.71575076 9:-0.82859585 10:-0.95527735 11:-0.74742754 12:-0.51910192 13:0.131487 14:0.42433235 15:-0.29830532 16:-0.42133082 17:-0.78728109 18:-0.65011826 
0.32696415770934761 0.30195140575915869 0.2075227282192102 0.29134502480077135 0.21145645865999094 0.37797839572511155 1:-0.21768659 2:-0.27030822 3:0.20179543 4:-0.17938539 5:-0.79994721 6:-0.66348598 7:0.82225559 8:-0.94674861 9:-0.13141096 10:-0.76952567 11:-0.90880434 12:0.91286371 13:0.40375138 14:0.65486971 15:0.18842734 16:-0.17354152 17:-0.25420747 18:-0.58248796 
0.8311927519872726 1 0.42265347690582955 0.932726549608065 0.64253257084294857 1 1:0.5048065 2:-0.30017718 3:0.59048433 4:0.26162181 5:-0.50218039 6:-0.71074629 7:-0.95894537 8:0.93483766 9:-0.46354524 10:-0.91625289 11:-0.61150438 12:-0.58495402 13:0.31660345 14:-0.29132944 15:0.91819874 16:-0.26293815 17:-0.56504336 18:1 
0 0 0.11594343147524046 0.15401198553768727 0 0 1:0.62072615 2:0.39391085 3:0.65838122 4:-0.76315591 5:-0.35667979 6:-0.77918288 7:0.56404916 8:-0.8955557 9:-0.24168778 10:-0.78309836 11:-0.97035385 12:0.12663174 13:-0.32216956 14:-0.12361925 15:-0.5252363 16:-0.43980225 17:-0.50915909 18:-0.86233359 
0 0 0 0 0 0.061820103909214316 1:0.34872924 2:0.31550429 3:0.62723778 4:0.95970422 5:-0.64054559 6:-0.79251391 7:-0.91675343 8:0.80420553 9:-0.50700145 10:-0.9606003 11:-0.6864263 12:-0.63176101 13:0.42272482 14:-0.063914744 15:-0.067027803 16:-0.46654484 17:-0.67026939 18:-0.34091562 
0 0 0 0.35110785091211039 0.1850770878345227 0 1:0.87718005 2:0.17290801 3:0.73731243 4:-0.45597394 5:-0.67566919 6:-0.7107172 7:0.46803351 8:-0.88112863 9:-0.45995555 10:-0.7186755 11:-0.97761536 12:0.11161843 13:0.45104279 14:0.11303927 15:0.16105371 16:-0.14105236 17:-0.71682203 18:-0.52060693 
0 0 0 0 0 0.62115926752564887 1:0.65214763 2:-0.053623475 3:0.45019576 4:0.56099281 5:-0.5877936 6:-0.75071799 7:-0.95940029 8:0.93500124 9:-0.42208153 10:-0.98656957 11:-0.72055367 12:-0.53111464 13:-0.0046451914 14:0.18419374 15:-0.23748572 16:-0.8044365 17:-0.66325941 18:-0.5693807 
0.42006875945745925 0.40178424373991212 0.28352923622084453 0.46845325474292482 0.27147047443933053 0.43263351324359606 1:-1 2:-0.70162735 3:-0.68871995 4:-0.88269587 5:-0.91641681 6:-0.72164955 7:0.99161673 8:-0.79770208 9:0.56230218 10:-0.71222228 11:-0.79963517 12:0.15600419 13:0.11002166 14:0.54639799 15:-0.12621748 16:-0.14924027 17:-0.62534063 18:-0.60174361 
0 0 0 0 0 1 1:0.70317137 2:-0.34463136 3:0.79987348 4:0.23975063 5:-0.46643788 6:-0.68468494 7:-1 8:1 9:-0.58883993 10:-0.97601336 11:-0.74043636 12:-0.70902092 13:-0.021817438 14:-0.014992149 15:-0.14053548 16:-0.6256406 17:-0.78301957 18:-0.65382411 
0.6675360141007024 0.7784268819841248 0.35749439808631495 0.7001175254228218 0.51825820291606828 0.80737362517351074 1:-0.66416258 2:-0.97502242 3:-0.8474218 4:-0.53997275 5:-0.92189802 6:-0.79388651 7:0.98027853 8:-0.68078709 9:0.83405428 10:-0.7484581 11:-0.76800718 12:0.24624441 13:0.86264897 14:-0.017757542 15:0.15766596 16:-0.17701918 17:-0.92637297 18:-0.60719854 
0 0 0 0 0.033953195004340658 0 1:0.33143274 2:0.45844695 3:0.83319856 4:-0.076594025 5:-0.79697303 6:-0.59890055 7:-0.92397356 8:0.78435746 9:-0.80908742 10:-0.9317907 11:-0.68973998 12:-0.49595041 13:0.51203954 14:-0.53676572 15:0.39164409 16:-0.54876931 17:-0.61907246 18:-0.6199612 
0.16769833982880461 0.10067597097999853 0 0.041584598578436195 0.0066334345982162844 0 1:0.23158267 2:0.63216893 3:0.78029679 4:0.40468643 5:-0.66640558 6:-0.72593542 7:-0.91799412 8:0.77392722 9:-0.66270095 10:-0.96488037 11:-0.76531575 12:-0.61308366 13:-1 14:0.58753708 15:-0.8921994 16:-0.50714158 17:-0.78136624 18:-0.69984176 
0.41610952109085836 0.50223359055681793 0.21572439985312372 0.38397091718736232 0.35446687028381785 0.37690038525325198 1:0.54692825 2:-0.32230266 3:0.54448049 4:-0.024076844 5:-0.35766859 6:-0.2092522 7:0.53974462 8:-0.85969276 9:-0.2972283 10:-0.54744999 11:-0.87177281 12:0.94636728 13:0.67051732 14:0.57467339 15:0.68033749 16:0.55508107 17:0.17303929 18:-0.051091155 
0.24898888434483482 0.088835015584669982 0.034090748282392239 0.28179842275252676 0.10833707911590179 0 1:0.61313864 2:0.28440683 3:0.55685916 4:-0.3170518 5:0.40055595 6:-0.76702331 7:0.50560368 8:-0.88400116 9:-0.3398933 10:-0.74230562 11:-0.96554217 12:0.075279016 13:-0.31486998 14:-0.2525673 15:-0.59903162 16:-0.42890584 17:-0.69908126 18:-0.73275605 
0 0.25553799329275856 0.10522795870178309 0 0.043865401814527395 0.054164622689569161 1:0.68696056 2:0.13525684 3:0.72889811 4:-0.13234569 5:-0.76627783 6:-0.64172846 7:0.40964489 8:-0.8470891 9:-0.43541149 10:-0.72768744 11:-0.95743152 12:0.058469079 13:0.80487539 14:0.42809202 15:0.049673625 16:0.18114168 17:-0.58664288 18:-0.44788444 
0 0.068473099995826875 0.48298978860057962 0.19967326221222007 0.30369173022764812 0 1:0.20858482 2:0.55882822 3:0.62396473 4:-0.14525901 5:-0.79090385 6:-0.81895426 7:-0.87678365 8:0.69822191 9:-0.63381914 10:-0.93935813 11:-0.65823924 12:-0.39244058 13:0.67529794 14:-0.32799416 15:0.34095576 16:-0.48991445 17:-0.83079612 18:-0.59651231 
0 0 0 0 0 0.08142113983856851 1:0.59870026 2:0.24634606 3:0.65200085 4:-0.32787572 5:-0.11406514 6:-0.81335819 7:0.51006227 8:-0.91189939 9:-0.43711174 10:-0.79770443 11:-0.98507192 12:-0.25636075 13:-0.62894095 14:-0.2592633 15:-0.62191489 16:-0.53888844 17:-0.63680965 18:-0.60186315 
0.49030328853019056 0.62461431955236013 0.33174229025048679 0.35310860855109005 0.079652653744213528 0.48484402089824463 1:-0.24861333 2:-0.081560079 3:-0.4829948 4:-0.99846753 5:-0.63106806 6:-0.7154698 7:0.90088702 8:-0.89324372 9:0.27576991 10:-0.77924389 11:-0.92289692 12:-0.22082875 13:-0.63980227 14:0.017167167 15:-0.52640285 16:-0.50637396 17:-0.58625298 18:-0.8781427 
0 0 0 0 0 1 1:0.70701733 2:-0.10207618 3:0.754166 4:-0.00018173353 5:-0.73243186 6:-0.65171007 7:-0.97455561 8:0.93154789 9:-0.53818578 10:-0.99862785 11:-0.81014307 12:-0.72501851 13:-0.04790087 14:-0.13499151 15:-0.27113945 16:-0.53395651 17:-0.72782013 18:-0.67882849 
0 0 0 0 0 0.84920635686871393 1:0.53349827 2:-0.24352975 3:0.72452842 4:-0.10673879 5:-0.6096095 6:-0.73248874 7:-0.96421938 8:0.9183242 9:-0.56161705 10:-0.95375159 11:-0.64890542 12:-0.6517597 13:0.18805525 14:-0.091615287 15:0.27932118 16:-0.28350523 17:-0.58633635 18:-0.42727379 
0.44696189421721044 0.8807809775706128 0.12374285982573484 0.5634010197678635 0.2676948664655352 0.67937653426781164 1:0.13962882 2:0.43904932 3:0.58782725 4:0.6695893 5:-0.23931283 6:-0.61447404 7:-0.85932403 8:0.67983373 9:-0.57591429 10:-0.94047119 11:-0.64824753 12:-0.10354587 13:0.52577193 14:-0.70006369 15:0.46285067 16:-0.46246873 17:-0.70267199 18:-0.4873569 
0 0 0.12857844069270313 0.28043035630901952 0 0 1:0.48402997 2:0.32651788 3:0.70185285 4:-0.74480305 5:-0.56922233 6:-0.59204271 7:0.482345 8:-0.87358046 9:-0.32410072 10:-0.87077005 11:-0.97544793 12:0.15237201 13:-0.54171181 14:0.28657541 15:-0.73409398 16:-0.3336805 17:-0.42163368 18:-0.83608269 
0 0 0 0 0 0.90059866942255029 1:0.6784226 2:0.19516626 3:0.61628602 4:-0.81976675 5:-0.25533435 6:-0.47230024 7:0.54143429 8:-0.94657179 9:-0.58929652 10:-0.78115019 11:-0.99361637 12:-0.34014472 13:-0.66221559 14:-0.42838721 15:-0.67562342 16:-0.18214357 17:-0.46128777 18:-0.90882275 
0.60265823712632394 0.69001417199801052 0.34376833874023666 0.66249075009285396 0.47300062585360053 0.91213618950156006 1:0.2846413 2:0.34415558 3:0.82677883 4:-0.28117276 5:0.23679301 6:0.85529349 7:0.50302566 8:-0.91273058 9:-0.47733757 10:-0.7622093 11:-0.99105907 12:-0.26374448 13:-0.75468583 14:0.51874406 15:-0.87874431 16:0.46072326 17:0.26222093 18:-0.56463516 
0 0 0 0.19713125508438703 0 0 1:0.75097305 2:0.12552255 3:0.42594126 4:-0.11845327 5:-0.030575605 6:-0.0040836969 7:0.27676251 8:-0.73657908 9:-0.25243089 10:-0.69093056 11:-0.88635766 12:-0.15987853 13:-0.68343715 14:-0.27916476 15:-0.59126539 16:0.016601549 17:0.38604709 18:-0.29848578 
0 0 0 0.11348705207215537 0 0 1:0.84305327 2:0.43440368 3:0.7650138 4:-0.048612766 5:-0.15145676 6:-0.70267308 7:0.477207 8:-0.88184288 9:-0.43717605 10:-0.71975842 11:-0.97397414 12:0.14531097 13:0.048334232 14:-0.12327746 15:-0.47090454 16:-0.32578032 17:-0.67790996 18:-0.63897284 
0 0 0 0.13345134583649762 0 0 1:0.71173816 2:0.4954369 3:0.7014842 4:-0.5239428 5:-0.35366043 6:-0.63913481 7:0.44187934 8:-0.85309539 9:-0.310695 10:-0.80281146 11:-0.96493618 12:-0.098164741 13:-0.13733748 14:0.034225578 15:-0.52307901 16:-0.16281949 17:-0.38478937 18:-0.74951002 
0.18839183782235547 0 0.10871364057180589 0.067066426647429594 0.13187442184853623 0.471029238951994 1:0.81209302 2:-0.13152141 3:0.72861705 4:0.74857383 5:-0.57373476 6:-0.89909719 7:-0.98453448 8:0.92648712 9:-0.72684439 10:-0.98128578 11:-0.7826167 12:-0.79838965 13:-0.40226164 14:0.093153325 15:-0.6442708 16:-0.85485424 17:-0.64463918 18:-0.6781012 
0 0.17798750840567637 0 0 0.15968796386386189 0.35173616549150205 1:0.53889291 2:0.38296252 3:0.69365187 4:-0.54382454 5:-0.48309524 6:-0.62173507 7:0.44330364 8:-0.87787105 9:-0.44457664 10:-0.76624038 11:-0.97584117 12:-0.28821618 13:-0.65258667 14:-0.11352091 15:-0.70339653 16:-0.38227996 17:-0.57300755 18:-0.69534719 
0 0.022472811285830323 0 0 0 0.0091478652199887458 1:-0.07399829 2:0.92803474 3:0.61624162 4:-0.054097696 5:-0.88753568 6:-0.59118009 7:-0.85870007 8:0.62989228 9:-0.71815498 10:-0.95374534 11:-0.72755757 12:-0.62400215 13:0.026760548 14:0.014432833 15:-0.29355928 16:-0.044298788 17:-0.57833266 18:-0.5377122 
0.21300955021367474 0.022702197747784612 0.017133857766197275 0.038795786091141767 0 0.094095815302819949 1:-0.28030857 2:-0.83918159 3:-0.66129598 4:-0.74534162 5:-0.65042077 6:-0.80876407 7:0.89659893 8:-0.69602717 9:0.78044335 10:-0.8309857 11:-0.81950879 12:0.093092033 13:0.0078548221 14:-0.43025151 15:-0.29638773 16:-0.25972552 17:-0.90637148 18:-0.95156011 
0.065650891625137764 0.32992339168708457 0.037462988276932258 0.09857886058984959 0.072161572818548764 0 1:0.50808357 2:0.49298656 3:0.57971714 4:-0.56651879 5:-0.60965441 6:-0.70821399 7:0.57452202 8:-0.96482346 9:-0.63046129 10:-0.82095991 11:-0.99728298 12:-0.24197813 13:-0.71087485 14:-0.03132039 15:-0.68631399 16:-0.52953413 17:-0.03240581 18:-0.93242924 
0 0 0 0 0 0.10161444133426928 1:0.56969731 2:-0.022510936 3:0.2650628 4:-0.34130281 5:-0.4577235 6:-0.46017734 7:0.41340454 8:-0.80498985 9:-0.14698623 10:-0.72327284 11:-0.93476862 12:-0.21866354 13:-0.65284399 14:-0.025509954 15:-0.70304498 16:-0.23542949 17:0.21584914 18:-0.55846472 
0 0.23536582817733107 0 0 0 0.050154097877619049 1:-0.24702894 2:-0.16011469 3:-0.22358052 4:-0.90493853 5:-0.20937017 6:-0.63371933 7:0.82160532 8:-0.86996958 9:0.28184526 10:-0.8266469 11:-0.93301996 12:-0.097457704 13:-0.53903034 14:-0.15671074 15:-0.53851562 16:-0.35071978 17:-0.61612341 18:-0.95791462 
0 0 0 0 0 0.47528920786463064 1:0.4772121 2:-0.15171968 3:0.80668887 4:0.62015556 5:-0.50529192 6:-0.72547861 7:-0.95606694 8:0.86248941 9:-0.77231078 10:-0.93528465 11:-0.70194295 12:-0.63230979 13:0.16235103 14:-0.40649711 15:0.087370281 16:-0.61030493 17:-0.5712519 18:-0.33577692 
0 0 0.14516927326745022 0 0 0 1:0.75080746 2:0.29997794 3:0.61470202 4:-0.48688694 5:-0.45587471 6:-0.63423639 7:0.55399947 8:-0.92648085 9:-0.54617378 10:-0.71317429 11:-0.97975182 12:0.39211696 13:0.80689327 14:-0.37756925 15:0.27783506 16:-0.11754012 17:-0.40534424 18:-0.67782062 
0.24721393078568848 0.58600328292913206 0.8997283200001075 0.8917306836493214 0.34801825751909132 0.9552347973550791 1:0.41837417 2:0.72715616 3:0.63601365 4:-0.50083619 5:-0.87233808 6:-0.9775323 7:-0.88869494 8:0.69762902 9:-0.78144795 10:-0.9502262 11:-0.75442758 12:-0.45029043 13:-0.29811756 14:0.36172261 15:-0.69807522 16:-0.8986464 17:-0.83838571 18:-0.79278815 
0.048246983169699192 0 0 0 0 0 1:0.1384639 2:-0.16787341 3:0.4278723 4:-0.63115878 5:-0.97843778 6:-0.62988776 7:0.67736226 8:-0.94015961 9:-0.30650683 10:-0.67457897 11:-0.92267129 12:0.41995661 13:0.64264625 14:0.52037534 15:0.26690477 16:0.18244663 17:-0.66287715 18:-0.58128861 
0.16853690038158958 0.42495773284922933 1 0.070490636752852109 0.2814613456949332 0.39372626574996344 1:0.70666263 2:0.22592822 3:0.62646125 4:-0.4636291 5:-0.73980909 6:-0.85487733 7:0.50488507 8:-0.88643651 9:-0.33722737 10:-0.70543982 11:-0.96550943 12:-0.11549368 13:0.0061484202 14:-0.1398698 15:-0.31155269 16:-0.39953433 17:-0.64495561 18:-0.66922566 
0 0 0 0 0 0.82032064950622086 1:0.59561182 2:0.072752389 3:0.67571815 4:-0.065215738 5:-0.67533107 6:-0.7963148 7:-0.96045319 8:0.9270594 9:-0.53475384 10:-0.96939905 11:-0.68503736 12:-0.2746578 13:0.242565 14:-0.69473487 15:0.22163363 16:-0.51667 17:-0.67454139 18:-0.45592844 
0.37987281026512049 0 0.1508638849200738 0.24824644249189526 0.016562013429128997 0.32413193010945685 1:-0.022456666 2:0.62185681 3:0.65943878 4:-0.47938414 5:-0.77759987 6:-0.66084431 7:-0.88725908 8:0.70666929 9:-0.686319 10:-0.97028208 11:-0.74756479 12:-0.39433134 13:0.29810401 14:0.40062454 15:0.11579855 16:-0.27966441 17:-0.86319956 18:-0.67751941 
0 0 0 0 0 0.3031067083423904 1:0.4253255 2:-0.00082061833 3:0.7406584 4:0.69670299 5:-0.46917631 6:-0.60976894 7:-0.94225342 8:0.84571502 9:-0.70783092 10:-0.9305328 11:-0.61799614 12:-0.53243028 13:0.44053356 14:-0.03343328 15:0.22455796 16:0.083157964 17:-0.67770964 18:-0.36548824 
0 0 0 0 0 0.11236607834051064 1:0.36012271 2:0.26508704 3:0.52393166 4:-0.24092672 5:-0.60331592 6:-0.57567238 7:-0.92485865 8:0.82419634 9:-0.53206351 10:-0.97733906 11:-0.71521109 12:-0.44386107 13:-0.30513272 14:0.67932324 15:-0.72067083 16:-0.49903451 17:-0.71143248 18:-0.7437285 
0.3604584598219096 0.20997446562549943 0 0.42544228153535424 0.46175584439290096 0.71568442226812745 1:0.3640539 2:0.4432155 3:0.62264676 4:-0.49746788 5:-0.86688079 6:-0.68158724 7:-0.92758447 8:0.78926561 9:-0.65111014 10:-0.97222204 11:-0.78120714 12:-0.80934807 13:-0.86102384 14:0.51189272 15:-0.67332232 16:-0.60480842 17:-0.75804019 18:-0.81597974 
0 0.24561620955103391 0 0 0 0 1:-0.47055375 2:-0.12156562 3:0.061465407 4:-0.68148324 5:-0.88363494 6:-0.71334612 7:0.83555094 8:-0.96110439 9:-0.11352153 10:-0.78042942 11:-0.92483379 12:0.37083602 13:-0.0079225367 14:0.32900399 15:-0.10349401 16:-0.23726794 17:-0.20856359 18:-0.74763457 
0.26828459627417356 0.24579723630549974 0.12647234523668843 0.26081116806219801 0.27052269129874118 0.48287176123932257 1:0.27989066 2:0.04951779 3:0.62458387 4:-0.63256973 5:-0.69314886 6:-0.014712503 7:0.57436431 8:-0.94933779 9:-0.57211912 10:-0.71565357 11:-0.98110155 12:-0.046302114 13:-0.21206666 14:0.8740504 15:0.24886343 16:0.28298297 17:0.71844938 18:-0.45542564 
0.2366109445014094 0.39001158725552165 0.052179142261675561 0.31855060614143671 0.17644862301001546 0.039661592687798869 1:-0.097608619 2:-0.018327076 3:-0.14497837 4:-1 5:-0.27449792 6:-0.6695641 7:0.82915577 8:-0.90836931 9:0.15438188 10:-0.86464971 11:-0.9435065 12:0.002385571 13:-0.67559589 14:-0.66914722 15:-0.44311545 16:-0.33136848 17:-0.35684584 18:-0.9302056 
0 0 0 0 0 0.55217595277839826 1:0.51551721 2:0.18007267 3:0.71940307 4:-0.21733089 5:-0.69660872 6:-0.72693446 7:-0.9484369 8:0.86723235 9:-0.57922571 10:-0.9683998 11:-0.73546317 12:-0.60900061 13:0.24708832 14:-0.4019917 15:0.22254449 16:-0.39284917 17:-0.85299441 18:-0.53255758 
0 0.25589074175835275 0 0 0 0.31450731570661666 1:0.47401725 2:-0.23182438 3:0.73900829 4:0.32165462 5:-0.37752931 6:-0.72902267 7:-0.94923042 8:0.87720019 9:-0.6753085 10:-0.93638884 11:-0.6011416 12:-0.35558226 13:0.15794961 14:-0.67466246 15:0.3859233 16:-0.54809253 17:-0.60788824 18:-0.31354031 
0 0.053181025997553907 0 0.028182498477712651 0 0 1:0.48771647 2:0.40892179 3:0.67230888 4:-0.59834321 5:0.19112233 6:-0.40995667 7:0.46905274 8:-0.84958381 9:-0.2575265 10:-0.73384832 11:-0.95903565 12:0.12393241 13:-0.12906285 14:0.19629624 15:-0.53442476 16:-0.033492172 17:0.34692686 18:-0.60168036 
0 0 0 0 0 0.68598981804040438 1:0.45584096 2:0.1227515 3:0.4473462 4:-0.58114196 5:-0.43619543 6:-0.53121538 7:0.51613692 8:-0.90302613 9:-0.3307278 10:-0.78053311 11:-0.9821146 12:-0.45145688 13:-0.70415765 14:-0.51229664 15:-0.45695407 16:-0.291775 17:-0.021568714 18:-0.68110819 
0 0.25122109240076668 0 0 0 0 1:0.01524995 2:1 3:0.57678546 4:0.1014281 5:-0.54884066 6:-0.88541474 7:-0.85293923 8:0.63820406 9:-0.6661713 10:-0.94874802 11:-0.69842994 12:-0.3205889 13:-0.18323404 14:0.24043376 15:-0.43079492 16:-0.74128227 17:-0.77871777 18:-0.67113063 
0.140191674235769 0.15837403670161965 0.067003316473786823 0 0.054491750173945704 0.2653681340659183 1:0.23380746 2:0.15888369 3:0.75776505 4:-0.57015271 5:-0.32688737 6:-0.066608572 7:0.58118799 8:-0.95490071 9:-0.66542424 10:-0.66424878 11:-0.97603157 12:0.11268973 13:-0.83943662 14:0.95814627 15:-0.45037034 16:-0.30245753 17:0.13467557 18:-0.74636441 
0 0 0 0.065840583441113959 0 0.74588376094798958 1:0.78288036 2:-0.087237959 3:0.57929484 4:-0.44529321 5:0.087558908 6:-0.58318205 7:0.42334067 8:-0.83809312 9:-0.30135772 10:-0.63614352 11:-0.94652349 12:-0.27591454 13:0.13552276 14:-0.6706076 15:0.01232853 16:0.10206891 17:-0.26846099 18:-0.22422462 
0 0.10212214869422499 0 0.10008306653699031 0 0 1:0.16465419 2:0.059436214 3:-0.012590215 4:-0.40289775 5:-0.53580464 6:-0.66978423 7:0.78170138 8:-0.83680689 9:0.29207854 10:-0.79866128 11:-0.9107537 12:0.53382151 13:0.31133532 14:-0.25912347 15:-0.022811355 16:-0.16125788 17:-0.310287 18:-0.75287718 
0.05770164266717738 0 0.078501701651386813 0 0.018702286294013014 0 1:0.76713287 2:-0.15400746 3:0.65289124 4:0.1361293 5:-0.5835271 6:0.14978371 7:0.37901836 8:-0.82386492 9:-0.48367348 10:-0.6068107 11:-0.91555748 12:0.26695469 13:0.49998647 14:0.55593704 15:0.27048429 16:0.57757308 17:0.51966064 18:-0.10533777 
0.046618823604195982 0 0 0 0.12950569362287184 0 1:0.57738569 2:0.14212557 3:0.55873332 4:-0.73264989 5:-0.59337396 6:-0.83210313 7:0.52807371 8:-0.9074158 9:-0.40166598 10:-0.77996566 11:-0.96926992 12:0.018591825 13:-0.84186077 14:-0.10308078 15:-0.54914228 16:-0.47543637 17:-0.54626706 18:-0.75464415 
0 0.75438656260776427 0 0 0 0 1:0.63557846 2:0.43007671 3:0.68311122 4:-0.12450464 5:-0.41403235 6:-0.62297077 7:0.45444184 8:-0.87734727 9:-0.43104298 10:-0.7447725 11:-0.97501131 12:-0.14096477 13:-0.063244855 14:-0.4784439 15:-0.57736283 16:-0.21165261 17:-0.48374493 18:-0.62512581 
0 0 0 0 0 0.28245787996080085 1:0.29571404 2:-0.030208459 3:0.92547078 4:-0.48016131 5:-0.97785125 6:-0.26294418 7:0.53150362 8:-0.94270593 9:-0.77979709 10:-0.64783754 11:-0.9773642 12:-0.0059932023 13:0.54455579 14:0.28774064 15:0.29371909 16:0.10422236 17:0.17583006 18:-0.50560766 
0.4099901784726388 0.48515022142229497 0.23230650613780784 0.5729127308486307 0.31728410435419985 0.38633269171011764 1:0.55195109 2:0.00023021403 3:0.59316167 4:-0.52247168 5:-0.35218077 6:-0.23682756 7:0.50979493 8:-0.89162754 9:-0.47370779 10:-0.66483063 11:-0.94998919 12:0.47263938 13:0.7131365 14:-0.02860157 15:0.62761972 16:0.19444629 17:1 18:-0.35756236 
0.096315033542612755 0.54929282104475385 0.019729465478197622 0.26651808253383474 0.079665505961347818 0 1:0.77059641 2:-0.014194802 3:0.75860599 4:0.68334913 5:-0.097858938 6:-0.78900398 7:-0.96337661 8:0.90860472 9:-0.58910595 10:-0.96304303 11:-0.7103626 12:-0.57718486 13:-0.2250948 14:0.16082777 15:-0.58842096 16:-1 17:-0.60256686 18:-0.60501417 
0 0 0 0 0 0.29987555237922731 1:0.7797481 2:0.070681857 3:0.8191995 4:0.13652015 5:-0.47996444 6:-0.69170253 7:-0.97828294 8:0.94029705 9:-0.54089341 10:-0.97764792 11:-0.76195064 12:-0.86047214 13:-0.31875677 14:-0.13711997 15:-0.50482994 16:-0.63550894 17:-0.88906011 18:-0.76784396 
0.026103012223457931 0.0030421935654195388 0 0 0.066446505947950457 0 1:0.53668758 2:0.19694073 3:0.47534302 4:-0.19408659 5:0.10416104 6:-0.80294908 7:0.40025447 8:-0.85189471 9:-0.52452486 10:-0.60926234 11:-0.93136722 12:-0.12925601 13:-0.84879469 14:-0.59199586 15:-0.47782386 16:-0.32643904 17:0.17670995 18:-0.49905878 
0.24098217097951358 0.92609602253135037 0.19823694115520341 0.71516531600415456 0.21467202486165549 1 1:0.71301171 2:-0.27786136 3:0.71254323 4:-0.34641172 5:-0.65163327 6:-0.69305456 7:-0.97857988 8:0.97146096 9:-0.53256739 10:-0.97483756 11:-0.69183114 12:-0.37473223 13:0.38531963 14:-0.36481427 15:0.1726871 16:-0.248978 17:-0.67409039 18:-0.50943733 
0 0 0 0 0 0.068774056458077576 1:0.43134026 2:-0.059254494 3:0.85509003 4:-0.49932397 5:-0.75493224 6:-0.5099336 7:0.57641883 8:-0.96300341 9:-0.75874001 10:-0.70979148 11:-0.98320976 12:0.060197886 13:0.055593172 14:0.11484144 15:0.16493683 16:-0.020022679 17:-0.63640747 18:-0.64758624 
0.14481396267724289 0.13605435024986906 0 0.24709488989660489 0.032612510869799882 0 1:0.067639331 2:0.18301003 3:0.85710555 4:-0.51190298 5:-0.93694347 6:-0.71301514 7:0.59220491 8:-0.95659738 9:-0.76422936 10:-0.67496075 11:-0.97353987 12:0.54332837 13:-0.29947183 14:0.53768237 15:-0.038823223 16:-0.14467259 17:-0.37403082 18:-0.57956655 
0 0.019966666966705064 0 0 0 0 1:-0.051214101 2:0.2261219 3:0.84884415 4:-0.60152291 5:-0.70319069 6:-0.10818096 7:0.59390115 8:-0.96456169 9:-0.71702973 10:-0.69766923 11:-0.98091871 12:0.16907827 13:-0.69526003 14:0.43248868 15:-0.41329689 16:-0.0019849855 17:-0.19734475 18:-0.7906291 
0.23852911799803028 0.16843982175690603 0.14150273701750396 0.42986246460433519 0.24299830982482157 0.40362207503716668 1:0.20155267 2:0.16730979 3:0.72326613 4:-0.63353189 5:-0.78250235 6:-0.54723027 7:0.61492661 8:-0.97189057 9:-0.6809339 10:-0.7739002 11:-0.98674325 12:0.2561216 13:-0.64939057 14:0.82854565 15:-0.24696181 16:-0.41561655 17:0.24918137 18:-0.65383591 
0.69666698517044057 0.67794038645628707 0.36872300018758924 0.76022976148261201 0.49492860424589569 0.8892586844873358 1:0.88922208 2:0.13393882 3:0.5111026 4:-0.0026593787 5:1 6:0.71932539 7:0.37476508 8:-0.79676139 9:-0.269184 10:-0.62529208 11:-0.90845686 12:-0.049030305 13:-0.23684996 14:-0.6996287 15:-0.52079389 16:0.29228983 17:0.43572819 18:-0.047132168 
0.19230821883169033 0.59579460926696781 0.14926561901473842 0.59014062560215619 0.12588812463863436 0 1:0.68981306 2:0.30217384 3:0.48160429 4:0.011394122 5:0.15272262 6:-0.31435272 7:0.38201804 8:-0.80068925 9:-0.20649418 10:-0.63653566 11:-0.94267498 12:-0.42010963 13:-0.14746751 14:-1 15:-0.48897785 16:-0.057592898 17:0.11779838 18:-0.53816562 
0.16426258744819025 0 0 0 0 0 1:0.31398756 2:0.48731878 3:0.59310406 4:0.24047644 5:-0.82761431 6:-0.85088163 7:-0.9129144 8:0.77770306 9:-0.63295969 10:-0.93910679 11:-0.65810673 12:-0.56736818 13:0.78862405 14:-0.19050135 15:0.36773812 16:-0.67974777 17:-0.80674934 18:-0.65540498 
0.13884143419410516 0.57875323560786351 0 0.98392536738598624 0.024279199330883142 0.87268887376762216 1:0.41824032 2:0.083505538 3:0.48598219 4:-0.17264578 5:-0.051212102 6:0.0081354388 7:0.14139609 8:-0.68406364 9:-0.49751867 10:-0.75816593 11:-0.9574764 12:-0.15717042 13:-0.70920911 14:0.29350441 15:0.25020574 16:-0.096319097 17:-0.013618158 18:-0.3705449 
0 0.060024930057164583 0 0 0 0 1:0.55995503 2:-0.074115298 3:0.60355781 4:0.35437048 5:-0.37342978 6:-0.26818752 7:0.30184817 8:-0.75228896 9:-0.32613123 10:-0.61578209 11:-0.90087452 12:0.27994121 13:0.70541712 14:0.32620753 15:0.46396927 16:0.1192989 17:0.069372985 18:-0.31436499 
0.067016298157921914 0 0.013127204420411751 0.020177583900284356 0.006846667232983765 0.062739600051272174 1:-0.57959867 2:-0.59482478 3:-0.44472268 4:-0.85341057 5:-0.68613667 6:-0.7276698 7:0.96852861 8:-0.86724947 9:0.36463523 10:-0.89954902 11:-0.86227906 12:0.38604828 13:0.58074215 14:0.42057264 15:0.25327389 16:-0.11350506 17:-0.7068911 18:-0.80620215 
0 0 0 0.49641914689168232 0 0 1:0.75896468 2:0.22263972 3:0.60294964 4:-0.64737241 5:-0.6587308 6:-0.52729397 7:0.52094689 8:-0.90074187 9:-0.42336318 10:-0.66252004 11:-0.96321466 12:0.069663707 13:0.62700434 14:-0.35022604 15:0.27350447 16:-0.079775821 17:0.078280592 18:-0.51755561 
0.18690663477664213 0.24611676388097256 0.10158525051947898 0.21848988350235743 0.12979896913344055 0.32258844338580073 1:0.57208966 2:-0.25296475 3:0.52836403 4:0.017176001 5:0.23682192 6:0.47980564 7:0.36679864 8:-0.80666771 9:-0.43715194 10:-0.57541842 11:-0.86016676 12:0.26724892 13:-0.73886782 14:-0.57987787 15:-0.37772557 16:0.52201775 17:0.33182181 18:-0.11631771 
0.10103125823798592 0.35383053389564628 0 0 0.15530291070594554 0.33358301301981397 1:0.3888269 2:0.13334963 3:0.83810188 4:-0.054544263 5:-0.5020279 6:-0.54080915 7:0.5300239 8:-0.93206301 9:-0.71123722 10:-0.63574735 11:-0.97658802 12:0.19565216 13:0.77842632 14:-0.50776019 15:0.39071726 16:0.0073519245 17:-0.49544176 18:-0.47010993 
0.61452711006673744 0.72694490787658017 0.33098996865911912 0.80338140086456422 0.55777625162337452 0.91347252212354146 1:0.11502614 2:0.78393033 3:0.91333784 4:-0.42091248 5:-0.77186751 6:-0.87400244 7:-0.89060185 8:0.68523019 9:-0.91639199 10:-0.94927155 11:-0.75970999 12:-0.61960283 13:-0.36552003 14:0.18882345 15:-0.59118546 16:0.97204729 17:-0.76946838 18:-0.80678743 
0.1173694975457277 0.014986929910567225 0 0 0.049065829954398579 0.32047695434438522 1:1 2:-0.077490589 3:0.5202182 4:-0.038469582 5:0.21870478 6:-0.54972002 7:0.37673029 8:-0.81580338 9:-0.35601691 10:-0.6039007 11:-0.92040944 12:-0.18927375 13:-0.0016251398 14:-0.70508177 15:-0.39699738 16:-0.22742913 17:-0.074706393 18:-0.12949941 
0.16611847443457584 0.071791747274656731 0.046345672470928613 0.169802014614995 0.12659531925911921 0.15667195008533907 1:0.55665206 2:0.53552882 3:0.77438792 4:1 5:-0.78396934 6:-0.8350033 7:-0.93808836 8:0.82106807 9:-0.68764158 10:-0.96749385 11:-0.7498711 12:-0.62462379 13:-0.23844798 14:0.04763309 15:-0.84277349 16:-0.50018183 17:-0.77972451 18:-0.71335101 
0 0 0 0 0 1 1:0.62229503 2:-0.030165734 3:0.57869377 4:0.046780901 5:-0.56348911 6:-0.60691396 7:-0.9700386 8:0.94895685 9:-0.43252223 10:-0.9927453 11:-0.74509472 12:-0.74234439 13:-0.38613219 14:0.23841409 15:-0.68648977 16:-0.46587185 17:-0.72209423 18:-0.75334948 
1 1 0.56828861004285258 1 0.77364805332073694 1 1:0.68721311 2:-0.16766451 3:0.46735627 4:0.38356945 5:-0.12296736 6:-0.51443199 7:-0.48013122 8:0.19908114 9:-0.42254654 10:1 11:1 12:-0.4835322 13:-0.576422 14:0.16399705 15:1 16:-0.27712863 17:-0.40427834 18:0.99701732 
0.44685581811197594 0.49379469146715627 0.25805745730799629 0.61354831048293912 0.46592011469421307 0.69192707221852068 1:-0.46300412 2:-0.70891033 3:-0.81276134 4:-0.99031242 5:-0.6084042 6:-0.74265281 7:0.90328363 8:-0.73237756 9:0.71877373 10:-0.80213301 11:-0.8385452 12:-0.23810999 13:-0.68426327 14:-0.27416223 15:-0.63405963 16:-0.40566921 17:-0.64937332 18:-0.9246449 
0 1 0 0.076623878643346105 0 0.65174765267393386 1:0.36386585 2:-0.21826735 3:0.74174617 4:0.040508993 5:-0.38262635 6:-0.499129 7:-0.94329504 8:0.85468527 9:-0.71587589 10:-0.95576172 11:-0.63351307 12:-0.29883155 13:0.35014899 14:-0.1168456 15:0.38889554 16:0.38814508 17:-0.21089956 18:-0.27907999 
0 0 0 0.014273929010563522 0 0.064646776298332903 1:0.47182622 2:0.095052559 3:0.58527244 4:-0.63346412 5:-0.50589463 6:0.15014959 7:0.47414582 8:-0.89006502 9:-0.48223591 10:-0.75029855 11:-0.96980485 12:0.034176668 13:-0.76449079 14:-0.71940592 15:-0.37488115 16:0.16139048 17:0.028786476 18:-0.61556854 
0.15898907297561501 0.42522315414926759 0 0.37573439808017678 0.15578594271048396 0.56519411043632273 1:0.96194504 2:-0.13496945 3:0.64077998 4:0.10243913 5:-0.45862838 6:-0.21165877 7:0.31566724 8:-0.7684634 9:-0.28594245 10:-0.69124858 11:-0.92044161 12:-0.11610376 13:0.44776544 14:0.25266049 15:-0.12394831 16:0.36855973 17:0.62649575 18:-0.19648128 
0 0 0 0 0 0.49861700508925316 1:0.68705803 2:-0.096397672 3:0.66606909 4:-0.1660285 5:-0.19909495 6:-0.43177413 7:0.43116965 8:-0.85944409 9:-0.39682341 10:-0.72840987 11:-0.96587468 12:-0.16370764 13:0.48797401 14:0.26268117 15:-0.044048673 16:0.088517586 17:-0.71743416 18:-0.47295196 
0.16044895862681832 0 0.015583988045942163 0.15060475720979333 0.0081065131551328294 0.0030741846383738462 1:0.65072925 2:-0.030567887 3:0.77244214 4:0.026842017 5:-0.36358658 6:-0.30757699 7:0.50813104 8:-0.90682381 9:-0.61814862 10:-0.62583945 11:-0.9646354 12:0.43829374 13:0.89391928 14:-0.089347019 15:0.34237799 16:0.040246039 17:-0.75797924 18:-0.45214051 
0 0.77650087509143595 0 0.20213305215800781 0 1 1:0.43655541 2:-0.057884327 3:0.60938913 4:0.28488437 5:-0.28710256 6:-0.44502355 7:-0.94051538 8:0.83797196 9:-0.63431308 10:-0.98279895 11:-0.74440069 12:-0.54943613 13:-0.28819068 14:0.28688613 15:-0.49711164 16:0.088548179 17:-0.33803207 18:-0.58526511 
0.33306620766854989 0.10623196041353555 0.12768931497731356 0.32062044225257658 0.20303178120118912 0.21116502849657573 1:0.33271092 2:0.26168403 3:0.76087893 4:-0.72396525 5:-0.51691509 6:-0.14380928 7:0.55380419 8:-0.94829744 9:-0.62144863 10:-0.79330891 11:-0.99741066 12:-0.024426765 13:-0.82964518 14:-0.86121766 15:-0.61644975 16:-0.010611277 17:0.098196172 18:-0.76058212 
-0.68441628646828123 1 0.31705777224241061 1 0.51788286064408939 1 1:-0.74596681 2:-0.38341489 3:0.31055399 4:-0.50415989 5:-0.3708466 6:-0.33800998 7:-0.52302303 8:-0.25396648 9:0.7317757 10:-0.8673583 11:-0.10235259 12:-0.77220086 13:-0.60719771 14:0.082639177 15:0.057759706 16:-0.1141346 17:-0.1157142 18:0.44239668 
-0.69978872011113913 0.89222475167614523 0.33795730332946966 0.81260338678991995 0.52806870599181321 1 1:-0.69467585 2:0.017084183 3:-0.20187382 4:-0.6997039 5:-0.85534729 6:-0.074533926 7:-0.93704136 8:-0.57016573 9:-0.69066861 10:-0.99126063 11:-0.6898197 12:0.001535817 13:-0.85094597 14:-0.80047455 15:0.18151075 16:-0.33712826 17:-0.65151291 18:-0.063464512 
-0.24599043771113957 0.35388181501762972 0.46778407791506488 0.33221146768548226 0.22364222601494727 0.72656742545921804 1:-0.76452185 2:0.17480269 3:-0.38680975 4:-0.9580413 5:-0.96646279 6:-0.87497204 7:-1 8:-0.69669676 9:-0.66729466 10:-0.99767103 11:-0.9817584 12:-0.88009587 13:0.24897703 14:0.26956616 15:0.2070804 16:-0.96818458 17:-0.80188046 18:-0.96742741 
-0 0.052010834919876452 0.65678802320181706 0.071230296940255691 0.21475549122718177 0 1:-0.45402277 2:-0.11583952 3:0.56320069 4:-0.99980197 5:-0.9995462 6:-0.99963482 7:0.43768616 8:0.9502584 9:0.29088902 10:-0.99999655 11:-0.99999291 12:-0.99999111 13:0.057270483 14:0.053717159 15:0.31420325 16:-0.99986325 17:-0.99998846 18:-0.99996911 
-0.52852461843868159 0.61222970146876654 0.20733319467224393 0.56721449680312597 0.32327761728084009 0.77616357873301489 1:-0.89434585 2:-0.47037434 3:0.57552505 4:-0.91324611 5:-0.97433833 6:-0.91289675 7:0.44623075 8:0.92593963 9:0.24232171 10:-0.83995267 11:-0.60668462 12:-0.90361097 13:0.58744371 14:0.19907227 15:-0.37204137 16:-0.5143526 17:-0.99282991 18:-0.28184634 
-0.5906814470486631 0.82637461201031193 0.2683907868435173 0.67009868621049518 0.40748892584892421 0.79177099353155533 1:0.32786193 2:-0.26458719 3:0.34880619 4:1 5:0.97066198 6:0.21309665 7:-0.44077953 8:-0.67176171 9:0.85055451 10:-0.68833349 11:-0.89544631 12:-0.90474279 13:0.19495789 14:-0.32845323 15:0.24643736 16:-0.23540711 17:-0.20708206 18:-0.11802767 
-0.6391020535827473 0.6178151426448929 0.30468091669658154 0.6235421687773024 0.46671775046986336 0.65743113542613829 1:1 2:-0.38764869 3:0.64674621 4:0.90443317 5:1 6:0.19383849 7:-0.25160849 8:-0.64608088 9:0.98214285 10:-0.92133021 11:-0.97730592 12:-0.98976438 13:0.039123001 14:-0.12186812 15:0.13466916 16:-0.26131267 17:-0.21542895 18:-0.17990074 
-0.060202128735385441 0.17205835226993285 0 0 0 0.12941038423493831 1:-0.63586122 2:-0.10659811 3:0.51869016 4:-0.98583712 5:-0.99722776 6:-0.98082968 7:0.43986235 8:0.94812502 9:0.29184013 10:-0.99988192 11:-0.9998362 12:-0.99991341 13:0.003963966 14:0.037290306 15:0.29390201 16:-0.97948974 17:-0.99885924 18:-0.99171166 
-0.60346613855242803 0.77808527582472709 0.30653878124501244 0.68288886195530896 0.4668825369010286 0.73338920312609568 1:-0.53225427 2:0.95531887 3:-1 4:-0.22573964 5:0.42274219 6:0.61151755 7:-0.95156507 8:-0.80974639 9:0.060909279 10:-0.98258562 11:-0.50443794 12:-0.71069229 13:-0.70999916 14:0.17108024 15:0.16011755 16:-0.2149937 17:0.85020141 18:0.36133361 
-0.46327650157559214 0.64754362457965586 0.19361863117114353 0.56829885169618022 0.30059377913955793 0.87155117731462683 1:-0.71368564 2:-0.012783182 3:-0.091048994 4:-0.66530143 5:-0.78709746 6:-0.69790961 7:-0.69092317 8:-0.56436773 9:0.54147774 10:-0.56775636 11:-0.71951129 12:-0.40403317 13:-0.68355298 14:0.72566984 15:0.3309026 16:-0.57447223 17:-0.44184567 18:-0.48047016 
-0.7028300550445522 1 0.50450307917474646 1 0.45182437310734869 0.97531250224991883 1:0.068491514 2:-0.053117825 3:-0.177826 4:-0.71116873 5:-0.73507272 6:-0.93771184 7:0.077999315 8:-0.51138337 9:0.96713926 10:-0.13354391 11:-0.75974362 12:-0.96705251 13:0.54109639 14:-0.57836743 15:0.16271429 16:-0.79950579 17:-0.59095186 18:-0.82638695 
-0.83208873646401449 0.99070863949865151 0.41934879147656151 0.95800787103173468 0.60455017645572051 0.94775952070123604 1:-0.2097871 2:-0.57933661 3:0.35091978 4:-0.50487358 5:-0.75998598 6:0.10568986 7:-0.8058463 8:-0.72907524 9:0.13607862 10:-0.81592041 11:-0.24292574 12:1 13:-0.91488444 14:-1 15:0.011720095 16:-0.30441805 17:-0.61717324 18:-0.01257649 
-0.80540445130167571 0.95769884300229546 0.43037879692992753 0.87646157272771585 0.64127993144867645 0.92117499251087409 1:-0.52087071 2:-0.48342139 3:0.80228742 4:-0.94906187 5:-0.99088641 6:-0.98135699 7:0.73090513 8:0.27818472 9:0.39896985 10:-0.56085002 11:1 12:-0.90418814 13:1 14:0.18965938 15:-0.88524538 16:-0.83728147 17:-0.9926839 18:-0.5280763 
-0.25378720270705402 0.24082550170771264 0 0.028794024062783176 0 0.26391407917085502 1:-0.60664692 2:-0.45234574 3:0.963162 4:-0.92168044 5:-0.97128278 6:-0.87294709 7:0.8339235 8:-0.57664154 9:0.68710046 10:-0.99150566 11:-0.97706114 12:-0.99075058 13:-0.28483658 14:0.18692286 15:0.052757015 16:-0.76659186 17:-0.98309978 18:-0.96160905 
-0.86653394134314476 1 0.70760486401298783 1 1 1 1:0.56816287 2:0.87113179 3:-0.16165593 4:-0.9143325 5:-0.84284496 6:-0.91735856 7:0.98486389 8:-0.82399013 9:0.46107477 10:-0.9920277 11:-0.99622797 12:-0.97978081 13:0.22564312 14:-0.019297451 15:0.44603556 16:-0.95076541 17:-0.96558516 18:-0.9617502 
-0.029180947184775465 0.06273974655666853 0.32062275522367556 0.090825799244335509 0 0.2389097923133727 1:-0.065408548 2:-0.41521421 3:0.37352857 4:-0.84103823 5:-0.9300025 6:-0.83660133 7:0.88977126 8:-0.019587743 9:0.47412432 10:-0.87642482 11:-0.65957243 12:-0.94657781 13:0.57393036 14:0.10192738 15:-0.28143355 16:-0.7234935 17:-0.82296978 18:-0.60040151 
-0 0 0 0.1927638044928619 0 0 1:-0.73587861 2:-0.56945212 3:0.95171103 4:-0.97809381 5:-0.98675925 6:-0.95413044 7:0.77151411 8:-0.64819718 9:0.75382252 10:-0.98973558 11:-0.99503161 12:-0.99233989 13:-0.11336983 14:0.16670468 15:0.25646214 16:-0.98148708 17:-0.99402148 18:-0.99306889 
-0 0 0.28602714778346883 0 0.62235506784489436 0 1:0.077977436 2:-0.30581158 3:0.90262824 4:-0.98733371 5:-0.99608155 6:-0.99558332 7:0.96058054 8:-0.28257253 9:0.48214471 10:-0.99658222 11:-0.96109024 12:-0.99870729 13:0.24816873 14:0.14534894 15:0.00058935939 16:-0.94769071 17:-0.9956942 18:-0.84694223 
-0 0 0.28151471633643882 0 0.069556259132378881 0 1:0.1535407 2:0.14724967 3:0.55753952 4:-0.95739724 5:-0.97924401 6:-0.96384085 7:0.93419152 8:-0.72352651 9:0.54972681 10:-0.98935054 11:-0.9353507 12:-0.97840838 13:0.23389747 14:0.19698314 15:0.13572014 16:-0.98097831 17:-0.99066637 18:-0.98835721 
-0.076979557604403032 0.21263018079916296 0.20391733925299116 0.19870566901981382 0.044219163165039148 0.3638777536242116 1:-0.30236545 2:-0.17434674 3:0.17268117 4:-0.84096307 5:-0.70154996 6:-0.96148378 7:-0.61937351 8:-0.83293334 9:0.72293545 10:-0.99155762 11:-0.79409606 12:-0.99232432 13:0.2324905 14:-0.087474085 15:0.76923767 16:-0.933138 17:-0.94366103 18:-0.77845303 
-0.21296998584971591 0.17371299208360425 0 0.0094647364217941149 0 0.1459243079802392 1:-0.27601576 2:-0.61154832 3:0.6955258 4:-0.97763963 5:-0.98746598 6:-0.97537629 7:0.88151103 8:-0.88957877 9:0.59236803 10:-0.92905851 11:-0.99617766 12:-0.90699154 13:0.12100738 14:-0.30725882 15:0.43593802 16:-0.97641728 17:-0.98122498 18:-0.99030164 
-0.92871867460548929 1 0.47283587249624326 0.97624261337397344 0.72073174256294359 1 1:-0.35517721 2:-0.78732791 3:0.21667071 4:-0.27391319 5:-0.10927189 6:-0.061817157 7:-0.098326496 8:0.29147203 9:0.56246093 10:1 11:0.44538704 12:-0.83107773 13:-0.65356922 14:0.41442802 15:-0.93369902 16:1 17:0.50233049 18:1 
-0.89636912529423884 1 0.46112791241936096 1 0.70011447394847925 1 1:0.12106494 2:-0.58416297 3:-0.11291453 4:-0.6618437 5:-0.6693517 6:-0.5123239 7:0.61363438 8:0.36097874 9:0.51257708 10:-0.29749783 11:-0.18327741 12:-0.92076276 13:0.60217053 14:1 15:-1 16:0.41122001 17:-0.06177172 18:0.23134772 
-0.25931050020412744 0.24416146755185153 0 0.21584411882900109 0.067595511722796861 0.32792789688432344 1:-0.15951588 2:-0.99896786 3:0.55322992 4:-0.39580501 5:-0.53708547 6:-0.83800915 7:0.49708038 8:-0.37332869 9:0.93833967 10:-0.97466568 11:-0.98252121 12:-0.99357372 13:-0.10373068 14:0.017526869 15:0.49059732 16:-0.93897445 17:-0.84872527 18:-0.78338621 
-0.14073042025780841 0.17460581598927769 0.4111547954283537 0.26186335194861915 0.40417641411584687 0.25834896582528105 1:0.31548334 2:-0.40958407 3:0.43428083 4:-0.94802906 5:-0.85835147 6:-0.99134538 7:-0.25018234 8:-0.65525022 9:0.99055954 10:-0.99643455 11:-0.99883366 12:-0.99960735 13:0.025063396 14:0.12132553 15:0.48941699 16:-0.98994142 17:-0.99280078 18:-0.928013 
-0.47351572691226812 0.41307720188419528 0 0.52939253919228968 0.43832636374960576 0.77624476013077726 1:-0.3624063 2:-0.25286466 3:0.55045973 4:-0.94237107 5:-0.97701835 6:-0.92517663 7:0.40705542 8:1 9:0.23352359 10:-0.983957 11:-0.96731486 12:-0.95771541 13:-0.17522203 14:0.12100491 15:0.54275204 16:-0.80741913 17:-0.99525066 18:-0.9120748 
-0.72636922464874909 0.86083947692181384 0.34476781244022664 0.80230057940908905 0.58703417097746602 0.86680926493616639 1:-0.56747341 2:-0.72737472 3:1 4:-0.90855031 5:-0.95703101 6:-0.79185469 7:0.7052914 8:0.16536404 9:0.57550558 10:-0.87880053 11:0.24692997 12:-0.87741111 13:-0.73662674 14:-0.038068763 15:1 16:0.014316852 17:-0.97900013 18:-0.79443718 
-0.46519869955504828 0.45851919735319502 0 0.42485184708839013 0.19407225952410581 0.17921775617251268 1:-1 2:-0.53440306 3:0.092199307 4:-0.98634156 5:-0.96756376 6:-0.97561074 7:-0.90592439 8:-0.74979776 9:-0.99369088 10:-0.99385298 11:-0.99286766 12:-0.9762921 13:0.090602337 14:0.022375125 15:0.43696314 16:-0.98567974 17:-0.9543834 18:-0.98639709 
-0.20764082015556456 0.33609589928960126 0.55181786787991816 0.2044738731477434 0.41297525389452316 0.65041921465550523 1:-0.84434036 2:-0.27305424 3:0.45882055 4:-0.97996763 5:-0.98260923 6:-0.97983447 7:-0.98438239 8:-0.72175217 9:-0.75994694 10:-0.99654269 11:-0.99070828 12:-0.97454489 13:-0.043281418 14:0.21556023 15:0.14612328 16:-0.97516664 17:-0.95304518 18:-0.95689044 
-0.74909073506032386 0.79401037270413732 0.68934853085353942 0.91492470913038093 0.4847057195358741 0.85742616712805109 1:-0.42305742 2:0.15367888 3:-0.064576806 4:-0.88522778 5:-0.85981643 6:-0.36626154 7:-0.95202609 8:-0.72082867 9:-0.16467441 10:-0.95403744 11:-0.96625707 12:0.25936206 13:0.15353295 14:0.74546671 15:0.3352763 16:-0.8710037 17:-0.52183262 18:-0.83066099 
-0.11970037776768573 0.076684785786196155 0 0.032663779817603475 0 0 1:-0.10976854 2:-0.43745693 3:0.5916367 4:-0.96461055 5:-0.98623077 6:-0.93271665 7:0.86850928 8:-0.51473849 9:0.64038688 10:-0.98633438 11:-0.94168947 12:-0.97984965 13:0.7876344 14:-0.080244865 15:0.66357326 16:-0.8598386 17:-0.98934165 18:-0.94666124 
-0.26459676520437364 0.38537873042382786 0 0.31182500226771875 0 0.54107282636304221 1:-0.014036788 2:-0.36961067 3:0.63782084 4:-0.76132993 5:-0.91915473 6:-0.95529858 7:0.94781111 8:-0.60800755 9:0.51034229 10:-0.99086356 11:-0.49886633 12:-0.98124122 13:0.15817715 14:0.087455576 15:-0.14828831 16:-0.98476305 17:-0.92019873 18:-0.45250696 
-0.6480994579798216 0.75939198053154766 0.32387329376400337 0.70921667561100121 0.49820895629903145 0.75335262079543497 1:-0.11780856 2:1 3:-0.89816338 4:-0.42854594 5:0.35893958 6:1 7:-0.93396823 8:-0.85713577 9:0.083886026 10:-0.95681771 11:-0.71937689 12:-0.50218788 13:0.084051268 14:0.32222593 15:0.47848513 16:-0.47949032 17:1 18:0.27949751 
-0.080977626468533057 -0.11830358138089869 0.048818987269920962 0.081325698601692697 0.063681261718815052 0.12922570609031475 1:-0.39298563 2:0.31399092 3:-0.53324915 4:0.21005618 5:0.50359007 6:-0.14523347 7:0.31774427 8:-0.42039438 9:0.28467065 10:-0.47081572 11:0.42120886 12:-0.36025946 13:0.04149767 14:-0.44090051 15:0.30474683 16:0.31103321 17:0.70748653 18:0.75838841 
-0 -0 0 0.01087378779244721 0 0 1:-0.45792991 2:0.077598892 3:-0.71485919 4:-0.03130594 5:-0.030631315 6:-0.46683978 7:0.57503447 8:-0.33645834 9:0.70230964 10:-0.55870724 11:-0.46170612 12:-0.48357292 13:0.055576721 14:-0.49201707 15:-0.11890296 16:-0.42202135 17:-0.23253131 18:-0.54964539 
-0 -0 0 0 0 0.043107368480549413 1:-0.15046966 2:-0.28066433 3:-0.17015604 4:0.24892662 5:0.13520116 6:0.19394521 7:-0.016531448 8:0.30671663 9:0.64165542 10:0.46571859 11:-0.31072034 12:-0.013494654 13:-0.14506109 14:-0.41352742 15:-0.39170887 16:0.35358025 17:0.44275122 18:-0.37856522 
-0.25993791547809064 -0.25882440422253566 0 0.016528927844334455 0.13399407651385351 0.0068858588973980915 1:0.17722311 2:0.81539128 3:0.9613571 4:0.080711548 5:-0.78232886 6:-0.71503777 7:0.024596914 8:-0.79819144 9:-0.88281332 10:-0.5465794 11:-0.62742949 12:-0.8870505 13:0.14233128 14:-0.77923919 15:-0.70287975 16:-0.39672731 17:-0.50557985 18:-0.54299135 
-0.3107494369742051 -0.22621587937985818 0.1509553037051673 0.28639479312499289 0.19604383982438556 0.32303845300331302 1:-0.21258778 2:0.30604842 3:-0.74234826 4:-0.43255284 5:-0.26908469 6:-0.30718375 7:0.55456811 8:-0.52576695 9:0.36357199 10:-0.24054092 11:0.49376368 12:-0.49032831 13:-0.05546602 14:-0.44105448 15:0.75447259 16:0.44661241 17:0.47754029 18:0.83746801 
-1 -0.04397360115071422 0.092460418866412167 0 0.068128875694019209 1 1:0.90863326 2:-0.3036803 3:0.41878902 4:0.18994163 5:-0.40371922 6:-0.51880237 7:-0.90255009 8:0.63183627 9:-0.36082585 10:-0.88298383 11:-0.39639676 12:0.15159463 13:0.42730005 14:-0.33150574 15:0.055965186 16:-0.3110405 17:-0.3794862 18:-0.24234124 
-0.96368995113913725 -0 0 0 0 1 1:0.56694408 2:-0.53495277 3:0.57227226 4:0.13865573 5:-0.0078949664 6:-0.20237664 7:-0.9123621 8:0.57605421 9:-0.36278321 10:-0.92362562 11:-0.43467308 12:-0.20174707 13:0.48012418 14:-0.043174688 15:0.14318038 16:-0.30563216 17:-0.35801993 18:-0.089376616 
-0.13925969302432831 -0.19405961793409204 0.087378946548519881 0.17175500615527409 0.11108220751044803 0.2251302648889193 1:-0.41409394 2:0.54092558 3:-0.4067783 4:-0.35016756 5:-0.0045326424 6:-0.049694387 7:0.79488885 8:-0.83489095 9:0.11907545 10:-0.16335003 11:0.036297358 12:-0.51379097 13:-0.17683507 14:-0.42119204 15:0.75873945 16:0.36834309 17:0.23116763 18:1 
-0.20145207091964495 -0 0 0 0 0 1:-0.70773854 2:0.35740353 3:0.14056332 4:0.13485704 5:-0.048191358 6:-0.39069218 7:0.43463045 8:-0.64779172 9:0.12471259 10:-0.76492155 11:-0.53903905 12:-0.083690015 13:0.71310929 14:0.3436111 15:-0.33934072 16:-0.29812182 17:-0.58470561 18:-0.36152868 
-0.2123145006282236 -0.27032271817300374 0.127508899683178 0.27152022416283988 0.17154105576587478 0.26741434875180808 1:0.54963518 2:-0.88685653 3:-0.72364131 4:-0.20264233 5:0.31781682 6:-0.34518955 7:-0.35865089 8:0.74751668 9:0.59187083 10:0.046751077 11:-0.094755881 12:-0.13117865 13:-0.18224907 14:0.03391345 15:-0.65354958 16:-0.16667545 17:0.89080511 18:-0.054860496 
-0 -0.12978711245179061 0.05547517729779098 0 0.065233579610447345 0 1:0.94223192 2:-0.85538629 3:0.17030924 4:-0.18513202 5:-0.19617333 6:-0.64236494 7:-0.96804355 8:0.8713765 9:-0.39896234 10:-0.88995353 11:0.079760929 12:0.38347513 13:-0.089539749 14:-0.4863751 15:0.26330695 16:-0.48181776 17:0.05889279 18:-0.10145488 
-0 -0.033752596013364389 0 0.19520526135439961 0 0 1:-0.48248174 2:0.61250628 3:-0.31897862 4:-0.33825377 5:-0.25524106 6:-0.72573971 7:0.832501 8:-0.87098173 9:0.18289524 10:-0.37239662 11:-0.54140354 12:-0.67812553 13:0.053687348 14:-0.54663999 15:0.18234704 16:-0.57493386 17:0.45346729 18:-0.26233643 
-0.013896289367758226 -0 0 0 0 0 1:-0.042456644 2:0.65033253 3:0.13134009 4:-0.18320287 5:-0.38975943 6:-0.50709885 7:0.17834481 8:-0.5853526 9:-0.066452146 10:-0.8685137 11:-0.37728755 12:-0.24514367 13:-0.37931013 14:-0.062713697 15:-0.55707279 16:-0.15692418 17:-0.88460196 18:-0.71744387 
-0 -0 0.92322760783587876 0.22219004764980485 0 0.85092708747314194 1:0.3793229 2:0.59511099 3:0.73252971 4:-0.064880005 5:-0.76018227 6:-0.87515629 7:-0.26037744 8:-0.55247146 9:-0.76650635 10:-0.77370435 11:-0.58954103 12:-0.88989391 13:0.2144204 14:-0.33553573 15:-0.60422997 16:-0.67811451 17:-0.71439991 18:-0.6800928 
-0 -0 0 0 0.069101636337498801 0 1:0.037559981 2:0.70091782 3:0.096421047 4:-0.12376066 5:-0.52437181 6:-0.73411383 7:0.13098632 8:-0.58965648 9:-0.17390898 10:-0.71015688 11:-0.1581273 12:-0.32795459 13:0.37751847 14:-0.44525388 15:0.075068558 16:-0.18996625 17:-0.88715476 18:-0.13004619 
-0.17455564354857864 -0.17253747650778326 0.16221519690354985 0.3764690531054703 0.13193900976283474 0.23443467958379494 1:-0.61476538 2:-0.21769687 3:-0.56353013 4:0.050248132 5:0.60991113 6:0.32318071 7:0.41569865 8:-0.019760577 9:0.72576576 10:0.50520222 11:0.20750878 12:-0.041030629 13:0.43973728 14:-0.30075466 15:0.069889245 16:0.4704167 17:0.54046254 18:0.10856509 
-0.8498615356864575 -1 1 1 1 1 1:0.053154256 2:0.3030823 3:0.70775891 4:-1 5:-0.97796625 6:-0.73543431 7:-0.035638403 8:-0.51482619 9:-0.16427988 10:-0.92042759 11:-0.79901906 12:-0.51123968 13:0.12841511 14:-0.77541457 15:-0.074203598 16:-0.50048681 17:-0.7453474 18:-0.94588586 
-0.38454839168032562 -0.32818494599054476 0.18420829292618487 0.32388959892170072 0.24085688342310418 0.42618443007981427 1:0.76701924 2:-0.74499218 3:0.24333269 4:0.25037307 5:0.43140708 6:-0.55215223 7:-0.77031468 8:0.44749238 9:-0.61912073 10:-0.46675183 11:0.87426774 12:0.6131911 13:-0.3285448 14:0.053960674 15:0.42464132 16:0.18596008 17:0.78706359 18:0.92946147 
-0 -0 0 1 0 0 1:0.14093203 2:0.48429431 3:0.030855774 4:-0.3739399 5:-0.31307283 6:-0.53543044 7:-0.018079889 8:-0.3983441 9:-0.019071076 10:-0.73559939 11:-0.067995785 12:-0.49416369 13:-0.31163168 14:-0.1417116 15:-0.66501582 16:-0.068912339 17:-0.75357559 18:-0.4159882 
-0 -0.37935670377479275 0 0 0.02369266018755636 0.8495001954850957 1:0.00048843785 2:0.2451027 3:-0.01991834 4:-0.31050641 5:-0.33390225 6:-0.74071911 7:-0.10902185 8:-0.45287058 9:-0.23927449 10:-0.71918696 11:-0.3032333 12:-0.56552678 13:-0.21853801 14:0.039416812 15:0.049103382 16:-0.19170653 17:-0.90968401 18:-0.21859513 
-0.22020211638583251 -0.29255900969594822 0.011762711255873332 0 0.055273056654230879 0.75964650416383039 1:-0.2323584 2:-0.32989715 3:-0.67712286 4:-0.025603103 5:-0.029002962 6:-0.49975541 7:0.063196106 8:0.26949323 9:0.78557689 10:-0.25853244 11:-0.63060992 12:-0.23183422 13:0.050977089 14:-0.52978078 15:-0.15390295 16:-0.5733328 17:-0.74628687 18:-0.65952951 
-0 -0 0 0.30681677149252978 0 0 1:0.065710505 2:0.40192418 3:-0.20223514 4:-0.089783499 5:-0.39587433 6:-0.78759716 7:0.029170303 8:-0.38688465 9:0.060454167 10:-0.71080519 11:0.01453484 12:-0.50442475 13:0.30993124 14:-0.39706866 15:0.08183017 16:-0.12370871 17:-0.80401241 18:-0.35183177 
-0.42043439564093354 -0.43519327951606318 0.24245906043937404 0.72772407653157378 0.31571333580569411 0.52848685482731506 1:-0.59738172 2:0.083148806 3:-0.46926332 4:-0.42307595 5:0.2745208 6:-0.59690489 7:1 8:-0.5045298 9:0.71092625 10:1 11:-0.79259894 12:-0.49027307 13:-0.22255124 14:-0.39034859 15:-0.26475213 16:-0.48426512 17:0.015467275 18:-0.58170643 
-0.10427304333746219 -0.17922297762886691 0.061505114096481732 0.30529003744134442 0.088498063231181825 0.30475486425342946 1:0.17517715 2:-0.93941506 3:-0.79677789 4:0.22706709 5:0.1990344 6:-0.430915 7:-0.25104978 8:0.79646341 9:0.78318341 10:-0.28949273 11:0.33468738 12:-0.57179346 13:-0.5752832 14:-0.15942813 15:0.53672996 16:-0.039431818 17:-0.10639799 18:0.034255213 
-0 -0 0.0050336461983946767 0 0 0 1:0.074872405 2:-0.56055604 3:-0.78054353 4:0.32362023 5:0.76193041 6:-0.3293732 7:-0.16767263 8:0.3082315 9:0.56760303 10:-0.54290729 11:0.30802132 12:-0.45176157 13:-0.24468943 14:-0.10047745 15:0.29172995 16:-0.37839677 17:0.024810509 18:0.43159944 
-0.16510563026655739 -0.38986274769588225 0.12459983227259713 0.3603194817331839 0.14034710049136481 0.30018604161849266 1:-0.0038574102 2:0.14019749 3:-0.22004615 4:-0.58489376 5:-0.62225897 6:-0.4504334 7:0.14993788 8:0.16269273 9:0.7393456 10:0.062209046 11:-0.77122233 12:0.029911195 13:0.065681565 14:-0.58734539 15:-0.46128165 16:-0.4730893 17:-0.22879637 18:-0.91453459 
-0 -0.17356947225259561 0.087245064945675396 0.074936788121279602 0.11812869266781652 0.19309352729484416 1:0.5241873 2:-0.63661249 3:-0.030547561 4:0.76099318 5:0.80207171 6:0.55084772 7:-0.61019823 8:0.59432575 9:0.13024175 10:-0.65695755 11:0.18009843 12:0.1803039 13:-0.17293904 14:0.38113866 15:-0.030427219 16:0.014679268 17:0.028116332 18:0.013440458 
-0 -0 0 0.023013903779400692 0 0 1:0.22229871 2:0.60421261 3:0.48704065 4:-0.24125742 5:0.14686499 6:-0.68269561 7:-0.13573256 8:-0.59596792 9:-0.70808204 10:-0.47375739 11:-0.25693925 12:-0.71437045 13:0.13942554 14:0.2099389 15:-0.68980486 16:-0.38244245 17:-0.60455198 18:-0.10604546 
-0.20705894591904148 -0.22162056078391359 0.14767638620047407 0.055207730361443774 0.20421451007341354 0.28294917303733969 1:-0.48692965 2:0.81699105 3:-0.23050015 4:-0.27835061 5:0.0078835062 6:-0.62290504 7:0.81392931 8:-0.98095125 9:-0.026934826 10:-0.48959391 11:-0.46805857 12:-0.80325077 13:0.41557292 14:0.72583813 15:-0.45360758 16:-0.25559633 17:0.63058497 18:0.15590197 
-0.38196640657014369 -0 0 0 0 0 1:0.029841443 2:0.26442129 3:0.35497402 4:0.046778183 5:-0.24726987 6:-0.69217732 7:-0.051400693 8:-0.58492362 9:-0.44401562 10:-0.64658156 11:-0.49126074 12:-0.47530911 13:-0.03074787 14:-0.02054005 15:-0.10882386 16:-0.084524537 17:-0.17528582 18:-0.43664245 
-0.28228477340838959 -0.27300604631376746 0.14103345377574264 0.15600451555430539 0.2178106805581288 0.33862632713983781 1:-0.39710058 2:0.398652 3:-0.20566543 4:-0.35258927 5:0.046962432 6:-0.1716798 7:0.67292597 8:-0.45188656 9:0.48631696 10:0.73488044 11:-0.26803816 12:-0.083589595 13:-0.1027914 14:-0.86252376 15:-0.47587026 16:0.42528167 17:-0.067871637 18:-0.31445235 
-0.021272485806938364 -0.099782399088747045 0 0 0 0.17901171729733753 1:0.43079514 2:-0.2032689 3:-0.33863292 4:0.43940122 5:0.4551956 6:0.36416912 7:-0.28699159 8:0.21508973 9:0.34858808 10:-0.50764659 11:-0.10944648 12:-0.29925352 13:0.41683684 14:0.54309257 15:0.17038502 16:0.080563795 17:0.6204982 18:-0.038712168 
-0 -0 0 0 0 0.027902562194303013 1:0.059450899 2:-0.35105845 3:-0.59482315 4:-0.48883962 5:-0.091964827 6:-0.52957932 7:-0.043553751 8:0.56168458 9:0.86060557 10:-0.020909285 11:-0.67273909 12:-0.1753946 13:0.2738899 14:0.096385841 15:-0.33488925 16:-0.58332383 17:-0.38484306 18:-0.80128676 
-0.047620035657543455 -0 0 0.0099727103749047141 0 0 1:-0.69787614 2:0.57257499 3:-0.14438885 4:0.17873201 5:0.55350486 6:-0.1155105 7:0.70506189 8:-0.88855638 9:-0.012731192 10:-0.4333837 11:-0.27882471 12:-0.55513041 13:0.72230203 14:0.02909805 15:0.20457279 16:-0.042234772 17:0.48128034 18:0.67518145 
-0.63024150120336686 -0.62802590815516524 0.35211293133641319 0.72963231178388188 0.45991657365029609 0.79244145330048166 1:0.25650493 2:-0.76929663 3:0.090004398 4:1 5:0.94498175 6:1 7:-0.52617324 8:0.5665619 9:0.13286067 10:-0.33661438 11:0.67371458 12:0.42570525 13:0.70989736 14:0.034319013 15:0.38206748 16:0.99793845 17:0.31968197 18:0.22796553 
-0.32186909664031521 -0.26970712054079482 0.16664056696122681 0.20952442532038923 0.2072391922035621 0.33968342485579883 1:0.26273686 2:-0.94911063 3:-0.81932859 4:-0.01262906 5:-0.12442579 6:-0.56336797 7:-0.32832656 8:0.85295749 9:0.67686028 10:-0.2606529 11:0.67611796 12:-0.33103003 13:-0.38049587 14:-0.15584475 15:0.75074367 16:0.042552386 17:0.28611901 18:0.43258495 
-0.23587440668608717 -0.24151908882430773 0.1433481035378838 0.24124888954082255 0.18431742510398577 0.30319570775198651 1:0.51125203 2:-0.43084366 3:0.27128359 4:0.27101609 5:0.87120129 6:-0.12800131 7:-0.6834706 8:0.32023625 9:-0.52490436 10:-0.57148921 11:0.70541822 12:0.62643127 13:0.66185528 14:0.68764829 15:-0.21149265 16:0.33951397 17:0.47546554 18:0.53147411 
-0.43189351988776076 -0.49424417987176483 0.18615067755692338 0.46808960620972961 0.3464261474793085 0.64252373789796291 1:0.77912567 2:-0.54097037 3:0.1208379 4:-0.48308699 5:-0.12508211 6:-0.38889939 7:-0.61055431 8:0.60721011 9:0.011658 10:0.042816136 11:-0.664035 12:1 13:0.63262869 14:0.82029372 15:-0.42161921 16:-0.53000118 17:0.73403092 18:-0.52326636 
-0.40377658733121474 -0 0 0.34544167273409782 0 0.030640033704501395 1:0.20225216 2:0.59639141 3:0.79788495 4:-0.21570038 5:-0.46147516 6:-0.68334296 7:-0.06485702 8:-0.60806259 9:-0.55136989 10:-0.75708597 11:-0.56854155 12:-0.34136452 13:0.16551837 14:0.21905129 15:-0.81812236 16:-0.069928852 17:-0.49861708 18:-0.78684138 
-0.082629032339819428 -0 0 0 0 0 1:0.12280292 2:0.22113912 3:0.20731642 4:0.22993135 5:-0.34825216 6:-0.77661535 7:-0.18831484 8:-0.44831459 9:-0.36989477 10:-0.75337428 11:-0.3616625 12:-0.60681465 13:0.42669417 14:-0.28330511 15:-0.10735232 16:-0.15897931 17:-0.75150094 18:-0.6440063 
-0.24751331633886461 -0 0 0 0 0.37338488166436201 1:0.4268577 2:0.56390308 3:0.64348183 4:-0.15308713 5:-0.64705695 6:-0.77227393 7:-0.22145026 8:-0.53598398 9:-0.64659859 10:-0.71116761 11:-0.5279808 12:-0.75080311 13:-0.26452127 14:-0.16282663 15:-0.79866562 16:-0.71140892 17:-0.80944243 18:-0.64582406 
-0.28128003188700962 -0.29439897557300965 0.1672490356460743 0.20017411590179773 0.21354792715927415 0.39324688442040345 1:0.14822131 2:-0.36825572 3:-0.27442106 4:0.23109185 5:0.37952509 6:0.1751987 7:-0.021289791 8:0.39135485 9:0.58423946 10:0.59753196 11:0.41873809 12:0.48062839 13:0.32728735 14:-0.68327945 15:0.15394513 16:0.86138773 17:0.36907929 18:-0.090120138 
-0 -0 0 0.50939243937863932 0 0 1:-0.0036593517 2:0.4886202 3:-0.42281597 4:-0.031540463 5:-0.34732691 6:-0.70893787 7:0.18394483 8:-0.34058505 9:0.33009679 10:-0.78362952 11:-0.12320051 12:-0.44743015 13:0.40835428 14:-0.43045847 15:0.069836485 16:-0.33914224 17:-0.67334193 18:-0.19584324 
-0 -0.11717422190985677 0.059113052368516765 0 0.041927383423203742 0 1:0.75860606 2:-0.45294552 3:0.36624097 4:0.089483149 5:0.51915789 6:-0.1958415 7:-0.80640388 8:0.58833047 9:-0.25141476 10:-0.74368503 11:-0.45836142 12:0.49179146 13:0.15959618 14:0.63473999 15:-0.37445147 16:-0.57311608 17:-0.35269949 18:-0.350519 
-0.25776147994877918 -0.29661109338439628 0.12145572919867786 0.1247818260189657 0.19955514102505237 0.35907626454088259 1:0.063693759 2:-0.35649084 3:-0.40266585 4:0.097883751 5:0.70811838 6:0.25475171 7:0.054160481 8:0.38708437 9:0.73076184 10:0.65047883 11:-0.022386914 12:0.053976373 13:0.13537971 14:0.46727756 15:-0.36747364 16:0.44544656 17:-0.14706807 18:-0.44540768 
-0 -0.024954304868855741 0.059414227613356692 0 0.064857856240554221 0.090279157353844314 1:-0.4691133 2:0.46434596 3:-0.60433639 4:-0.3682313 5:-0.18545405 6:-0.5086698 7:0.8117084 8:-0.81834905 9:0.22199988 10:-0.35559545 11:-0.096793278 12:-0.69823414 13:-0.088484309 14:-0.63546386 15:0.7816825 16:0.18947296 17:0.3490598 18:0.68094182 
-0 -0 0 0.49157263028296339 0 0 1:-0.19952483 2:0.42046566 3:-0.51005901 4:-0.62769857 5:-0.49894261 6:-0.5244574 7:0.28596562 8:-0.24031342 9:0.50185374 10:-0.44250861 11:0.2079369 12:-0.41719378 13:0.13806392 14:0.12811746 15:0.12636602 16:-0.073161929 17:0.13023932 18:0.20737664 
-0.3338245279261231 -0 0 0 0 0.15434974046213648 1:-0.53274494 2:0.64688482 3:-0.029284099 4:-0.21478118 5:-0.31501847 6:-0.14059646 7:0.83372963 8:-0.87927597 9:0.13213901 10:-0.45587712 11:-0.66294666 12:-0.32569522 13:-0.065186453 14:-0.69033322 15:0.36214659 16:-0.034434843 17:-0.25143176 18:-0.18082776 
-0 -0.20888873625473342 0 0 0 0 1:-0.35772887 2:0.31344359 3:0.026532142 4:-0.30117827 5:-0.31317085 6:-0.6870312 7:0.033067042 8:-0.51546151 9:-0.13131934 10:-0.74506545 11:-0.15369027 12:-0.56394481 13:0.78353708 14:0.28059449 15:-0.19836497 16:-0.15015647 17:-0.82591407 18:-0.26180574 
-0 -0 0.015084085081345372 0 0.037868651991727509 0.0019770259758812784 1:-0.4274551 2:0.85489684 3:-0.094930932 4:-0.44178091 5:-0.25341849 6:-0.40594507 7:0.817283 8:-0.99400685 9:-0.14554739 10:-0.37491604 11:-0.24091418 12:-0.50525867 13:0.25357595 14:0.87091744 15:-0.14875529 16:0.036269236 17:0.097506017 18:0.50447283 
-0 -0.011891687623890663 0 0 0 0 1:-0.96568713 2:0.55935896 3:-0.12914726 4:-0.052372481 5:0.16768243 6:0.011406085 7:0.82166038 8:-0.9187727 9:0.01668914 10:-0.30065812 11:-0.17713398 12:-0.53080485 13:0.22957444 14:-0.045905823 15:0.30470465 16:0.1811227 17:0.55161641 18:0.95039461 
-0 -0.14679072794900402 0 0 0 0 1:-0.45466578 2:0.4111951 3:-0.38017342 4:0.073712583 5:-0.10546993 6:-0.41758336 7:0.5746972 8:-0.67663184 9:0.28858893 10:-0.90159035 11:-0.45575485 12:-0.48925319 13:-0.19615223 14:-0.55260539 15:0.1794462 16:-0.61822879 17:-0.55175094 18:-0.25701364 
-0.16463406311385598 -0 0 0.1543998532868299 0.074199209891966281 0.0037096316979842517 1:-0.4504533 2:0.74593474 3:0.0036466322 4:-0.50668141 5:-0.00021795788 6:-0.076884507 7:0.69990394 8:-0.85081755 9:0.0063759405 10:-0.42605806 11:-0.25144251 12:-0.27149455 13:0.39136951 14:0.66414604 15:-0.023655081 16:0.32338269 17:-0.41669329 18:0.056227094 
-0.27545296286652315 -0 0 0 0 0 1:0.4789899 2:-0.5215347 3:0.68423831 4:-0.15944975 5:-0.025544892 6:-0.35045532 7:-0.89669717 8:0.5127241 9:-0.54815308 10:-0.86069411 11:-0.14378256 12:0.12994278 13:0.92224927 14:0.13592588 15:0.33988397 16:-0.087601864 17:-0.50144298 18:0.11890164 
-0 -0 0 0.46293891949773991 0 0 1:0.010819256 2:-0.79419387 3:-0.79788138 4:0.065303476 5:0.48297781 6:-0.27320004 7:-0.10730316 8:0.59186117 9:0.80604251 10:-0.33049737 11:0.57170651 12:-0.56701045 13:-0.3741437 14:-0.13499154 15:0.57655064 16:0.22541229 17:-0.11160163 18:0.20615596 
-0.24872172253114205 -0.21562999733539748 0.14381861333661161 0.088046852284216104 0.18803317558863339 0.46751190636053952 1:-0.897644 2:0.69387163 3:-0.23116073 4:-0.48340748 5:-0.25869445 6:-0.68472729 7:0.80145778 8:-0.97699143 9:-0.044033643 10:-0.61482511 11:-0.38581706 12:-0.70053955 13:0.75851275 14:0.1350737 15:0.3396097 16:-0.46466108 17:0.25643003 18:0.62734506 
-0.064241379997524189 -0.038156662241946845 0 0.047649877710902483 0 0.058692907691836119 1:-0.018541918 2:-0.027061751 3:0.07662067 4:-0.04727343 5:0.30751111 6:0.093312704 7:-0.15312646 8:-0.23342342 9:-0.031504965 10:-0.61310022 11:0.14486429 12:-0.2717903 13:0.7972969 14:0.39642692 15:0.45188291 16:0.052930241 17:0.24555421 18:0.82539567 
-0.048208840699353946 -0.28637221140662406 0.083658514606711754 0.4475986858304985 0.19908072774895433 0.68405067881789849 1:-0.94106611 2:0.71172518 3:0.062510947 4:0.19892133 5:-0.14772387 6:-0.057362191 7:0.78247046 8:-0.92527809 9:0.075684273 10:-0.97114444 11:-0.80139898 12:-0.42942971 13:0.44889093 14:0.011206925 15:-0.17388714 16:-0.57873014 17:-0.35376656 18:-0.4367829 
-0 -0.17549905264820445 0 0 0 0 1:0.42975507 2:-0.30067009 3:-0.022448785 4:-0.46922984 5:-0.50130163 6:-0.61811493 7:-0.50738414 8:0.12726194 9:-0.1218738 10:-0.84508279 11:0.092841867 12:-0.092951326 13:-0.37641743 14:-0.10386054 15:0.60777425 16:-0.17960982 17:0.42004828 18:0.31849546 
-0 -0.11898686595364556 0 0.53536085724132754 0.038121682973378646 0 1:0.2963265 2:-0.0659801 3:-0.49150798 4:0.12134789 5:0.5486385 6:-0.2908321 7:-0.26081727 8:0.16917575 9:0.36892327 10:-0.67950541 11:0.17796475 12:-0.57847102 13:0.40875165 14:0.57250889 15:-0.36940398 16:-0.23218142 17:-0.24278589 18:0.16193411 
-0 -0.075172047565685393 0 0 0.0098080204207307356 0 1:0.13907317 2:0.75142709 3:0.50367624 4:-0.11234006 5:-0.27046554 6:-0.82956047 7:-0.022033491 8:-0.76212477 9:-0.97234191 10:-0.27158075 11:-0.46419104 12:-0.97674602 13:-0.011554481 14:-0.049237638 15:-1 16:-0.42380937 17:-0.66966266 18:-0.26541207 
-1 -0.2711404033112948 0.076449671153199381 0.8781600696672196 0.21564472847602603 1 1:0.81793405 2:-0.37909387 3:0.39092487 4:0.28534808 5:0.19587675 6:-0.26943743 7:-0.84917045 8:0.50050123 9:-0.29680676 10:-0.9337665 11:-0.39781152 12:-0.19016804 13:-0.48793575 14:-0.0034857857 15:-0.54591772 16:0.021996803 17:-0.39438122 18:-0.55627771 
-0 -0 0 0 0 0.12621734861435377 1:-0.36490801 2:0.81798876 3:-0.22609698 4:-0.1769339 5:-0.56526941 6:-0.66586407 7:0.63770835 8:-0.82649233 9:0.099097896 10:-0.85797349 11:-0.57191122 12:-0.48727879 13:0.33659736 14:-0.35685613 15:0.0043459685 16:-0.48018671 17:-0.50360767 18:-0.3481504 
-0 -0 0 0 0 0.46425974369347467 1:0.16083175 2:0.19894961 3:0.63637191 4:0.00090023589 5:-0.8791896 6:-0.58961512 7:-0.16854696 8:-0.47112567 9:-0.36672082 10:-0.67528411 11:-0.4915971 12:-0.64200313 13:0.03362748 14:-0.29204273 15:-0.56294833 16:-0.21344927 17:-0.31302827 18:-0.6413653 
-0.24021460406425979 -0.2859030051714575 0.068137572994553919 0.33461573829970015 0.16137689850650869 0.74187117679654135 1:0.80325205 2:-0.46093083 3:0.38584627 4:-0.49819132 5:-0.19003197 6:-0.34323228 7:-0.82345223 8:0.54614827 9:-0.3211936 10:-0.75228613 11:-0.26317003 12:0.28092033 13:-0.86792014 14:-0.07210327 15:-0.065268988 16:0.075386113 17:-0.34422251 18:-0.28165546 
-0.06388893154392343 -0.099534018169180533 0.064393974741189491 0.089642879532969275 0.082739401083741629 0.039702055310853843 1:-1 2:0.61846072 3:-0.39022608 4:-0.012596599 5:0.32127628 6:-0.1650904 7:0.87100358 8:-0.84011928 9:0.19908165 10:-0.41029486 11:0.074022708 12:-0.52456316 13:0.52596412 14:0.019975345 15:0.22727849 16:0.33797879 17:0.098376983 18:0.98988515 
-0.085053289688622705 -0.26381379929264853 0.028600563840506445 0.80126572212593672 0.081682642794451213 0.1375337673631 1:-0.17546598 2:0.036241674 3:-0.74250987 4:-0.3542835 5:-0.26081919 6:-0.53760138 7:0.34747904 8:-0.26779139 9:0.54061914 10:-0.56808402 11:0.11518736 12:-0.38800217 13:-0.2224861 14:-0.70888139 15:0.70673522 16:-0.2864225 17:-0.094633905 18:0.1307026 
-0 -0 0 1 0 0 1:0.10248489 2:-0.79895731 3:-0.45027663 4:-0.11604083 5:0.20693072 6:-0.18232883 7:-0.46886509 8:0.71209975 9:0.478149 10:-0.58456005 11:0.43421087 12:-0.38983065 13:0.18290056 14:-0.37426975 15:0.0075685539 16:0.55626596 17:-0.047199333 18:-0.020536764 
-0 -0 0 0.11430886943516384 0.0054253220162320545 0 1:-0.79659211 2:0.81013933 3:-0.19834008 4:0.065691307 5:0.079769601 6:-0.28223289 7:0.8946356 8:-0.9457457 9:0.10752105 10:-0.71970498 11:-0.67480884 12:-0.45932687 13:0.44282544 14:0.68504031 15:-0.44308546 16:-0.52840808 17:-0.038210128 18:-0.24858975 
-0 -0 0 0.1366392729654119 0 0 1:0.26567237 2:0.1558796 3:-0.1801388 4:-0.28394792 5:-0.18662212 6:-0.057529231 7:-0.10121116 8:-0.1291526 9:0.1333622 10:-0.37627199 11:0.32033079 12:-0.11809357 13:0.32568465 14:-0.21210023 15:0.25992616 16:0.53072735 17:-0.26092761 18:0.31288401 
-0.13620912621765394 -0.11237299078341616 0.65079594740088975 1 0.0091640553226637889 0.3435275092146749 1:0.38178206 2:-0.048113059 3:0.084188836 4:-0.70640888 5:-0.4803391 6:-0.7013036 7:-0.35091594 8:0.10638066 9:0.09954962 10:-0.41227777 11:-0.71032853 12:0.24098052 13:0.033366877 14:0.20971302 15:-0.32207807 16:-0.64812037 17:0.043968882 18:-0.62728637 
-0 -0 0 0 0 0.21218861373529846 1:-0.76765262 2:0.53244059 3:-0.064746235 4:-0.20834923 5:-0.3162322 6:-0.08998048 7:0.55898089 8:-0.7063404 9:0.17234871 10:-0.73757015 11:-0.27770328 12:-0.3376727 13:0.10908492 14:-0.42443144 15:0.0010759477 16:0.20445181 17:-0.41914347 18:0.079398989 
-0.032844355351387737 -0.078593567788938903 0 0 0.1473615301220873 0 1:0.09298852 2:0.6745913 3:0.58885928 4:0.3054828 5:-0.1315982 6:-0.79283749 7:-0.09784096 8:-0.68057303 9:-0.91660201 10:-0.29776853 11:-0.29199276 12:-0.90578074 13:-0.058892906 14:-0.56422302 15:-0.39088081 16:-0.37045153 17:-0.51960473 18:0.012364355 
-0 -0.072771767510328114 0 0 0 0.012913324040878396 1:-0.43102591 2:0.46440687 3:-0.030183193 4:-0.57718089 5:-0.27789016 6:-0.59460519 7:0.37725357 8:-0.60104867 9:0.1879507 10:-0.6778644 11:-0.50250916 12:-0.47208955 13:0.85460989 14:0.3023256 15:0.20583332 16:-0.58512579 17:0.12542152 18:0.19896989 
-0.090421099100531158 -0.072621145103988954 0.037779328735181875 0.079410749016940896 0.05828175272029263 0.19148534104751933 1:0.57655536 2:-0.51927693 3:0.55348584 4:-0.070486506 5:0.12988859 6:0.18657425 7:-0.8646663 8:0.49978405 9:-0.62112336 10:-0.73644717 11:1 12:-0.049305099 13:0.35227262 14:0.18709378 15:0.30555906 16:0.63560874 17:0.18417715 18:0.75786086 
-0 -0.11630560472665508 0 0.66003138508910442 0 0.095025089545341765 1:-0.58127396 2:0.85278116 3:-0.13224479 4:-0.79782939 5:-0.48688185 6:-0.75070058 7:0.77837431 8:-0.95015711 9:-0.011269428 10:-0.6150288 11:-0.49680103 12:-0.63030123 13:0.51132478 14:0.35393504 15:-0.19865505 16:-0.19865789 17:-0.11302197 18:-0.24486383 
-0 -0 0 0.39568551432423404 0 0 1:-0.52151947 2:0.83841026 3:-0.3022716 4:-0.39731322 5:-0.40764947 6:-0.60993639 7:0.83321946 8:-0.83677496 9:0.25042007 10:-0.6793921 11:-0.47019362 12:-0.57519696 13:0.32507875 14:-0.49197086 15:0.055638173 16:-0.33209299 17:-0.096271888 18:-0.23733115 
-0.031278525020934519 -0.049386874968401454 0 0.16796663482430721 0 0.71402737564391316 1:0.033548747 2:0.26588892 3:-0.034051116 4:-0.15944802 5:-0.30668296 6:-0.45832627 7:-0.012345131 8:-0.31853442 9:0.12597763 10:-0.85868591 11:-0.27887851 12:-0.35751351 13:-0.6864171 14:-0.17011141 15:-0.44389769 16:-0.15044316 17:-0.69828205 18:-0.52294483 
-0.044903437688502149 -0.13030869901188449 0.075773634546881491 0.070872316088392354 0.095675432436969007 0.056206814545043185 1:0.75632451 2:-0.30815558 3:0.62029546 4:0.25488172 5:0.16824953 6:-0.4129357 7:-0.78854524 8:0.34266439 9:-0.80269294 10:-0.63658186 11:0.54834791 12:0.53667667 13:0.48672391 14:-0.38519945 15:0.32582807 16:-0.004739537 17:0.85066637 18:0.72526048 
-0.55280092920938151 -0.51477605711018981 1 1 0.99229374424935357 1 1:0.50630234 2:0.66543548 3:0.59530699 4:-0.67489086 5:-1 6:-1 7:-0.29766981 8:-0.4622833 9:-0.67279255 10:-0.72454598 11:-0.36455553 12:-0.72881006 13:0.0077756901 14:0.16785254 15:-0.8423576 16:-0.81671705 17:-0.65510937 18:-0.75276447 
-0 -0 0 0 0 0.01467244788338073 1:0.69613239 2:-0.34272505 3:0.69623129 4:0.10002335 5:-0.27507551 6:-0.11348074 7:-0.8911774 8:0.5664676 9:-0.44283617 10:-0.8887599 11:-0.39138079 12:0.26719737 13:0.051263756 14:-0.41119152 15:-0.31078586 16:-0.060550348 17:0.16735643 18:-0.39517062 
-0 -0.06279697164183573 0.051324166134129004 0 0 0.2671341958789335 1:0.69564284 2:-0.72302454 3:0.29952357 4:0.12846796 5:0.041404915 6:-0.068143535 7:-0.92761482 8:0.70055176 9:-0.3214469 10:-0.89633489 11:-0.13555399 12:-0.10245227 13:-0.83764471 14:-0.057970117 15:-0.037257398 16:-0.0532555 17:-0.36503674 18:-0.11786607 
-0.27822567298439371 -0.0042814010827852238 0 0.40441730700176337 0.053411447542106777 0.27900581426258692 1:-0.47708914 2:0.81783179 3:-0.17134135 4:-0.58096084 5:-0.45805396 6:-0.59520911 7:0.7957103 8:-0.95064439 9:0.0062093831 10:-0.69215887 11:-0.55074449 12:-0.55778952 13:-0.54854536 14:0.012084822 15:-0.32933016 16:-0.21641025 17:0.1674871 18:-0.21747988 
-0 -0.0024774115520292939 0.11999414960485291 0 0 0 1:0.32657467 2:0.3356015 3:0.38519153 4:0.16462922 5:-0.54427665 6:-0.8977128 7:-0.27065171 8:-0.42718323 9:-0.44993627 10:-0.74942811 11:-0.3933452 12:-0.83297067 13:0.48317973 14:-0.38110274 15:-0.3682173 16:-0.56326678 17:-0.79504201 18:-0.69024922 
-0 -0 0 1 0 0 1:-0.060916761 2:0.48929081 3:-0.27921361 4:-0.40691539 5:-0.51070861 6:-0.56137388 7:0.24241459 8:-0.52796835 9:0.14378736 10:-0.87183201 11:-0.26166655 12:-0.44916875 13:-0.5445256 14:0.019277175 15:-0.32580168 16:-0.44884139 17:-0.10696162 18:-0.42365729 
-0.19319346993234965 -0 0 1 0.17118111320360471 0.29092430535320746 1:0.6868347 2:-0.086554299 3:0.13180652 4:-0.44023966 5:-0.54486652 6:-0.65425068 7:-0.61878552 8:0.13127055 9:-0.33948356 10:-0.87609781 11:-0.13802516 12:-0.051074669 13:-0.093129573 14:-0.50704865 15:0.42400841 16:-0.10262607 17:0.073407806 18:0.0058444146 
-0.11152798110016905 -0.13174170294046497 0.016252274601336228 0.76124284517576479 0.084192133445334771 0.1711938133265925 1:0.18668959 2:-0.66945166 3:-0.8209924 4:-0.51324943 5:-0.091122522 6:-0.63086654 7:-0.095986522 8:0.61197278 9:0.81167619 10:0.050618856 11:-0.05487526 12:-0.29772022 13:-0.30929929 14:0.1063812 15:0.18856537 16:-0.75598001 17:0.6826946 18:-0.20213014 
-0.16624710013297703 -0.19647258289656447 0.1046996217554339 0.36966378860818122 0.14494515960456336 0.17146726923394259 1:0.34426637 2:-0.51453648 3:-0.40104457 4:-0.38361426 5:-0.037493821 6:-0.48528466 7:-0.40984828 8:0.49702784 9:0.4230679 10:-0.59891728 11:0.16765533 12:-0.3499083 13:0.63586021 14:0.046727202 15:0.61811708 16:-0.39246059 17:1 18:0.18484465 
-0 -0 0 0 0 0.040673006978630896 1:-0.52215498 2:0.65634001 3:-0.26691451 4:0.41588675 5:0.090452814 6:0.095048739 7:0.8203032 8:-0.86645416 9:0.13778621 10:-0.49582422 11:-0.19677339 12:-0.52093172 13:0.0050068048 14:-0.097068624 15:0.53457804 16:0.22717773 17:0.040383769 18:0.49777474 
-0.37376593227172061 -0.13391484646488205 0.030897813064835182 0 0.1380420078135367 0.12968130036987285 1:-0.11082228 2:-0.082265786 3:-0.40580471 4:-0.6550711 5:-0.31661745 6:-0.49879188 7:0.27825309 8:0.13794245 9:0.81720361 10:0.36003397 11:-0.85173276 12:0.0082027114 13:-0.56747815 14:0.021643813 15:-0.64956223 16:-0.38224272 17:-0.14475536 18:-0.94014154 
-0 -0.028668627017922513 0 1 0 0 1:-0.092376684 2:0.31053844 3:-0.1599926 4:-0.48283259 5:-0.45011759 6:-0.69159183 7:0.064130809 8:-0.41951865 9:0.064856088 10:-0.72157187 11:-0.084518052 12:-0.4933374 13:-0.41773599 14:-0.17441349 15:-0.17197256 16:0.023265455 17:-0.64649841 18:-0.36580672 
-0 -0 0 0.071901331133980464 0 0 1:0.64038076 2:-0.48898241 3:0.027281151 4:-0.11746521 5:-0.03813718 6:-0.29081274 7:-0.67982737 8:0.50086581 9:-0.0082036774 10:-0.7324742 11:0.1722558 12:-0.20294374 13:-0.9678417 14:-0.11457465 15:-0.026139253 16:0.37144072 17:0.068529552 18:0.024103553 
-0.17600495093672364 -0.13707201609710859 0.094033930114190867 0 0.11785088984161952 0.17766040749973414 1:0.54599122 2:-0.77725105 3:-0.44297112 4:-0.23340973 5:0.73454975 6:-0.25800464 7:-0.33645352 8:0.70507401 9:0.49007141 10:0.57109321 11:-0.20419114 12:0.44360203 13:0.015906506 14:0.55824223 15:0.022821748 16:-0.36926255 17:0.31671625 18:-0.1850849 
-0.1086505056970808 -0 0 0.64050088665023974 0.11557443166574904 0.018197444547281425 1:0.52291177 2:0.077254265 3:0.25254853 4:-0.53541343 5:-0.23396185 6:-0.48045697 7:-0.39965386 8:0.063807586 9:-0.064442623 10:-0.47808268 11:-0.56071048 12:0.3495024 13:0.23447378 14:0.74964326 15:-0.073792194 16:-0.60918932 17:-0.093603927 18:-0.34956539 
-0.21405376707911025 -0 0 0.44843241309465764 0 0 1:-0.37722044 2:0.89902148 3:0.1774845 4:-0.598451 5:-0.21695144 6:-0.4510846 7:0.68569125 8:-0.90826158 9:-0.050302468 10:-0.77900017 11:-0.61653304 12:-0.30031615 13:0.32163227 14:0.12688536 15:-0.3420886 16:-0.19147647 17:-0.50541045 18:-0.50821772 
-0.20683775794554157 -0.24429999685368198 0.1304022431834867 0.26681687533975651 0.15142084160597241 0.35884161674829868 1:-0.91477164 2:0.65512012 3:-0.06568337 4:0.11698164 5:0.059369346 6:0.22003775 7:0.80770087 8:-0.91696069 9:-0.020525227 10:-0.3596249 11:-0.044443958 12:-0.41414863 13:0.65221953 14:0.097001926 15:0.20457805 16:0.31982021 17:0.27686049 18:0.76779354 
-0 -0 0 0.10712241007221426 0 0 1:0.017401248 2:0.50808663 3:-0.055540824 4:-0.30817487 5:-0.41371495 6:-0.46628054 7:0.062872885 8:-0.53527193 9:-0.12069987 10:-0.86474327 11:-0.30328757 12:-0.41648955 13:-0.33861054 14:0.07853586 15:-0.46372361 16:-0.31049518 17:-0.48372946 18:-0.29322082 
-0.15686709497763393 -0.13730490946006269 0.033938661752923809 0 0.21677657228941916 0 1:0.77837596 2:-0.30887357 3:0.40624288 4:-0.59135464 5:0.018931785 6:-0.31241814 7:-0.59617291 8:0.32359866 9:-0.29213746 10:-0.13081862 11:-0.20198785 12:0.89343536 13:-0.5909128 14:0.25120901 15:-0.11399262 16:0.30380938 17:0.34654374 18:-0.11144521 
-0 -0 0 0.81665417507872917 0 0 1:-0.11231607 2:0.56685648 3:-0.32277563 4:-0.55937814 5:-0.4656212 6:-0.45438583 7:0.35722105 8:-0.50228242 9:0.25038726 10:-0.62382766 11:0.099159016 12:-0.37720218 13:0.35300881 14:-0.21066791 15:0.2129061 16:0.077245541 17:-0.15785346 18:0.33766163 
-1 -0 0 0 0 0 1:0.13887566 2:0.62033482 3:0.83430683 4:-0.20216543 5:-0.27755927 6:-0.66868015 7:0.0200632 8:-0.6727929 9:-0.56149484 10:-0.67120047 11:-0.55599709 12:-0.33200682 13:0.023496542 14:-0.12110481 15:-0.94981541 16:0.03247554 17:-0.35474185 18:-0.71969263 
-0 -0 0.13725173053578268 0.97014296988834514 0 0 1:0.44053773 2:0.50822741 3:0.57178624 4:-0.46921497 5:-0.91216828 6:-0.72123208 7:-0.080209123 8:-0.58369705 9:-0.45947914 10:-0.69598886 11:-0.41319785 12:-0.66925013 13:-0.36291823 14:-0.18227324 15:-0.79172995 16:-0.5673552 17:-0.65042592 18:-0.76576259 
-0.10449107259745778 -0.22031564699041772 0.10711081055590312 0.034138804738605498 0.16958488319807125 0.27622594929160105 1:-0.47874393 2:0.23148627 3:0.16203662 4:0.2037857 5:0.51706927 6:-0.35296662 7:0.046632563 8:-0.64006742 9:-0.48409187 10:-0.1436284 11:-0.00086002684 12:-0.65375641 13:0.56637055 14:0.22449305 15:-0.21408227 16:-0.37688792 17:-0.62287543 18:0.63424634 
-0 -0 0 0.29240065635533286 0 0 1:0.25411768 2:-0.23051206 3:-0.73044738 4:0.20896821 5:-0.020832847 6:-0.35975421 7:-0.11906535 8:0.24997714 9:0.61598322 10:-0.5422878 11:-0.37688101 12:-0.42348864 13:-0.16168755 14:-0.42503723 15:0.16718353 16:-0.57925876 17:0.10430281 18:-0.20714202 
-0.13236027034419395 -0.24386873277889795 0.022341386025777843 0.067084602769472146 0.068034038872337638 0.086739056380510882 1:0.049511116 2:0.31296593 3:-0.30146164 4:0.16817525 5:0.2473871 6:-0.049493237 7:0.089541051 8:-0.4667263 9:-0.0030098387 10:-0.30118609 11:-0.089839263 12:-0.60608797 13:-0.74821895 14:-0.008306377 15:-0.38167197 16:0.0033436871 17:-0.19746416 18:0.44198127 
-0 -0 0 0.5692652966113817 0 0 1:0.38933786 2:-0.47334022 3:-0.66012207 4:-0.21773348 5:0.19644679 6:-0.54181277 7:-0.41170498 8:0.62704161 9:0.49725313 10:-0.47639164 11:0.3135293 12:-0.38727944 13:0.43872747 14:0.58398277 15:-0.11553269 16:-0.19980582 17:-0.084519796 18:0.063988301 
-0.4125734102612364 -0.21049284590567804 0.11370820430064892 0.54863942272763178 0.19251666474939721 0.44106824373738046 1:0.19340782 2:0.43035602 3:0.10092813 4:0.34266711 5:0.1834072 6:-0.55352429 7:-0.028050181 8:-0.60251624 9:-0.52199259 10:0.0092594046 11:0.052261443 12:-0.87561116 13:0.047107129 14:-0.24332356 15:0.18188818 16:-0.38393935 17:-0.54074162 18:0.63470056 
-0 -0 0 1 0 0 1:0.32596361 2:0.012207178 3:-0.21629327 4:-0.3533118 5:-0.035166564 6:-0.062839417 7:-0.12887479 8:0.12796699 9:0.42594254 10:-0.3604584 11:-0.028932162 12:-0.16814458 13:-0.41392464 14:0.29363417 15:-0.13239451 16:0.24855765 17:-0.30591272 18:-0.26522874 
-0 -0 0 1 0 0 1:0.30420491 2:0.13417214 3:0.23213941 4:-0.24389683 5:-0.42873464 6:-0.35907294 7:-0.45168398 8:0.020095136 9:-0.14719326 10:-0.85847998 11:0.073233071 12:-0.19153918 13:0.084705556 14:-0.35405824 15:0.12800105 16:0.021891639 17:-0.041480237 18:0.17102121 
-0 -0.00078391711254184376 0 0 0 0 1:0.77224336 2:-0.74126094 3:0.25136094 4:0.24503366 5:0.34833523 6:-0.079888719 7:-0.76099173 8:0.50021848 9:-0.23633035 10:-0.69863634 11:-0.35543746 12:0.35913721 13:-0.43320923 14:-0.36551674 15:0.5835654 16:-0.20630786 17:0.53773919 18:0.098516701 
-0 -0 0 0.30192078034690728 0 0 1:-0.29803677 2:0.52540235 3:-0.37571862 4:-0.43563482 5:-0.23823491 6:-0.62087671 7:0.43160613 8:-0.5141267 9:0.37208381 10:-0.76536443 11:-0.4224233 12:-0.44671214 13:0.35805147 14:0.42355357 15:-0.32493144 16:-0.74113343 17:0.069948645 18:-0.24566485 
-0 -0 0 0 0 0.26881844996833371 1:0.34550453 2:-0.46374507 3:0.26527127 4:-0.025398095 5:-0.27252768 6:-0.42281518 7:-0.77218682 8:0.5086635 9:-0.12342151 10:-0.86036863 11:-0.34456344 12:-0.18408775 13:0.88814943 14:-0.05394527 15:0.051191962 16:-0.24136976 17:-0.20112084 18:-0.23140566 
-0 -0 0 1 0 0 1:0.59362962 2:-0.25127589 3:0.14725488 4:-0.44634954 5:-0.39195718 6:-0.73811015 7:-0.55754943 8:0.15535065 9:-0.15473361 10:-0.77830042 11:-0.39626465 12:-0.0081705658 13:0.061427258 14:-0.60827045 15:0.17170359 16:-0.46514721 17:0.33999526 18:-0.30798172 
-0 -0 0 0.68553354618746543 0 0.085241612923957766 1:0.70051849 2:-0.19972166 3:-0.018332022 4:-0.26105233 5:-0.56661612 6:-0.66365947 7:-0.6582279 8:0.5024462 9:0.01628395 10:-0.76740235 11:-0.13529541 12:0.091056286 13:0.55094287 14:-0.25905844 15:0.12611283 16:-0.37249632 17:-0.28653519 18:-0.25605295 
-0 -0 0 0 0 1 1:0.089029264 2:0.29579006 3:0.57047829 4:-0.0075814312 5:-0.82442672 6:-0.6871659 7:-0.20818193 8:-0.45950048 9:-0.40688201 10:-0.70813729 11:-0.44173071 12:-0.73398038 13:0.46349121 14:-0.019374706 15:-0.43268988 16:-0.44411136 17:-0.61675579 18:-0.68859571 
-0 -0 0 0.15622733614466056 0 0 1:-0.2068394 2:0.16181465 3:-0.69983558 4:-0.35213203 5:-0.11406069 6:-0.29929033 7:0.32493766 8:-0.33622089 9:0.43401783 10:-0.47487045 11:0.24867943 12:-0.48597721 13:-0.68596101 14:-0.0048051681 15:0.063792187 16:0.1062224 17:-0.10376396 18:0.21089978 
-0.021449395215112851 -0 0.02473409168478425 0.020027069493212656 0.040515260300668411 0 1:-0.29758554 2:0.37921811 3:-0.5146824 4:-0.29404559 5:0.18708613 6:-0.39985213 7:0.44825047 8:-0.4171667 9:0.48224172 10:-0.67461794 11:-0.39285911 12:-0.26610964 13:0.30211967 14:0.65742598 15:-0.65436708 16:-0.46462704 17:-0.3890956 18:-0.55389047 
-0 -0 0 0.27701704981617203 0 0 1:0.53491734 2:0.092169219 3:0.13324227 4:-0.26239121 5:-0.051166693 6:-0.25592177 7:-0.40954346 8:-0.04138279 9:-0.1395589 10:-0.71049608 11:-0.13496979 12:-0.27406404 13:0.34946462 14:0.55929977 15:-0.11092828 16:-0.088657345 17:-0.076597763 18:0.13287815 
-0 -0 0 0.24831118406101307 0 0 1:-0.066682515 2:0.027047621 3:-0.72431147 4:-0.16602748 5:0.081611693 6:-0.50046446 7:0.16703045 8:-0.28551584 9:0.37236645 10:-0.62294472 11:0.087736085 12:-0.58976527 13:-0.25071586 14:-0.020334713 15:0.073306949 16:-0.031236614 17:-0.44474836 18:-0.18295915 
-0 -0 0 0.3114667701440933 0 0 1:0.22641031 2:0.60067919 3:0.64455465 4:-0.12250432 5:-0.39506783 6:-0.76004628 7:-0.11965603 8:-0.53227804 9:-0.46718461 10:-0.76212318 11:-0.41871331 12:-0.41281567 13:0.24687844 14:-0.55336005 15:-0.30818567 16:-0.18565365 17:-0.67786277 18:-0.6079282 
-0 -0 0 0.31724096865726997 0 0 1:0.01289854 2:-0.2804872 3:-0.49373458 4:-0.6832062 5:-0.42788139 6:-0.55895369 7:0.014245434 8:0.58560982 9:0.8926124 10:0.23539073 11:-0.3797126 12:-0.17289239 13:-0.0064466877 14:-0.14601881 15:-0.1910918 16:-0.50037749 17:-0.15789468 18:-0.60585174 
-0.12700377958284692 -0.3366997855111552 0.17881029803563403 0.20481463643795408 0.24873294655864683 0.14993955066419687 1:0.5249886 2:-0.64018471 3:0.64186107 4:-0.079733626 5:0.01630803 6:-0.26865002 7:-1 8:0.68681139 9:-0.65345938 10:-0.9287178 11:0.31142003 12:-0.046966241 13:0.94341015 14:0.31210537 15:0.21691982 16:-0.078879465 17:-0.49665863 18:0.35942742 
-0 -0 0 0.032763136566408876 0 0 1:-0.17972115 2:-0.33619485 3:-0.50735099 4:-0.14414253 5:0.22937735 6:-0.36904481 7:-0.10431714 8:0.38697085 9:0.72016116 10:-0.39650059 11:-0.37387839 12:-0.38438087 13:0.24892418 14:-0.1322347 15:0.082067506 16:-0.49412255 17:-0.426818 18:-0.45838482 
-0.97893848982170439 -0.51766241233228483 0.27456521246808063 0.7795698000854715 0.37029703141874681 0.60927043172061324 1:-0.69474793 2:0.80981969 3:-0.052099523 4:-0.10365057 5:-0.26195752 6:-0.33770746 7:0.98594984 8:-0.93511657 9:0.16650505 10:-0.59102534 11:-0.87332636 12:-0.18625712 13:-0.76356845 14:-0.047825871 15:-0.60603376 16:-0.56923676 17:-0.59660414 18:-0.92993259 
-0 -0 0 0.84785783430966444 0 0 1:0.72062009 2:-0.50520269 3:0.0071652801 4:-0.071190614 5:0.013135772 6:-0.15219272 7:-0.6682948 8:0.50069272 9:0.033662612 10:-0.83275651 11:-0.218301 12:-0.04308143 13:-0.65851311 14:-0.0043636244 15:0.087246819 16:-0.51439795 17:-0.026360742 18:-0.2393399 
-0 -0.039703730136145497 0 0 0 0 1:-0.005388856 2:0.19047829 3:-0.50736463 4:0.0031942358 5:-0.1590898 6:-0.36764015 7:0.23585533 8:-0.43718369 9:0.24158429 10:-0.57453744 11:0.021731939 12:-0.56617678 13:-0.69959705 14:0.17055293 15:0.10069092 16:0.0096035468 17:0.43358632 18:0.27132801 
-0.19665955871878307 -0.14867013015395178 0.10424102657779465 0 0.14556869472671666 0.20413583272290334 1:0.071009858 2:-0.65949151 3:-0.85357216 4:0.1519398 5:0.5425352 6:-0.078632648 7:-0.074170988 8:0.46522944 9:0.70215071 10:-0.20399852 11:0.69644154 12:-0.19795113 13:0.23402423 14:-0.25064432 15:0.83947257 16:0.33702369 17:-0.28015947 18:0.35742576 
-0.041095634278016928 -0.060850826927526983 0 0 0.026873097583273518 0.058147672204544962 1:-0.4570549 2:-0.19036545 3:-0.52457736 4:-0.12707013 5:0.51341193 6:-0.11060054 7:0.17246755 8:0.00065682539 9:0.60515878 10:0.030313875 11:0.15271845 12:-0.35398721 13:0.88248133 14:0.25079831 15:0.35040611 16:0.043056449 17:-0.20806371 18:0.45912126 
-0 -0 0 0 0 0.057758747875404234 1:0.074339136 2:-0.27420649 3:-0.081167211 4:0.84440085 5:0.50409468 6:0.45671398 7:-0.29673091 8:0.25956561 9:0.33978169 10:-0.61163925 11:0.41363518 12:-0.24926475 13:0.37128356 14:-0.098090223 15:0.35070676 16:0.39870179 17:0.31006792 18:0.18167931 
-0.43764431279649813 -0.28490688322235763 0.13767889211304651 0.42965982267252006 0.18320742355475506 0.50837908764234074 1:0.50272394 2:-0.1696328 3:0.64091769 4:0.040672854 5:-0.13858235 6:0.30842625 7:-0.57733087 8:0.20089916 9:-0.36095136 10:-0.47295011 11:-0.11599098 12:0.72040404 13:0.30746857 14:-0.28133375 15:0.070406111 16:0.53207155 17:0.95082177 18:-0.15489889 
-0 -0 0 0.049672681894092754 0 0 1:0.86954025 2:-0.31402598 3:0.40448886 4:-0.38528073 5:-0.17337497 6:-0.21974387 7:-0.7297223 8:0.37047453 9:-0.31316946 10:-0.79039148 11:0.18089806 12:0.034624068 13:-0.63148859 14:0.23620309 15:-0.15376055 16:0.083526576 17:0.65610529 18:0.32184255 
-0.091479657349332083 -0.054161595484973277 0 0 0 0 1:0.25423695 2:-0.14777869 3:0.4298688 4:-0.72807631 5:-0.40791004 6:-0.51941082 7:-0.64643574 8:0.22808798 9:-0.35473164 10:-0.64005722 11:-0.086358211 12:0.23553186 13:0.37576592 14:-0.5121259 15:0.050991542 16:0.12604717 17:-0.21219204 18:-0.1684414 
-0.12604840974866841 -0.20926701105480777 0.10239598993862596 0 0.13984641510302029 0.1878413605905972 1:0.23985963 2:-0.46830862 3:-0.019198621 4:-0.66020051 5:-0.11136225 6:-0.63097042 7:-0.64165631 8:0.41682621 9:-0.16200183 10:-0.65793794 11:0.47833885 12:0.32216698 13:0.94913038 14:0.47528111 15:0.4282067 16:-0.27566953 17:0.17889901 18:0.54767837 
-0 -0 0.0033269951418881333 0 0 0 1:0.96887449 2:-0.92925218 3:0.082723157 4:0.17478786 5:-0.081901325 6:-0.41526191 7:-0.95466944 8:0.78517899 9:-0.44212203 10:-0.80784524 11:0.18409925 12:0.23477486 13:-0.56295668 14:-0.10662253 15:0.131904 16:-0.094675435 17:0.56302877 18:-0.16123306 
-0.096684949267456119 -0.20458104466755928 0 0.30061632742175876 0.066284689546874942 0.10256226055063947 1:-0.048967259 2:0.42189111 3:-0.40763109 4:-0.62948149 5:-0.10302707 6:-0.40067161 7:0.38794305 8:-0.59489254 9:0.17429226 10:-0.40665984 11:-0.081910533 12:-0.63991528 13:-0.12884514 14:0.59163202 15:0.058280618 16:0.18153347 17:0.66176384 18:0.33333947 
-0.36649962530725966 -0.23497073470682545 0.12906345731583571 0.76867023209819141 0.27302406288391606 0.34718432161828355 1:0.84056702 2:0.043898509 3:0.56177498 4:-0.34330444 5:-0.34585121 6:-0.28293325 7:-0.65630313 8:0.079538652 9:-0.55019401 10:-0.93297238 11:-0.30069669 12:0.090252214 13:0.64353494 14:0.55512606 15:-0.24087025 16:-0.44479683 17:0.91773289 18:-0.23075396 
-0.17085550567671004 -0.21126518784462189 0.10037488045430984 0.0031183898572331439 0.13079697319017478 0.14747651629245173 1:-0.14100639 2:-0.71546874 3:-1 4:0.045271636 5:0.45334662 6:-0.059507258 7:0.2824931 8:0.51079768 9:0.99649872 10:0.55316032 11:0.49304675 12:-0.12568449 13:-0.23754893 14:-0.092109474 15:0.040084387 16:0.30862773 17:0.50238095 18:0.083529325 
-0.27100551606910367 -0.16058028456725773 0.093383927010675244 0.19294835724147955 0.10049858407274577 0.27337019995380679 1:0.87510465 2:-0.72999992 3:0.32229461 4:0.0076116399 5:-0.12927366 6:-0.018642201 7:-0.96027335 8:0.66505117 9:-0.51101567 10:-0.90609089 11:0.30727526 12:-0.15366541 13:-0.20974915 14:-0.68282257 15:0.74398204 16:0.29751219 17:0.053714196 18:0.37439573 
-0 -0.15031853398289172 0.2285517865960339 0.39929416315899124 0 0.09619426596582259 1:-0.32186154 2:0.50752559 3:-0.40553547 4:-0.35762062 5:-0.24961856 6:-0.47812827 7:0.44044279 8:-0.52364566 9:0.34604878 10:-0.6932571 11:-0.27524989 12:-0.41827164 13:0.53550218 14:0.56589664 15:-0.51659809 16:-0.35281792 17:-0.61206463 18:-0.51544765 
-0 -0 0 0.050866780174515909 0 0 1:0.61668539 2:-0.16215836 3:0.076713857 4:-0.44295212 5:-0.10047036 6:-0.082385463 7:-0.36543451 8:0.14755386 9:0.057714782 10:-0.22255945 11:-0.28202472 12:0.30279369 13:-0.24775805 14:-0.55848865 15:0.14508437 16:0.39495114 17:-0.077219478 18:-0.25151633 
-0 -0.046554809058301151 0.03082216680731625 0 0.028561537723887902 0 1:0.65729274 2:-0.62767145 3:0.70014105 4:-0.20857936 5:0.054832732 6:-0.10933936 7:-0.97004256 8:0.89975827 9:-0.5498607 10:-0.70483187 11:0.60847459 12:0.62434671 13:0.36005159 14:-0.38945016 15:0.068976778 16:0.16714662 17:-0.25069588 18:0.23812252 
-0.19686646568743127 -0.31566263866517058 0.097561945625269791 0.13227017703401517 0.17184510951483287 0.21672148766359164 1:-0.3990738 2:0.37119627 3:-0.40901104 4:-0.63918381 5:-0.077674727 6:-0.64487954 7:0.62465459 8:-0.43841372 9:0.53848367 10:0.59920314 11:-0.36459664 12:-0.53194693 13:0.59731059 14:0.55764157 15:0.046239421 16:-0.58017327 17:0.0889447 18:-0.16644828 
-0.2732151759176929 -0.27941224853135826 0.15306445107932007 0.37412242059012651 0.20406883560362429 0.32624927213210447 1:0.80501506 2:-0.45798547 3:0.32062645 4:0.10882729 5:0.25164852 6:0.25960077 7:-0.72237863 8:0.39701285 9:-0.38067855 10:-0.49324142 11:0.71405657 12:0.089763348 13:-0.35979754 14:-0.36978284 15:0.92263711 16:0.77371001 17:0.48989604 18:0.77401239 
-0 -0 0 0.12122958565571568 0 0 1:-0.35439339 2:0.59876859 3:-0.36982684 4:-0.5019271 5:-0.67340936 6:-0.2723387 7:0.45385989 8:-0.45150199 9:0.40727944 10:-0.49797417 11:0.055901102 12:-0.34952194 13:-0.016421204 14:-0.39646801 15:0.13113922 16:0.16448232 17:-0.34064935 18:0.11366732 
-0 -0 0.18677806612211906 0 0 0.11930941495716203 1:0.030768737 2:0.49551412 3:-0.092959614 4:-0.37370394 5:-0.40068117 6:-0.76198203 7:0.039914525 8:-0.44892389 9:0.016654586 10:-0.78250421 11:-0.29153261 12:-0.54873459 13:-0.038591965 14:0.24919145 15:-0.55532174 16:-0.33215175 17:-0.87559695 18:-0.55672026 
-0.13798192154483366 -0.18194115580389753 0.11094292728352996 0 0.13429900378408327 0.1974983246184796 1:0.7018729 2:0.0025419761 3:0.4365323 4:-0.38210529 5:-0.10450564 6:-0.47048715 7:-0.62777904 8:0.15786327 9:-0.42926412 10:-0.79259391 11:-0.44141695 12:0.53000855 13:0.50299202 14:1 15:-0.386846 16:-0.68554101 17:0.67331207 18:-0.32924462 
-0 -0 0.039419235368676669 0 0 0 1:-0.17070488 2:-0.13828174 3:-0.81005666 4:0.27637313 5:0.55444357 6:0.3641365 7:0.3936931 8:0.024888143 9:0.79517491 10:-0.072532482 11:0.43801716 12:-0.24355563 13:0.14946528 14:-0.27797116 15:0.61659282 16:0.38216155 17:0.31839963 18:0.25841548 
-0.26797750167722773 -0.15214364798396648 0.062311990471544017 0 0 0.026471549076485319 1:-0.25432641 2:0.50809671 3:-0.23737645 4:-0.52289149 5:-0.36018121 6:-0.62041139 7:0.50822221 8:-0.53024394 9:0.42067154 10:-0.45456198 11:-0.86356672 12:-0.38699329 13:-0.18393648 14:0.13901127 15:-0.42188819 16:-0.84730522 17:0.0051606698 18:-0.64110869 
-0 -0 0 1 0 0 1:0.41542248 2:0.082897634 3:0.28669588 4:-0.40764682 5:-0.59033121 6:-0.48685933 7:-0.50905036 8:0.11216358 9:-0.16519371 10:-0.81802545 11:0.13293401 12:-0.039194914 13:-0.037165177 14:0.0033728621 15:0.066160331 16:0.096470499 17:-0.043148893 18:0.21857472 
-0.84134307986380985 -0.13422141751574856 0.18495650673037606 0.32067837684630868 0.29906802863724774 1 1:0.17176457 2:0.29455051 3:0.63078305 4:-0.19293423 5:-0.76774886 6:-0.84478919 7:-0.16147367 8:-0.50193852 9:-0.41548326 10:-0.72789605 11:-0.69456632 12:-0.5460364 13:-0.36074222 14:-0.77192876 15:-0.1320728 16:-0.60711045 17:-0.61816753 18:-0.71330786 
-0 -0 0 1 0 0 1:0.073050501 2:0.44640168 3:-0.16277503 4:-0.48970065 5:-0.35144493 6:-0.32817 7:0.054691113 8:-0.28532275 9:0.20428542 10:-0.51291474 11:-0.3219354 12:-0.17395212 13:-0.10138414 14:-0.39456851 15:-0.21264241 16:-0.019274474 17:-0.1955394 18:-0.19712441 
-0 -0.048171026911676393 0 0 0.025851837749010988 0.11150871196315182 1:-0.2720189 2:0.49314277 3:0.62332933 4:-0.079784809 5:-0.14977362 6:-0.79941743 7:0.040229832 8:-0.80574355 9:-0.89627699 10:-0.4238674 11:-0.5351219 12:-0.94243168 13:0.54462979 14:0.16746239 15:-0.28378165 16:-0.5321084 17:-0.52646729 18:-0.2948829 
-0 -0 0 0 0 0.10035178361401713 1:0.17061582 2:0.58613488 3:0.75237941 4:-0.17485169 5:-0.5520274 6:-0.75355667 7:-0.01955981 8:-0.76640725 9:-0.82445379 10:-0.61934387 11:-0.67831412 12:-0.94949371 13:0.07116728 14:-0.2403409 15:-0.84729431 16:-0.35751956 17:-0.39537416 18:-0.69700533 
-0.12384788525970575 -0.15323475160003658 0.34316841305375861 0 0.043587659018403849 0.35846498261814996 1:-0.22306797 2:0.37673507 3:0.77765682 4:-0.20191848 5:-0.2275587 6:-0.74625003 7:-0.11168863 8:-0.57245673 9:-0.56650599 10:-0.79753566 11:-0.53353828 12:-0.32441039 13:0.83012628 14:0.17014734 15:-0.42514241 16:-0.24280513 17:-0.5470983 18:-0.61063732 
-0.25964389978435054 -0.43200001473376215 0.21194386388148229 0.93688519732394804 0.27725228373415706 0.50354922066870988 1:0.075394882 2:-0.28571364 3:-0.7483163 4:-0.42663808 5:0.16091199 6:-0.57105097 7:0.10716981 8:0.46665163 9:0.97183108 10:-0.20295968 11:-0.55770302 12:-0.46960727 13:-0.20217213 14:0.10081117 15:-0.40103904 16:-1 17:-0.48709694 18:-0.696194 
-0.27517977374734792 -0 0 0 0 0 1:-0.24982279 2:0.50901698 3:-0.097172281 4:-0.12482327 5:-0.38276607 6:-0.31904689 7:0.45451351 8:-0.54346249 9:0.29194885 10:-0.68345867 11:-0.40104188 12:-0.076026378 13:-0.73868089 14:-0.1095436 15:-0.39276901 16:-0.15551086 17:-0.47357775 18:-0.55242064 
-0 -0 0 0 0 0.48467250497450115 1:-0.36439895 2:0.27611326 3:0.14900051 4:0.12897288 5:-0.1376019 6:-0.37734083 7:0.034282053 8:-0.47971901 9:-0.032891609 10:-0.91507362 11:-0.36416355 12:-0.50013505 13:0.62126644 14:0.01183839 15:-0.22571731 16:-0.16098532 17:-0.50543852 18:-0.33158106 
-0 -0.020090400064943951 0 0.10213355144653877 0 0 1:0.43533984 2:-0.50724121 3:0.78906333 4:0.057640197 5:0.43296086 6:-0.023341368 7:-0.89857594 8:0.38663383 9:-0.74440931 10:-0.9264654 11:-0.03550185 12:-0.081266787 13:0.85300718 14:0.18702195 15:0.28095464 16:-0.24679322 17:-0.014982727 18:0.31283984 
-0.046912263901082281 -0.030057117228753774 0.060013782602060819 0.27579587328007571 0.069952967580449776 0.13805703981316395 1:-0.10668355 2:-0.51257315 3:-0.94294337 4:-0.045703241 5:0.17774782 6:-0.29520322 7:0.14211115 8:0.50592047 9:0.97718427 10:0.1055396 11:-0.12239784 12:-0.44227069 13:-0.81896601 14:-0.11849686 15:-0.2148787 16:-0.16430333 17:-0.23304953 18:-0.49837174 
-0 -0 0 0.0047232139537986871 0 0 1:0.33353571 2:0.5115367 3:0.39413703 4:-0.046378151 5:-0.105241 6:-0.5595333 7:-0.14333673 8:-0.53236058 9:-0.5450778 10:-0.38040505 11:-0.14459536 12:-0.73471278 13:-0.46410368 14:-0.16273932 15:-0.61678272 16:-0.33276889 17:-0.44594844 18:-0.069315427 
-0 -0 0 0.2164760338278888 0 0 1:-0.32434241 2:0.50036553 3:-0.32210892 4:-0.08934193 5:-0.3562543 6:-0.51331286 7:0.35274329 8:-0.45587683 9:0.3517699 10:-0.84475255 11:-0.0060740236 12:-0.46196458 13:0.11601041 14:-0.5043226 15:0.019414572 16:-0.33304868 17:-0.39541943 18:-0.13865618 
-0 -0 0 0 0 0.41167803932954 1:0.084315727 2:0.13796245 3:0.44048527 4:0.16744794 5:-0.22730117 6:-0.57688017 7:-0.23459514 8:-0.41136742 9:-0.3903231 10:-0.75248798 11:-0.3705804 12:-0.58414392 13:0.16447598 14:-0.15953592 15:-0.19238927 16:0.11349524 17:-0.64859006 18:-0.4127778 
-0.18554564382206401 -0.54020675516489014 -0.579819401981715 0.56442163888689967 0.11813198701346618 1 1:0.17266004 2:0.11405182 3:0.40345203 4:-0.83638546 5:-0.90449977 6:-0.86070975 7:-1 8:-1 9:-0.091447113 10:-0.96302451 11:-0.98738714 12:-0.94572721 13:0.35448606 14:-0.31503921 15:-0.4910285 16:-0.95533765 17:-0.82058782 18:-0.82751438 
-0.72409062296051907 -0.76094358435474296 -0.6575236036398121 0.8170451121220591 0.5006844912571129 0.57635242713496948 1:0.54367942 2:0.23605723 3:1 4:-0.78019973 5:-0.86434358 6:-0.67865495 7:0.14142428 8:0.070978738 9:-0.58730664 10:-0.94095851 11:-0.97736747 12:0.04718647 13:1 14:0.51674468 15:-0.41573461 16:-0.93505774 17:-0.55717402 18:-0.92016942 
-0 -0.30780121612143124 -0 0 0 0 1:0.4749263 2:0.64505477 3:0.60729063 4:-0.99449202 5:-0.99360843 6:-0.98653807 7:-0.39631878 8:-0.70315858 9:0.54373306 10:-0.99503479 11:-0.99644825 12:-0.97698661 13:0.50395012 14:-0.14385245 15:-0.20232258 16:-0.99732808 17:-0.99681078 18:-0.99640679 
-0 -0 -0 0 0.035700019676600289 0 1:0.55392689 2:0.56958514 3:0.6576637 4:-0.93651558 5:-0.93926041 6:-0.89194746 7:0.34576098 8:0.1704634 9:-0.29592979 10:-0.93541442 11:-0.95775603 12:-0.89919457 13:0.23952684 14:-0.32991387 15:-0.052496295 16:-0.9822337 17:-0.92794506 18:-0.94639559 
-0 -0 -0 0 0 0.31084675807374373 1:0.47304491 2:0.76781699 3:0.60137923 4:-0.985364 5:-0.99368945 6:-0.93127619 7:-0.33722107 8:-0.65228027 9:0.52219416 10:-0.99179796 11:-0.99304063 12:-0.94314001 13:0.55707392 14:-0.12295099 15:-0.16919707 16:-0.98291142 17:-0.98892984 18:-0.99177415 
-0.28059078439075624 -0 -0.29341373220979555 1 0.74699905542259093 0.71573863043162345 1:0.94063471 2:0.83618865 3:0.51002044 4:-0.82564433 5:-0.84641475 6:-0.69904734 7:0.035943838 8:-0.067003699 9:-0.52058596 10:-0.8771637 11:-0.95726596 12:-0.63899363 13:0.41990861 14:-0.70797803 15:-0.072390648 16:-0.73885036 17:-0.62896612 18:-0.67775056 
-0.061489674618731317 -0.37883205907507927 -0.26798814155784745 0.90548256899404189 0.86417854892470247 0.31908501696274361 1:0.45725553 2:0.60546131 3:0.6022734 4:-0.97193235 5:-0.98437983 6:-0.96468242 7:-0.56195753 8:-0.69896902 9:-0.12798943 10:-0.81800953 11:-0.89067099 12:-0.95454237 13:0.63778451 14:-0.33329059 15:0.3771834 16:-0.99326975 17:-0.95989761 18:-0.97693868 
-0.13012471582000018 -0 -0.072694665509983269 0.095893841602150851 0 0 1:0.55840159 2:0.56196888 3:0.54920647 4:-0.99794074 5:-0.9956198 6:-0.99268533 7:0.9130066 8:0.99602687 9:-0.71545818 10:-0.99665785 11:-0.9892012 12:-0.99079653 13:0.44604347 14:-0.2006155 15:-0.33349197 16:-0.99832964 17:-0.99857086 18:-0.9949755 
-0.6190477732268147 -0.36620213570060545 -0.69605180754973417 0.83568832224812306 0.47828219673978695 0.54578491420483277 1:0.46371078 2:0.52494925 3:0.61936257 4:-0.94817583 5:-0.97658531 6:-0.93021536 7:-0.90761776 8:-0.93955333 9:-0.101278 10:-0.87099493 11:-0.96410549 12:-0.97289545 13:0.5781697 14:-0.77811972 15:0.12017516 16:-0.98283895 17:-0.92789242 18:-0.92180413 
-0.27373204279760893 -0 -0 0 0 0 1:0.47246108 2:0.69445186 3:0.62479085 4:-0.99619918 5:-0.99442351 6:-0.98379724 7:-0.64403736 8:-0.8827756 9:0.49159142 10:-0.99753413 11:-0.99845824 12:-0.94764795 13:0.51821326 14:-0.16240302 15:-0.29646375 16:-0.98949024 17:-0.99621049 18:-0.99790551 
-0.41021926559404454 -0.41167509600765406 -0.40592426104917134 0.44166814729285064 1 0.44206832648145755 1:0.6934429 2:0.94095695 3:0.53088318 4:-0.88936031 5:-0.95150579 6:-0.93611276 7:0.9005554 8:0.75718977 9:-0.009300551 10:-0.97123142 11:-0.96244038 12:-0.91720243 13:0.44459154 14:0.28037444 15:-0.35300556 16:-0.9778654 17:-0.9022075 18:-0.96999188 
-0.47765300640475261 -0 -0.54572283120978426 0.35325074067938916 0.089550508114428704 0.7589308718589608 1:0.6093531 2:0.20159512 3:0.882286 4:-0.80434784 5:-0.87970276 6:-0.725392 7:0.01949844 8:0.11551578 9:-1 10:-0.95913082 11:-0.89345689 12:-0.33321823 13:0.68561302 14:0.32213461 15:-0.60620626 16:-0.91249693 17:-0.52121741 18:-0.94293582 
-0 -0.11248079819888739 -0 0 0 0 1:0.49182615 2:0.60220786 3:0.58353098 4:-0.97925498 5:-0.97789649 6:-0.95778235 7:0.82807706 8:0.67794162 9:-0.074182627 10:-0.96737014 11:-0.95505524 12:-0.98356189 13:0.53717385 14:-0.32333141 15:-0.0025224718 16:-0.99382746 17:-0.98656824 18:-0.99369951 
-0 -0 -0 0 0 0.22551325657676069 1:0.436774 2:-0.050162508 3:0.57930008 4:-0.94930283 5:-0.97766218 6:-0.93639398 7:-0.15634208 8:-0.17215904 9:-0.74580231 10:-0.97992547 11:-0.98468156 12:-0.99007825 13:0.51069735 14:-0.21574661 15:-0.22088429 16:-0.98789896 17:-0.96440917 18:-0.99122581 
